0.352077
-0.211772
0.328836
0.470183
-0.401364
-0.337602
0.295301
0.381691
-0.171798
-0.016633
0.190094
-0.025046
0.273347
-0.321795
0.218047
-0.072007
-0.006932
-0.154239
-0.179796
-0.321282
0.401283
-0.262261
-0.243476
-0.252641
0.052394
-0.042960
-0.129202
0.021809
0.205900
0.279606
0.019644
0.207258
0.330039
-0.211706
-0.384222
0.324316
-0.110620
-0.217078
0.226983
-0.157296
-0.263689
-0.127852
0.250316
-0.262335
0.319357
-0.030188
-0.116862
-0.193059
-0.161867
0.264209
0.416287
-0.333367
-0.123672
-0.296609
-0.270929
-0.381588
0.176968
0.084060
-0.247334
-0.468983
-0.505689
-0.014463
0.087239
-0.129919
0.313598
-0.068972
-0.511759
0.171001
0.293748
-0.130429
-0.022239
0.079573
0.109975
-0.359283
-0.198234
-0.449406
-0.066975
-0.175326
0.127977
-0.428725
-0.274273
0.265478
-0.314581
0.302275
-0.377320
-0.239656
0.229757
0.010020
0.037573
0.272686
0.149040
-0.179032
-0.168507
0.243767
0.117014
-0.106505
-0.134530
0.272553
0.161613
-0.049958
-0.473172
-0.039917
0.304567
-0.029379
-0.436272
0.328572
0.066508
-0.347296
-0.197135
-0.051610
0.170089
0.043562
-0.298743
-0.175543
0.081005
-0.433441
0.418974
-0.304216
-0.162389
0.050869
0.180228
-0.129193
0.343795
-0.272248
0.105325
-0.441328
-0.383956
0.212483
-0.136978
-0.007521
0.382971
-0.283819
-0.282420
-0.020004
0.301749
0.412342
-0.078057
0.195787
0.215446
-0.642745
0.177734
0.203876
0.069230
-0.209672
-0.286293
0.133680
0.307207
0.070703
-0.084338
-0.228125
0.233884
-0.177028
0.362866
0.184143
-0.019965
0.388632
0.260593
-0.542371
0.127808
0.100318
0.231607
0.316584
-0.164011
-0.089988
0.376457
0.322346
-0.195445
0.077253
0.307171
0.241671
0.219955
0.081548
-0.312782
0.357507
-0.083316
0.285576
0.026380
-0.020682
-0.462755
0.183180
-0.385125
-0.172665
0.108812
-0.649765
0.157526
0.260937
-0.313985
0.263413
-0.118523
-0.442239
0.117033
0.265723
-0.470336
-0.028719
0.105796
-0.303020
-0.265145
0.432953
0.301202
-0.440380
-0.368105
-0.235741
-0.340378
-0.543784
-0.532627
0.181858
0.122852
0.248301
0.151565
-0.472524
-0.176094
-0.061330
0.024655
-0.086063
0.241365
0.365148
-0.517914
-0.351557
-0.335051
0.406173
-0.169483
-0.098462
-0.219254
-0.187086
-0.421293
0.140095
0.127057
-0.269298
-0.186562
0.159418
-0.285190
-0.254428
0.145609
0.245659
-0.197232
0.045204
0.387177
0.254612
0.237320
0.313764
-0.145914
-0.189440
0.175323
0.219522
0.242032
-0.135056
0.036681
0.055598
-0.176930
0.046672
0.151336
-0.172390
0.336756
0.094624
0.210741
0.156119
-0.048265
-0.226346
0.386472
0.133678
0.070684
-0.250263
-0.755172
0.139578
0.360218
-0.254768
0.212936
0.668403
0.107731
-0.361885
0.135414
-0.156288
-0.108875
-0.293231
0.052866
0.265316
-0.071452
-0.147758
0.148715
0.039761
-0.280444
0.169958
0.174139
-0.089532
-0.233878
-0.483034
0.238133
-0.048805
