-0.199094
0.018877
0.038357
-0.020598
-0.023400
-0.179099
0.274812
-0.010367
-0.063357
-0.303769
0.030335
-0.040467
-0.134813
-0.069146
0.106565
0.026258
0.107818
0.060960
-0.315190
-0.146593
0.134692
0.101715
-0.139522
0.052024
0.054589
0.026168
0.059898
-0.107998
-0.030041
0.117598
0.023542
-0.010821
-0.004895
-0.177667
0.059446
-0.062672
-0.216035
-0.107032
0.009347
0.172543
0.011808
0.010870
0.002486
0.020173
0.075311
-0.027049
-0.280632
-0.284378
0.023330
-0.180310
0.077883
-0.038753
-0.216985
0.125501
0.156471
-0.023748
0.184401
0.067749
0.097129
0.052409
0.189844
0.075292
0.073621
0.004710
-0.107337
0.110782
-0.081240
-0.045176
-0.052349
-0.080052
-0.130670
-0.162229
-0.038930
-0.087398
0.026682
-0.023663
-0.051045
0.059243
-0.053300
0.037698
0.089754
-0.015233
0.022651
-0.125217
-0.014231
-0.060127
0.058278
-0.038706
-0.013801
-0.007642
-0.173337
-0.063060
-0.061718
0.101256
0.009573
-0.079596
0.000137
-0.107604
-0.145091
-0.071059
0.034555
0.021362
-0.088065
0.124344
-0.018463
-0.037563
-0.073472
-0.020420
-0.087398
0.067226
-0.071875
-0.036727
0.059715
0.110515
-0.024260
0.020096
0.109510
0.001132
-0.266616
0.014183
0.002473
0.097234
-0.016633
0.003870
0.031881
-0.099221
0.041547
-0.011347
0.121831
0.017885
-0.107171
0.021453
-0.037729
0.065268
-0.093226
-0.069710
0.043633
0.057154
0.130153
-0.014409
0.019582
-0.079970
0.110853
-0.161080
0.093665
-0.140023
0.015409
-0.032474
0.023387
0.138716
0.063783
0.164648
-0.041744
-0.092200
0.043044
0.022350
0.027485
0.087475
0.003122
-0.071145
-0.181328
0.169723
-0.010823
0.008065
0.048595
-0.169780
-0.180216
0.109717
0.063326
-0.016601
0.195727
-0.007714
0.073176
0.029747
0.151160
0.010009
0.066834
-0.058584
-0.137494
0.004800
0.015914
-0.086967
-0.297476
0.039761
-0.073885
-0.137237
0.000933
0.009008
0.178810
-0.193827
0.036879
-0.100054
-0.116593
0.024182
0.094053
-0.041428
0.034260
-0.392446
0.036907
0.018110
-0.120910
-0.295360
-0.069581
-0.121955
-0.237804
-0.306042
-0.046336
0.106643
0.015147
-0.093642
-0.372601
0.017078
0.177961
-0.039443
-0.156701
-0.162413
-0.085374
-0.065247
0.046949
-0.027721
-0.116418
0.008873
0.031656
-0.004320
-0.005853
-0.341287
0.032010
-0.096068
-0.294458
0.037715
-0.012181
0.136752
-0.111521
0.044244
-0.036719
0.070441
0.002446
-0.071516
-0.415528
-0.273342
-0.055112
-0.241103
0.060078
-0.007409
-0.334397
-0.147259
0.297400
0.046027
0.331463
0.067457
0.062091
0.144248
0.091106
0.125322
-0.065970
-0.033974
0.112119
0.063632
0.108114
-0.084342
0.003622
0.141700
0.240352
-0.007949
-0.071661
-0.263715
-0.129365
0.024625
-0.111332
0.247704
0.155031
0.106584
-0.097719
0.197538
-0.014951
0.012861
-0.080722
-0.003263
-0.158320
0.021250
0.040195
0.085311
-0.075104
-0.009741
-0.074838
0.013398
-0.003019
0.165320
0.213386
-0.096737
0.116795
-0.017357
0.054354
0.068188
-0.024318
0.208938
-0.037632
-0.300548
-0.089260
0.051156
0.194107
0.055230
-0.091763
-0.262012
0.054748
0.030988
0.179260
-0.037925
0.036584
0.280918
-0.088539
-0.062305
-0.118915
0.145257
0.031084
-0.097176
-0.038942
0.109932
0.080098
0.055202
-0.039888
0.070314
-0.347781
-0.018196
-0.083436
-0.216174
-0.170724
-0.201680
-0.121694
-0.102627
0.122244
-0.239314
-0.020296
-0.091140
0.097131
0.334310
0.217404
-0.111964
-0.124912
-0.179028
0.216194
-0.048053
0.011843
0.139633
0.057876
-0.082360
-0.238355
0.084988
-0.056040
0.150377
-0.018422
0.215587
0.204773
0.021599
0.023063
0.012615
-0.148056
0.281472
-0.161440
-0.162775
-0.096174
-0.054002
0.074312
-0.000370
-0.058942
-0.101055
-0.087005
0.012576
0.164708
-0.030659
-0.245847
-0.016852
0.098205
-0.282093
-0.090735
0.052080
0.012350
0.287758
0.173447
-0.021194
0.067002
-0.164511
-0.120735
-0.095029
-0.004213
0.035655
0.235386
-0.049822
-0.045386
0.058749
0.035855
0.083733
0.153409
0.047908
-0.107271
-0.127308
0.025878
0.103582
-0.001937
-0.251521
-0.068225
-0.300713
0.209278
0.005908
-0.036045
-0.174619
0.060724
-0.152407
0.023533
-0.011293
0.216669
-0.144052
-0.212474
-0.130278
0.032231
-0.081140
-0.050227
-0.076516
-0.021237
0.054939
0.169418
0.020769
-0.116558
0.178273
-0.115261
0.113652
-0.087730
0.013007
0.067986
0.090407
-0.072895
0.032637
-0.050451
0.058161
-0.059891
0.038035
-0.168891
-0.042379
-0.023240
-0.022471
0.103523
0.031773
0.040555
-0.012233
-0.045396
-0.051785
-0.003480
-0.036994
-0.154923
0.220969
0.157435
0.040108
-0.012185
-0.043477
0.242939
0.032368
0.091731
-0.103937
-0.172278
0.074877
0.025299
0.000037
0.098554
-0.231374
0.111768
0.096436
-0.135826
-0.135104
0.015672
0.064534
0.135923
0.090670
-0.031027
-0.116365
0.167753
-0.248904
-0.020598
0.138404
-0.050456
-0.212215
-0.153818
-0.067116
0.200338
-0.040272
-0.053645
-0.190585
-0.088992
0.249734
0.102949
0.115187
0.198708
0.160552
0.018923
0.130700
-0.110153
-0.072611
0.043217
-0.007188
0.051024
0.037877
-0.258120
0.102000
0.121269
0.043147
0.119687
0.076366
0.072069
-0.072140
0.121316
0.024045
0.009884
0.058407
-0.016773
0.046143
0.016292
-0.054895
-0.062153
0.080453
-0.112627
-0.086032
-0.157642
-0.394241
-0.014217
0.073938
-0.110294
0.294173
-0.029292
-0.253920
0.014397
0.168911
0.076154
0.053520
-0.160215
-0.089262
-0.093781
-0.058613
0.084569
0.042248
-0.183454
0.081160
-0.023453
-0.004908
-0.025010
0.109434
0.109317
-0.112765
-0.079144
-0.033573
0.052562
0.038959
0.073799
0.177694
-0.037734
-0.299972
-0.066249
-0.019989
0.230998
0.072476
-0.154828
-0.291213
-0.005852
0.047301
0.166871
0.051971
-0.007764
0.205960
-0.342377
0.039326
-0.113515
-0.058960
-0.131468
0.052348
-0.002055
0.045544
0.056906
0.102613
-0.148296
0.022547
0.077410
0.044204
0.023485
0.044508
-0.082325
-0.010855
0.046146
0.024453
0.078657
-0.058007
0.010964
0.015165
-0.071826
-0.228039
0.105227
-0.206107
0.045681
-0.140695
-0.096401
0.009363
0.117198
0.054915
0.053582
0.052329
0.113530
-0.054842
-0.030955
-0.080738
-0.074161
-0.180707
-0.184761
-0.063633
0.029211
-0.112068
0.043827
-0.068027
-0.122606
0.076212
0.087819
0.092103
0.007731
0.009648
0.125390
0.139302
0.071374
0.046836
0.003219
0.101761
-0.081523
-0.035189
0.015535
-0.024599
-0.348071
-0.047808
-0.080659
0.025477
-0.028073
-0.033785
0.090963
-0.143756
0.035555
-0.016071
-0.041547
0.051259
0.181773
0.019640
0.032293
0.029392
0.080569
-0.059302
0.197530
0.130086
0.021290
0.091261
0.068069
-0.045075
0.049955
-0.237271
0.058777
-0.037390
-0.044109
-0.028611
-0.039383
0.057506
0.049026
0.076098
-0.021305
0.043437
0.138137
-0.147746
0.012372
0.024403
-0.032971
-0.135367
-0.191383
0.004348
0.085653
-0.007758
0.033144
-0.195714
-0.048987
0.106516
0.092758
0.155133
0.106088
0.028477
0.021237
0.075987
0.074622
0.035358
0.097905
0.125090
0.041243
-0.001078
-0.169468
0.097975
-0.041283
0.033656
0.026843
-0.071460
-0.080902
0.004794
0.042409
0.072903
-0.011291
0.002674
-0.101405
-0.129395
-0.276296
0.024877
0.020420
0.116562
-0.307079
-0.098251
-0.321606
-0.417264
0.063147
-0.095131
-0.195645
0.158033
-0.174027
-0.173920
-0.066951
-0.043827
0.157409
-0.220391
-0.354462
-0.129257
-0.221416
-0.371914
0.164061
-0.202855
-0.299925
0.106620
0.009091
-0.141234
0.055802
0.071953
0.045189
-0.185428
-0.089871
0.021352
-0.006406
0.028398
-0.219238
-0.095437
-0.159830
-0.276400
-0.206839
-0.031661
0.062188
-0.152165
-0.267507
-0.259237
-0.037587
0.087836
-0.285028
-0.056441
0.000813
-0.001618
-0.062880
0.040872
-0.148022
-0.239281
-0.242957
0.063766
-0.055247
-0.021303
0.038640
-0.079401
-0.025506
-0.131432
0.033623
0.022902
-0.058731
0.156096
-0.046920
-0.033392
0.062630
0.085488
-0.032212
0.141539
0.053643
0.021623
0.023844
-0.264242
0.084330
0.047576
0.056459
-0.030456
-0.034593
0.058563
0.026332
0.073662
0.005234
-0.207479
0.048403
-0.057547
0.001480
0.068075
-0.010567
-0.156175
-0.164744
-0.039701
-0.042698
0.067397
-0.051140
-0.121979
-0.072750
0.157115
0.128960
0.190095
0.044859
0.088422
0.023210
0.042447
0.010951
0.025542
0.038887
0.064521
0.153927
0.152355
-0.158242
-0.018389
-0.131683
-0.049514
-0.014803
-0.138035
-0.115897
0.011182
0.021846
0.072060
-0.018064
-0.096509
-0.091673
0.002527
0.068568
-0.056561
0.025702
-0.069430
-0.210992
-0.109925
0.075829
-0.043075
-0.002898
0.020975
0.042445
0.089568
-0.021470
-0.054530
0.109087
-0.016145
0.032652
-0.136639
-0.046358
-0.039067
0.056795
-0.076790
0.010016
-0.009685
-0.098030
0.025097
0.006838
0.102307
-0.068469
-0.019981
0.044244
-0.138247
-0.026219
0.028771
0.043599
0.090885
-0.166236
0.086234
-0.061442
-0.024398
-0.019979
0.001311
-0.021378
0.069727
0.016992
0.029204
0.019881
0.030973
-0.115765
0.103638
0.119915
-0.148547
-0.196944
-0.057830
-0.039489
0.053126
-0.007155
-0.012699
-0.013626
-0.076374
0.031829
0.002474
-0.022274
0.032814
0.185058
-0.025574
0.029489
0.077036
-0.152989
-0.070924
0.105312
0.088883
-0.007462
0.001466
0.044011
0.097492
0.005107
-0.142493
0.058101
-0.080138
0.131323
-0.021529
-0.163372
0.024899
0.048365
-0.048833
-0.055128
0.042088
0.118417
-0.072744
-0.002945
-0.009008
-0.021414
-0.139143
-0.125106
0.045511
-0.068454
0.024021
0.079536
-0.073605
-0.179990
0.118789
0.114210
0.028759
0.053940
0.012586
-0.012337
0.110913
0.050399
0.115782
0.062231
0.048005
-0.032269
0.081827
0.022748
-0.015062
-0.128578
-0.049099
-0.150834
-0.103042
-0.101652
-0.026402
-0.040546
-0.067148
-0.006203
0.005579
0.070578
0.064872
-0.202284
-0.057771
-0.056578
-0.008284
-0.034347
-0.035998
-0.030595
-0.066264
0.110397
-0.127672
0.010473
0.000319
-0.038802
0.118540
0.045847
-0.150770
-0.050693
-0.197736
0.063861
-0.006032
0.074330
0.111343
-0.027442
-0.049554
-0.038691
-0.019377
0.010930
0.000198
-0.040445
-0.064251
-0.093958
0.006924
0.107043
0.086113
-0.023364
0.031842
-0.123762
-0.089736
-0.019033
0.011461
0.051153
0.034521
-0.018486
-0.038250
-0.064195
0.029538
-0.003656
0.044466
-0.094525
0.035842
0.111935
-0.125006
-0.102735
0.041289
0.005751
0.075014
0.008259
0.068572
0.048455
-0.126123
-0.025108
-0.030866
0.052115
0.054869
0.046798
0.050026
-0.029842
0.030352
0.046907
-0.006901
0.003844
-0.009964
-0.003760
0.023790
0.007094
-0.014185
0.001711
0.053121
0.043846
-0.034845
0.035732
0.046161
-0.024303
-0.054506
0.033523
0.053106
0.013750
0.032977
-0.024814
-0.024770
-0.051993
0.008583
0.002239
0.055348
0.035911
-0.013267
0.008828
0.050042
0.027615
0.008819
0.028353
0.013049
-0.010012
-0.042340
-0.032515
-0.045736
-0.051830
0.015606
0.034259
0.004550
0.014783
-0.038387
-0.000016
0.039603
0.015800
-0.054134
0.005423
-0.010919
-0.048256
0.029477
-0.011795
-0.040850
-0.042691
-0.015910
-0.026127
-0.049512
-0.032762
0.064204
0.093268
0.023412
-0.009188
-0.176223
0.197760
-0.016118
-0.076063
-0.226980
-0.148041
0.001694
-0.139129
0.077869
-0.075831
-0.030714
-0.045188
-0.125432
-0.138789
0.012230
0.105101
0.024274
-0.048431
-0.016877
-0.006725
0.051004
-0.067205
-0.060581
-0.067798
-0.026127
0.026528
0.049105
0.020351
0.003333
0.116251
-0.199835
-0.156079
-0.094918
-0.079143
0.123091
-0.131462
-0.084228
-0.061913
-0.060948
0.176595
-0.055306
-0.161246
-0.114445
-0.150026
-0.126769
0.036801
-0.066162
-0.037127
0.024012
0.102365
-0.037346
0.152277
0.021230
0.042708
0.054559
-0.075079
-0.007203
-0.060845
0.040883
0.157583
-0.121076
0.203298
-0.005489
-0.009519
0.167311
-0.218606
-0.146759
0.102533
0.118455
0.100709
0.030820
0.051692
0.016969
0.033756
-0.156884
0.049694
-0.174291
0.039422
0.125484
-0.112874
0.149410
0.007729
0.154126
0.106880
-0.259565
0.073701
0.150356
0.033682
-0.089634
0.030949
-0.068515
-0.115830
0.160317
0.037328
0.047903
-0.065600
0.149326
-0.098419
0.050847
0.163180
0.084788
0.131905
0.045742
-0.000080
0.070436
0.068773
-0.085317
0.028302
0.000052
0.021401
0.062505
-0.096025
0.106637
-0.186456
0.005060
-0.302447
-0.041638
-0.114007
0.264528
0.080381
0.057621
-0.134507
-0.148186
0.008516
0.096668
-0.094592
-0.078925
-0.033600
-0.071149
-0.095953
-0.063942
-0.123684
-0.229127
-0.005683
0.008457
-0.102029
0.134568
-0.000797
-0.073966
0.065005
0.120935
-0.001990
-0.005138
-0.077279
-0.048118
-0.059960
-0.071937
-0.057170
-0.089387
-0.223973
0.042165
-0.001589
-0.010157
-0.019372
0.059989
0.074277
-0.119735
0.024832
-0.030900
-0.030903
-0.033381
-0.014389
0.057368
-0.060432
-0.186428
-0.137084
0.056625
-0.043680
-0.025338
-0.023044
-0.055999
-0.034164
0.130760
0.002827
0.008469
0.063588
0.122660
-0.036463
0.021619
-0.063246
0.094847
-0.031875
-0.011003
-0.026738
0.020415
-0.009925
0.007441
0.202347
-0.085158
0.150234
-0.001963
-0.038879
0.147137
-0.024911
0.102758
0.015822
0.130570
-0.023583
-0.177625
0.076211
-0.020446
0.229983
-0.129141
-0.148831
-0.249592
0.118355
0.050195
0.020250
0.002619
0.188488
0.142888
0.059585
-0.144878
0.218359
-0.158670
0.004417
-0.101668
0.001980
-0.035066
-0.058391
0.176833
0.042413
0.100849
0.015267
0.020706
0.034804
0.130154
0.179101
0.164122
0.135024
0.081545
0.092946
-0.103086
-0.014576
0.070230
0.147618
-0.030249
0.004601
-0.152858
-0.221696
0.015194
-0.233477
-0.043153
-0.301472
-0.080392
0.058706
0.142946
-0.014490
-0.046135
0.028242
-0.044890
0.006758
0.058807
-0.010375
-0.022106
-0.056966
-0.035412
-0.004713
0.030238
-0.023063
0.033012
-0.025711
-0.044120
0.025946
-0.038811
-0.010862
0.044255
0.014734
0.004554
-0.022301
0.046547
-0.046227
0.049824
0.030627
-0.036628
0.023801
-0.001762
0.004059
0.022075
-0.048302
0.034378
-0.015204
-0.025087
-0.049280
-0.038634
0.016586
-0.037670
-0.010404
-0.019955
0.053531
-0.035763
-0.054268
-0.052858
0.029576
-0.057050
0.047820
0.018019
0.031033
0.004537
0.029266
-0.039736
0.051592
0.025827
-0.034762
-0.043635
0.036896
-0.042400
0.036486
-0.057471
-0.032252
-0.041384
0.012063
0.014454
0.046760
0.008522
0.082388
0.011843
-0.005872
-0.007465
-0.064614
-0.082412
-0.104617
-0.103624
-0.003502
-0.102022
0.030527
-0.005184
-0.003842
0.119914
-0.045196
0.053642
0.109482
-0.056235
0.047033
-0.089907
-0.085022
-0.045212
0.004579
-0.025138
0.001377
-0.040371
-0.178885
0.071019
0.056696
0.099432
0.013623
-0.047030
-0.021825
0.020516
-0.046621
-0.021806
0.039197
-0.010265
-0.112983
0.057860
-0.079747
-0.058741
-0.060414
0.081349
-0.058461
0.031118
-0.004707
-0.051242
0.081513
0.037740
-0.001687
-0.030947
0.011223
0.090415
-0.209397
0.038713
-0.128353
-0.005014
-0.064773
0.033132
-0.003574
-0.028486
-0.059642
-0.065287
-0.137383
0.034493
-0.120800
0.015248
-0.027449
-0.208597
0.065787
0.044818
-0.226098
-0.100646
-0.041912
-0.069896
-0.036900
-0.037524
-0.087988
0.232340
-0.054969
-0.081907
-0.288053
-0.186727
-0.051939
-0.004602
0.026842
0.016121
-0.121909
-0.067581
-0.171646
-0.008168
0.123922
-0.089360
-0.056191
-0.101484
-0.093529
-0.120277
0.062306
-0.159788
-0.132142
-0.056202
-0.073966
-0.040231
-0.037730
-0.000533
-0.169111
-0.093600
-0.077683
-0.098858
-0.155272
0.011902
-0.056456
-0.064769
-0.019291
-0.094204
0.168437
-0.011458
0.158167
-0.053359
0.080043
0.030571
0.029243
-0.122673
-0.141909
-0.029434
-0.081859
-0.093094
-0.139181
0.229315
0.338233
0.026733
0.042362
-0.195803
0.158767
0.079695
0.063959
-0.213496
-0.055665
-0.144213
-0.095008
0.002056
-0.125189
-0.107167
-0.005407
-0.194022
-0.188849
-0.187463
0.017866
-0.008345
-0.041939
-0.074618
-0.071451
-0.025983
0.215713
-0.149506
-0.129603
-0.054709
-0.062756
-0.174277
-0.057328
-0.175778
0.232573
-0.206643
-0.027483
-0.072810
-0.180795
0.284437
-0.019966
0.107655
-0.051570
0.053620
0.117771
0.032459
-0.271144
-0.121670
-0.125867
-0.122114
-0.136384
-0.093819
-0.211236
0.010821
0.079705
0.011338
0.200710
0.187641
0.103026
0.048319
0.003285
-0.088836
0.080105
-0.058863
-0.059939
-0.026142
0.113356
0.055453
0.026474
0.111041
0.096934
-0.046472
0.083805
-0.015001
-0.015109
0.113490
0.053280
0.119562
0.006595
-0.211898
0.073574
0.067527
0.127251
-0.149420
-0.109825
-0.026735
0.065508
0.046854
0.000625
0.028248
0.009595
-0.169732
-0.029293
0.016819
0.007397
-0.093100
-0.023373
-0.075005
0.011443
-0.100411
0.107809
-0.101379
-0.100024
0.234638
0.047140
-0.027126
0.053323
-0.018500
0.034273
0.117163
-0.034254
0.022687
-0.014972
0.161009
0.131062
0.069674
-0.139214
0.175760
-0.161587
0.019263
-0.065313
-0.015234
-0.097455
-0.110801
-0.010795
0.009420
0.067669
0.028938
-0.030036
0.163251
-0.117474
0.018240
0.007744
-0.037188
0.033439
-0.060081
-0.026746
-0.146984
0.132720
-0.005379
-0.072624
0.068507
-0.125066
-0.052891
0.007318
0.036306
-0.129135
-0.112757
0.024227
0.041563
-0.039632
0.156087
0.007662
-0.111072
0.039547
-0.027733
0.212869
-0.015228
-0.067061
-0.141971
-0.109556
-0.103152
0.065077
-0.048830
-0.153610
-0.051527
-0.043973
-0.118644
-0.047966
0.161618
0.011576
0.074154
0.018613
-0.041409
-0.033338
0.012098
0.047782
0.036150
-0.098133
-0.007297
-0.005269
0.022040
-0.080021
-0.013134
0.061501
0.064795
0.065871
0.112668
-0.029721
-0.123391
0.029920
-0.066238
-0.094808
0.035410
-0.224907
-0.017533
-0.025792
-0.211745
-0.216606
-0.096146
-0.064013
-0.111240
0.042269
-0.088888
-0.134794
-0.010890
-0.018050
0.019783
0.117126
-0.064979
-0.164839
-0.204900
0.026857
-0.026377
0.045947
-0.033282
-0.042142
-0.072926
-0.197749
0.106422
-0.007074
0.114151
0.008512
0.046386
-0.017917
-0.036560
-0.031039
-0.051985
-0.108696
0.012742
-0.017312
0.006166
-0.034923
-0.087484
-0.045497
-0.005981
-0.085533
0.032109
-0.016614
-0.054787
0.033429
0.086646
-0.038518
-0.060253
0.145413
-0.133937
-0.006086
-0.018253
0.037469
0.165771
-0.022882
0.018268
0.155331
-0.111818
-0.033365
-0.040932
-0.092492
0.006525
-0.073892
-0.059539
-0.035498
0.072754
-0.062059
-0.025862
-0.054732
-0.094105
0.011305
-0.068099
0.018263
-0.028563
0.094683
-0.071315
0.024578
-0.176569
-0.056172
-0.120410
0.047385
0.022969
0.109778
0.086569
-0.010042
-0.075126
0.083241
-0.028953
0.000935
-0.026681
-0.037910
-0.088946
-0.144803
-0.017854
0.097400
-0.015139
0.001085
-0.066725
-0.007093
0.011284
0.072832
0.119716
0.153680
0.016676
0.069096
-0.007571
-0.020369
0.047777
-0.064216
-0.058105
-0.072164
-0.100472
-0.064783
-0.131546
-0.216456
0.017073
-0.118583
0.059319
0.040339
-0.010180
0.070599
-0.165403
0.088010
-0.159434
0.026378
-0.057254
0.007541
-0.057379
-0.019204
-0.280506
0.084844
0.029445
-0.005872
-0.061714
0.020795
-0.194993
-0.126287
-0.078741
-0.040852
0.143330
-0.105995
-0.085934
-0.216901
-0.108750
-0.107531
0.016161
-0.106143
-0.022624
-0.045863
0.001951
-0.100071
-0.028603
-0.058200
-0.130446
-0.058044
0.001588
-0.045390
0.045402
0.100311
-0.009111
-0.169378
-0.084765
-0.005500
0.050734
-0.156265
0.003851
-0.152486
-0.039602
-0.024888
-0.032383
-0.036128
-0.052678
-0.056016
-0.080022
-0.095295
-0.055099
0.051877
0.090229
0.333405
-0.043715
0.030938
0.000777
-0.035649
-0.086491
-0.132166
0.060044
-0.056778
-0.071763
0.058993
-0.032602
0.096722
-0.062083
-0.004747
0.110530
-0.045721
-0.042339
0.011197
-0.017685
0.033220
0.043088
-0.041499
0.195527
-0.010212
-0.079225
0.057795
0.072046
0.036321
-0.072112
-0.112655
-0.000530
0.040427
0.007605
0.035433
-0.017010
-0.043604
-0.048860
-0.067572
-0.035534
-0.033668
-0.093570
-0.028300
-0.027541
-0.077591
0.039630
0.074909
-0.040525
-0.172580
0.096136
-0.013579
0.031672
0.000823
0.066618
0.031787
0.047409
0.035343
-0.040589
-0.023601
0.097357
0.022664
0.052483
-0.052490
0.099059
-0.169365
-0.054424
-0.090348
-0.072852
-0.072531
-0.015155
0.039637
0.010746
0.026780
-0.055395
-0.055909
0.011120
0.126717
0.004495
-0.043733
0.033370
-0.090946
-0.127076
0.162754
0.059999
0.071305
0.061077
0.065645
0.093640
-0.115670
-0.281552
-0.029972
-0.024139
0.091404
-0.063885
-0.038696
0.026932
0.094229
0.049432
-0.029075
0.047122
0.158619
-0.035700
0.041372
-0.030287
-0.054702
-0.066591
-0.159509
0.060392
-0.022732
-0.058119
0.018863
-0.047553
-0.080423
0.064460
0.017080
0.044361
0.047279
0.092403
0.014766
0.018223
0.088222
0.019200
-0.019652
0.088038
-0.110399
-0.031556
-0.068786
0.058864
-0.222252
0.042863
-0.169600
-0.147537
-0.020423
-0.029539
0.042918
-0.128027
-0.039097
-0.069102
-0.150443
0.107040
-0.053116
0.032146
0.054380
-0.121555
0.394004
0.037272
-0.021225
-0.217910
-0.094185
-0.321006
-0.245403
-0.089832
-0.120367
0.202390
-0.021696
-0.222476
0.005177
-0.042026
0.187294
-0.093189
-0.200442
-0.242273
0.172434
0.281325
-0.092091
-0.163804
-0.214290
-0.269621
-0.049974
0.172792
0.244139
-0.159180
0.120008
-0.185473
0.027494
0.213556
-0.040473
0.115587
-0.136050
-0.011203
-0.241723
-0.070858
0.012995
-0.056313
-0.401735
0.108292
-0.056730
-0.199971
-0.086393
-0.244312
-0.051835
-0.031113
0.147216
-0.017051
0.062385
0.300432
0.116983
-0.076799
-0.054897
-0.030820
0.079226
0.101268
-0.041369
-0.047224
-0.360564
-0.013402
0.005064
-0.044617
-0.049453
-0.096367
-0.075539
-0.142970
0.156855
-0.000885
-0.070572
-0.167340
-0.103917
-0.286539
0.028906
-0.043495
-0.193250
-0.172212
-0.079849
0.072490
-0.079588
0.004082
0.037243
0.047008
-0.314059
0.005039
0.093726
0.033618
-0.059243
0.007699
-0.136169
0.086399
0.013578
0.070363
0.081037
-0.164592
0.025123
0.172532
-0.017921
-0.170127
0.108345
0.039282
-0.105027
0.128437
0.019269
-0.241155
-0.104015
0.029012
-0.081000
0.073042
0.082672
0.064844
-0.418500
-0.007124
-0.038360
-0.006305
-0.178613
0.121971
0.090973
-0.103065
0.093205
0.090550
0.004032
-0.039012
-0.086334
0.046189
0.004898
-0.035018
0.139151
-0.137474
0.074802
0.017764
0.112462
0.075673
0.113982
0.013591
-0.067437
-0.106817
0.128129
0.053715
-0.083728
-0.013739
-0.031316
0.126247
0.050841
0.033528
0.078339
0.208325
-0.102701
-0.054831
0.074796
0.054893
-0.078014
-0.111046
0.020551
-0.019293
-0.137798
-0.018610
-0.057629
-0.152012
-0.159573
-0.005774
0.088337
-0.107591
0.006190
0.075312
0.171699
0.075012
0.072895
0.003549
-0.053962
0.074457
0.065414
0.089839
0.001793
0.056657
-0.103309
0.043797
-0.102083
0.012572
0.003735
0.058752
0.017265
-0.001448
0.068770
0.015465
0.171351
0.071154
0.191490
0.035821
0.081532
0.069746
0.249545
0.095328
0.036262
-0.094082
-0.207493
-0.433080
-0.418069
-0.077506
-0.011175
0.109206
-0.065971
-0.248622
0.133941
0.092965
0.133439
-0.209739
-0.114918
-0.122387
0.056288
0.108660
0.047396
-0.194286
-0.194686
-0.290890
0.031900
0.247859
0.326542
-0.319644
0.124470
-0.181985
0.080600
0.276627
-0.047443
0.019769
-0.180355
0.040586
-0.401705
-0.110460
0.001137
-0.072015
-0.405043
0.055200
-0.137930
-0.265711
-0.218352
-0.304376
0.009501
-0.179203
0.119585
-0.043268
0.191473
0.245796
0.147966
0.013285
-0.235036
-0.223403
0.015033
0.064576
-0.089770
-0.084324
-0.011783
-0.056446
-0.065587
-0.017432
0.183006
0.024669
0.002852
-0.036567
-0.136772
-0.060636
0.035765
0.063133
0.061436
0.005380
-0.085227
-0.052174
-0.148892
-0.073281
-0.036353
-0.054973
-0.015389
-0.041916
-0.085161
-0.061142
-0.126675
-0.147874
-0.019620
-0.070211
-0.040439
-0.064718
-0.063693
-0.080738
0.015824
0.064070
-0.064818
-0.014559
0.131649
0.030793
-0.138339
0.078790
0.074554
-0.019923
-0.088155
-0.060134
-0.075591
-0.043942
0.025011
-0.126109
0.117947
-0.073904
0.006155
0.057756
0.212153
0.049364
0.043996
0.110983
0.042538
-0.135123
-0.001041
0.129710
-0.048929
0.036527
0.221794
-0.120321
-0.676623
0.025572
0.012162
0.004319
-0.379768
-0.278338
-0.017302
-0.085443
0.276158
-0.202233
-0.039333
-0.346477
0.141205
0.030350
0.128695
-0.144537
-0.207508
-0.073608
0.026273
0.110514
-0.067322
0.154701
0.257705
-0.057540
-0.398413
0.176693
0.304133
-0.054879
-0.025288
0.239916
0.074126
0.202884
-0.062712
0.228878
-0.200592
0.102069
-0.296646
-0.128895
0.120699
-0.165688
0.127880
0.082734
0.034621
-0.026441
0.036881
-0.143471
0.138308
-0.168331
-0.304555
-0.009899
0.162274
-0.191969
-0.253236
-0.014015
-0.061264
-0.111405
-0.025140
0.158335
0.330581
-0.164482
-0.009529
-0.102645
-0.096732
0.067045
0.226346
-0.008708
-0.031649
0.191982
0.048421
-0.053635
0.176753
-0.059556
-0.096083
0.067979
0.002135
0.265089
0.049148
-0.122295
-0.052739
-0.032367
0.136823
-0.083802
-0.182324
-0.000382
0.022657
-0.112913
-0.016890
0.058505
0.065332
-0.019054
-0.030500
-0.012634
-0.068937
0.055516
0.004853
-0.121495
0.043669
-0.031151
0.168948
0.055861
-0.023223
0.125850
-0.010790
0.033760
-0.140825
-0.010708
0.066091
0.012616
-0.029036
-0.023847
-0.020154
0.159992
0.024353
0.044653
-0.177812
-0.023256
-0.213553
-0.052762
-0.105154
0.135695
-0.083032
-0.080204
-0.151196
-0.041123
0.045630
-0.152846
-0.248798
0.037421
0.007611
0.020806
-0.016090
-0.199307
0.464916
-0.019754
0.014141
-0.117632
-0.060900
-0.078268
-0.131136
-0.008665
-0.255781
0.214736
0.097756
-0.081852
0.015722
-0.195589
0.062032
0.020440
-0.103196
-0.267989
0.129671
0.365447
-0.037498
-0.190547
-0.156572
-0.205534
0.016903
0.007798
0.129243
-0.026243
-0.001981
-0.138916
0.034749
0.252261
-0.053304
0.054793
-0.110044
-0.005822
-0.136102
-0.102498
-0.148161
-0.119650
-0.237689
0.000440
0.035733
-0.081330
0.081010
-0.057289
0.041904
-0.001437
0.240626
-0.015908
0.023257
0.273656
0.124066
-0.197066
0.110613
-0.001792
0.075219
0.151673
-0.040276
-0.030281
-0.086847
0.030862
0.035008
0.064289
-0.064221
0.017193
-0.017496
-0.030671
-0.011268
-0.008436
-0.031337
-0.026000
-0.098753
-0.072526
-0.114452
-0.046423
-0.163904
-0.101966
0.093021
-0.093030
-0.163593
-0.133476
-0.240377
-0.206777
-0.226926
0.056102
-0.036931
-0.023165
-0.046356
-0.205163
-0.103994
-0.075080
0.097500
0.087149
-0.099207
-0.126938
0.096968
0.160968
-0.007715
-0.135815
-0.027721
0.115109
-0.110000
0.121410
0.089373
-0.508492
-0.133446
-0.021638
0.035881
0.044523
0.027309
0.092688
-0.085026
0.040710
0.059326
0.017896
-0.026984
0.046888
-0.048003
0.085512
-0.179305
0.013709
-0.132913
-0.074568
0.050903
0.052453
-0.057494
-0.014256
0.072907
-0.159967
0.131831
-0.049689
0.157441
0.061541
-0.023885
0.109237
-0.093549
-0.199923
0.081167
-0.095171
0.014130
-0.172099
-0.126953
0.076843
-0.004339
0.030207
0.063277
0.195023
-0.123454
-0.025348
0.039510
-0.038512
0.016941
-0.085127
0.016320
-0.075349
-0.077514
-0.123464
0.080625
-0.156352
0.002784
0.078965
0.082442
-0.183848
-0.007890
0.054020
0.088514
0.185224
0.065454
-0.111644
-0.043428
0.079577
0.142586
0.078462
-0.049667
-0.005710
-0.190444
-0.001051
-0.176324
0.052261
-0.137280
-0.061167
0.030638
-0.069208
0.042407
0.076238
-0.170716
-0.043278
0.199718
-0.053623
0.037749
-0.089014
0.204150
-0.071078
0.055563
0.047159
-0.010831
0.042025
0.017718
0.072940
-0.064829
-0.038893
0.092879
0.081461
0.023719
-0.051145
0.104628
0.028643
-0.076381
-0.167612
0.117835
0.256432
-0.027880
-0.079259
-0.129221
0.054429
-0.081205
-0.067888
0.006721
0.028648
0.010840
-0.048342
0.058917
0.052301
-0.093722
0.065123
-0.016030
0.004391
0.050011
-0.097253
-0.074460
-0.057471
0.020941
-0.033991
0.050129
0.042836
0.034806
0.033695
-0.031653
0.012638
0.102846
-0.003136
0.072251
0.193675
0.028770
-0.011434
0.046187
0.019784
-0.046666
0.145172
-0.267017
-0.234913
-0.091268
0.012889
-0.046200
0.241030
-0.368949
-0.042348
-0.034655
0.076224
0.084289
0.186557
0.029524
-0.132495
-0.188487
-0.261772
-0.025716
-0.270557
0.070607
-0.160917
0.118479
-0.296471
-0.182037
-0.051093
-0.509968
-0.464399
-0.223282
0.205154
0.145157
0.037186
-0.039162
-0.306945
-0.200446
-0.237568
0.003410
0.056818
-0.036269
-0.362586
-0.029058
0.229832
-0.005391
-0.063351
-0.155947
0.168092
-0.021905
0.150287
0.272347
-0.103318
-0.262322
0.030326
-0.015247
0.075427
-0.072871
-0.079013
-0.247683
-0.028532
0.309489
-0.307210
-0.178223
0.220547
-0.355931
0.095706
-0.121139
-0.000854
-0.081908
0.026533
0.135316
-0.014863
0.032775
-0.090511
0.210326
0.013595
0.271482
0.028053
-0.107421
0.063488
0.068212
0.117786
0.174025
-0.034360
0.080277
-0.014888
0.025607
-0.021573
0.189460
0.212609
-0.075132
0.003782
0.108112
0.190091
-0.011587
-0.085202
0.032557
0.066437
-0.077347
0.081661
0.136637
-0.006541
0.040257
0.092933
0.006043
-0.059762
0.127262
0.052448
-0.132148
0.082795
-0.014663
-0.017831
-0.095784
0.112474
-0.013715
0.059665
0.153798
0.073675
0.228483
-0.001030
0.014901
0.072027
-0.031359
-0.005287
0.143143
0.158442
0.075465
0.068880
0.016082
0.190563
-0.039402
0.121972
-0.013651
-0.014849
-0.189111
-0.057557
-0.049178
-0.021920
-0.054622
-0.046499
-0.051670
-0.102407
0.129095
-0.032331
-0.034218
-0.012186
0.021581
-0.116082
-0.032060
0.048539
0.025227
-0.107478
-0.007916
0.032565
-0.103230
0.000932
0.012608
-0.018993
-0.228890
0.120748
0.067881
0.091092
0.019580
0.021328
-0.030083
0.033144
-0.098792
0.061580
0.052558
-0.043125
-0.058004
0.061701
0.062308
-0.219225
-0.035302
0.076760
-0.062875
0.080727
0.132460
-0.179523
0.022621
-0.002641
-0.058160
0.061075
0.004710
0.020485
-0.316686
-0.004422
0.053402
0.017792
-0.078520
0.142036
-0.037516
-0.066777
0.113037
0.014416
0.045135
-0.046705
-0.027389
0.013384
-0.048804
-0.066555
0.033575
-0.073776
0.141578
0.041552
-0.023088
0.112049
-0.019242
0.142955
-0.095206
-0.164130
0.098263
0.071411
0.087346
-0.030004
-0.016363
0.014620
-0.106021
-0.131919
-0.071101
0.068048
-0.130024
0.045919
0.008006
0.057682
-0.055568
-0.130949
-0.142085
0.077615
-0.095121
0.006225
0.007328
-0.213563
-0.070602
0.105142
-0.050025
-0.077030
-0.046236
0.103155
-0.117269
0.102582
0.084473
-0.006921
-0.062421
0.124592
0.086372
0.077631
0.034504
0.143397
-0.175318
-0.055687
-0.012689
-0.061184
-0.103723
0.063627
-0.032317
-0.046446
0.011192
0.013028
0.038937
-0.021525
-0.175440
-0.065797
0.032621
-0.006322
-0.097721
-0.102255
0.023038
-0.000636
0.053477
-0.061743
0.041191
-0.210649
0.033284
-0.081025
0.049320
-0.019177
-0.153284
-0.032384
-0.125535
0.035033
-0.005830
-0.007874
-0.044389
-0.074571
-0.075149
0.071583
0.216980
-0.015438
0.022490
-0.005872
-0.096209
0.106715
-0.037518
0.155331
-0.037083
-0.094132
-0.093806
0.001412
0.057744
-0.012908
0.066907
0.031276
0.019908
0.042928
0.073888
-0.051132
0.150258
0.026912
-0.075317
0.041975
0.067871
-0.049748
-0.013529
-0.018356
0.011425
0.034283
-0.067100
0.092074
0.103461
-0.125467
0.045511
-0.083727
-0.018094
-0.015278
0.038447
0.018566
0.002405
-0.006582
0.049903
0.046353
-0.035005
-0.035325
0.037059
0.004662
-0.004768
0.037595
-0.010717
0.041761
-0.006336
0.004165
-0.020423
0.017824
0.007448
0.018942
-0.021535
-0.006724
0.052679
0.013324
0.024139
0.023563
-0.008115
0.021189
-0.040034
-0.007816
0.005550
-0.031891
0.007376
-0.030549
0.022404
-0.038996
0.029873
0.039250
0.025073
-0.029966
-0.037679
-0.008380
0.013398
-0.001421
-0.021238
-0.015866
-0.026928
-0.010262
-0.050168
-0.039433
0.007129
0.028764
-0.057753
-0.021959
-0.021127
-0.014870
0.048907
0.053409
0.003752
-0.026329
0.048709
0.004916
-0.109505
-0.012062
-0.013835
0.017640
-0.028152
-0.043117
0.316223
-0.019121
-0.048061
-0.223861
-0.071508
-0.095513
-0.014896
-0.006895
0.123614
0.070926
-0.130347
-0.028551
-0.069687
-0.074004
0.017383
-0.041756
-0.063315
0.120881
-0.067859
0.066163
-0.176625
-0.047518
-0.048331
-0.073551
-0.047047
0.018669
0.028225
0.025657
0.054802
-0.036768
-0.029759
0.024054
0.082406
0.050425
-0.149973
0.004040
0.119328
0.025123
0.010966
-0.028096
-0.202715
-0.008712
0.073100
-0.122458
0.102522
-0.114858
0.077625
0.012909
0.134253
-0.045964
-0.061773
0.170670
0.108589
-0.044357
-0.024901
0.019519
0.028674
-0.023039
-0.011453
-0.063331
0.137526
0.006687
-0.090800
0.207370
-0.016254
-0.098367
0.335701
0.154845
-0.085689
-0.044110
0.051934
0.271906
0.240064
-0.141504
-0.031182
0.125740
0.143126
0.038924
0.039785
0.182531
-0.029434
0.268015
0.160969
0.171709
-0.096719
-0.126445
0.146269
0.033764
0.039276
0.115458
0.131013
0.022391
-0.105140
-0.008039
-0.100868
-0.086912
0.100928
-0.067928
0.147952
0.034455
0.060434
0.036524
0.189703
0.100358
0.124337
-0.013051
0.203079
-0.059420
0.190491
-0.121291
-0.256135
0.185652
-0.207047
0.010862
-0.085538
0.080036
0.070211
-0.009963
0.030028
0.272237
-0.169934
-0.060171
0.093387
0.016460
-0.010586
-0.007118
-0.027282
0.002900
-0.026550
-0.039864
-0.034858
-0.029025
0.041992
-0.035525
-0.086858
-0.127588
-0.070770
-0.035877
-0.026532
-0.041653
-0.283892
-0.086664
0.077384
-0.050141
-0.116986
-0.053563
-0.062990
-0.146454
-0.116662
0.077720
-0.061655
-0.015457
-0.017987
-0.032121
-0.019630
-0.035970
-0.025912
-0.024341
-0.175677
0.040493
0.094762
0.093360
0.019379
-0.094367
-0.055544
0.077087
-0.037952
0.047969
0.031008
-0.260715
-0.059646
-0.026564
0.017951
-0.131767
0.059330
0.073498
0.040017
-0.028451
0.147476
0.004084
-0.064133
0.037343
0.054452
0.047406
-0.053868
0.038527
-0.016877
-0.027731
0.365908
0.030832
-0.046384
0.106570
0.030510
-0.049941
0.234598
0.044618
-0.189369
0.063022
0.045962
0.158961
0.262627
-0.118339
-0.051266
0.040527
0.198517
0.024605
-0.102097
0.124310
0.095621
0.114502
0.105265
0.018221
0.211218
-0.244228
0.145982
0.026613
0.033593
0.015582
0.011060
-0.152915
-0.027673
0.039609
0.025611
-0.109754
-0.028210
0.066116
-0.060712
-0.006234
0.100792
-0.067182
0.290845
-0.068198
0.037400
-0.037760
0.185070
0.002925
0.103859
-0.065440
-0.308185
0.240481
0.007795
0.050862
-0.218522
0.047590
-0.031686
-0.099337
-0.038833
0.196408
-0.166538
-0.105434
-0.033493
0.016334
-0.041588
-0.021214
0.001566
0.003809
0.031782
-0.014619
0.025249
-0.026232
-0.008744
-0.017375
0.039596
0.058386
0.012015
0.020651
0.045138
-0.035162
-0.004415
0.038080
0.051493
-0.043047
-0.042353
-0.022238
0.048438
0.051705
0.014152
-0.054255
-0.003867
-0.012958
0.050703
0.050063
-0.040166
0.058529
-0.035220
-0.013068
0.033115
-0.025289
0.051005
-0.024378
0.029958
0.011693
0.053018
0.053607
-0.020298
0.000015
0.006742
0.056941
0.038290
-0.056690
0.015578
0.053089
0.009646
0.032794
-0.056675
0.043771
0.021945
0.058593
-0.035410
-0.031582
-0.001383
0.009885
0.036981
0.031759
0.012039
-0.089881
-0.210370
0.001649
-0.069321
0.051421
-0.014787
0.000459
0.022617
-0.000443
0.095924
0.058011
0.008219
0.024308
-0.002613
-0.113325
-0.002600
0.024856
-0.197723
-0.108996
0.031865
-0.027775
-0.213619
-0.143488
-0.059267
-0.040496
-0.157637
0.108041
-0.038422
0.038218
0.009325
-0.068576
-0.067897
-0.002317
-0.045942
0.079093
-0.059733
-0.038405
0.030550
0.083405
-0.011440
-0.228323
-0.020680
0.031910
-0.178234
0.118651
0.142999
-0.232036
-0.081752
-0.059448
0.005153
-0.018663
0.125380
0.006290
-0.268969
-0.029296
0.101009
-0.052742
-0.097056
0.074003
0.040068
0.015102
0.053195
-0.012144
0.026657
-0.062910
-0.046219
-0.029364
-0.030374
-0.112810
-0.073113
0.055126
0.006491
-0.100267
-0.069776
-0.063817
0.064357
-0.136010
-0.074687
0.044136
0.015913
-0.218458
-0.199692
-0.066940
-0.151152
-0.117172
0.048449
0.081555
-0.156634
-0.149582
-0.012824
-0.062842
0.155584
-0.106875
-0.072193
-0.017198
-0.023569
0.013924
0.008480
-0.073762
-0.198421
-0.120114
-0.069644
0.045795
0.026094
0.033042
0.021399
-0.057988
-0.000158
-0.115692
-0.134821
0.071307
0.049364
-0.021832
-0.135033
-0.099411
0.034648
-0.062277
0.172792
-0.046861
0.000157
-0.038031
0.049903
-0.058877
-0.049903
-0.136791
-0.122529
-0.099953
-0.123487
0.086097
0.077022
0.040237
0.013352
-0.009529
0.401417
-0.051912
0.013437
-0.212746
-0.013994
-0.257801
-0.170482
0.033203
0.001155
0.195159
-0.042326
-0.298843
0.017259
-0.333830
-0.067181
-0.098241
-0.330708
-0.112897
0.005399
0.056941
-0.080709
-0.128369
-0.177499
-0.130162
0.013031
0.029334
0.334246
-0.128992
0.052069
-0.022311
0.085339
0.331386
-0.071324
0.209129
-0.085462
-0.037909
-0.183872
-0.104544
-0.090850
-0.005983
-0.310099
0.034521
0.004618
-0.070848
-0.064643
-0.237345
-0.123607
-0.133037
0.082091
-0.033693
-0.068885
0.342168
0.049883
-0.103324
-0.068332
-0.147059
0.131819
-0.012781
-0.179715
0.016048
-0.047367
-0.053382
-0.028461
-0.027380
0.153559
0.004896
0.055406
-0.044782
-0.032191
0.113493
-0.040627
0.058438
-0.034219
0.013611
0.049966
0.090080
-0.055355
-0.206646
0.084102
-0.038955
-0.207006
-0.100508
-0.025096
0.092022
-0.062792
-0.001428
-0.092616
0.075257
-0.003823
-0.076527
-0.069737
0.016705
-0.058502
0.010628
0.012134
-0.007639
0.103294
0.134207
-0.061024
-0.140763
0.068405
0.003464
-0.247145
0.086721
0.043764
-0.081442
0.017611
0.083544
0.068942
0.066284
-0.002315
0.033770
-0.061066
-0.045505
0.063451
0.150723
0.015136
-0.112474
0.051314
0.067640
0.069260
0.134142
-0.160590
-0.086301
-0.068395
-0.035631
-0.044616
-0.017451
0.030178
-0.069480
0.031230
-0.026028
0.032257
-0.071856
-0.017541
-0.045198
-0.095159
-0.091155
-0.117054
-0.212571
-0.057184
-0.111963
0.045180
0.077935
0.035122
0.036826
0.030458
0.153140
-0.056755
-0.048903
0.004449
0.003537
-0.071748
-0.170030
-0.023155
-0.194890
-0.041858
-0.092215
-0.083016
-0.118143
0.048489
-0.089664
0.006875
-0.046690
0.073341
-0.071043
0.151079
0.063712
-0.066982
0.006823
0.019565
-0.016656
-0.013614
-0.115563
0.018069
0.004108
-0.103316
-0.039875
0.084600
-0.060021
0.024577
-0.011672
0.032837
0.039471
-0.077929
0.097197
0.093087
-0.070921
-0.232261
-0.061989
-0.030859
0.023364
-0.168536
0.011492
0.060832
-0.106026
0.143080
-0.111844
-0.056150
-0.279532
-0.005098
-0.211721
0.096849
-0.079239
-0.164243
-0.132548
0.010329
0.091649
-0.005881
0.053321
0.046291
0.005518
-0.238902
0.129081
0.099817
-0.012699
-0.075223
0.049988
-0.186555
0.065512
0.041975
0.168281
-0.160049
-0.106615
-0.138424
0.000437
-0.003043
-0.089415
0.153279
0.113191
-0.112259
0.035978
0.049761
-0.152586
-0.000192
-0.115214
-0.141714
0.009833
0.106014
-0.080274
0.019453
-0.019357
-0.014409
-0.085543
-0.104011
0.192888
0.058738
-0.165135
0.065195
0.013814
-0.113169
0.002767
-0.007077
-0.009735
0.036349
-0.040642
0.137610
-0.119635
0.058882
-0.043214
0.039905
-0.020454
0.009422
0.058507
-0.007360
-0.007942
0.018286
-0.140137
-0.057391
-0.051248
-0.092895
0.111680
0.089491
-0.041584
0.051384
0.154753
-0.007318
-0.070586
0.054640
0.037795
-0.025756
-0.026520
0.020317
-0.031168
-0.057376
-0.122146
-0.044227
-0.014042
0.039043
0.043705
0.025703
-0.073817
0.107111
0.058860
0.119983
0.112442
0.018163
-0.061413
-0.045137
-0.019940
0.041827
0.005351
-0.028276
0.055044
-0.008424
-0.046621
-0.004644
0.114539
0.018817
-0.037334
0.086178
-0.088159
0.116178
0.002757
0.035676
-0.138159
0.041750
-0.013948
-0.034635
-0.175032
-0.113772
0.050768
0.013107
-0.028670
-0.092880
-0.168815
-0.106467
-0.065377
-0.045989
-0.014266
-0.091782
-0.158760
-0.048438
-0.082691
-0.195862
-0.111465
-0.090251
-0.041613
-0.177524
-0.290849
-0.122365
-0.083958
-0.059190
-0.139676
-0.068616
-0.075374
-0.119365
0.028845
-0.007959
-0.135243
-0.129822
-0.123584
-0.064249
0.098195
-0.057647
0.075712
-0.014161
-0.032450
-0.093678
-0.030270
-0.141367
0.084895
-0.065677
-0.016765
-0.145522
-0.145515
0.028978
-0.016110
0.164494
-0.048123
-0.111074
0.120815
-0.158068
0.016513
-0.073177
-0.038844
-0.022372
-0.125302
-0.027725
-0.081318
-0.082840
0.002016
0.039826
-0.000541
0.091298
-0.024438
0.038283
0.012847
-0.048318
0.021942
0.001421
0.040525
-0.086574
-0.116639
-0.002052
-0.032440
-0.064592
-0.150786
0.067860
0.048753
-0.208943
-0.066348
-0.017708
0.026646
-0.132633
-0.007908
-0.030610
-0.037081
-0.015376
-0.106053
-0.047954
-0.057139
-0.065877
0.041913
-0.014245
-0.086102
0.114775
0.051301
0.062475
-0.099933
-0.075037
0.068768
-0.157587
0.100895
0.059200
-0.110767
0.034907
-0.024514
0.069917
-0.042659
0.095423
0.029484
-0.087644
0.016280
0.134986
0.014724
-0.072009
0.036197
-0.043727
-0.032600
-0.049820
0.040610
-0.141534
-0.095449
0.040880
-0.025818
-0.059711
-0.063252
0.142749
-0.128417
0.108850
0.054576
-0.004913
0.088280
0.086177
0.015543
-0.112221
-0.064084
0.060108
-0.055431
0.051215
-0.144697
-0.021712
0.069261
-0.131838
-0.040990
-0.053983
0.171160
-0.028054
-0.034583
-0.057309
0.087047
-0.022022
-0.103874
-0.061152
-0.027695
-0.121744
0.017314
0.035015
-0.141523
0.025425
0.113167
0.037935
-0.117741
0.038794
0.100752
-0.142995
0.077255
0.058116
-0.088873
-0.096722
0.050472
0.009068
0.078266
-0.042316
0.044923
-0.111701
-0.043425
0.038242
0.015085
-0.071236
0.037986
0.089482
-0.049626
0.053105
0.024935
-0.076874
0.090117
-0.290486
-0.016526
-0.038619
0.072923
0.205360
0.048521
0.076872
-0.385508
0.047247
-0.136236
-0.205538
0.001706
0.104661
-0.008407
-0.280622
-0.180073
0.197962
-0.075565
-0.075276
-0.059676
-0.217180
0.002546
0.212405
-0.004867
-0.218230
0.048137
-0.020438
-0.076079
-0.032638
0.136366
0.173208
-0.334204
0.019105
0.107342
0.143164
0.256507
-0.164303
0.088361
-0.131182
-0.016780
-0.181913
-0.112025
-0.137961
0.001612
-0.281512
0.180038
-0.018955
0.058057
-0.178026
0.066312
-0.178797
-0.079483
0.063993
0.048746
-0.205316
0.124361
0.026934
-0.012423
0.021991
-0.027933
0.056681
-0.139862
-0.009012
0.014680
-0.104039
-0.023998
0.028908
-0.067929
0.104388
-0.008290
-0.022503
0.083769
0.130855
-0.067774
0.069271
-0.359490
0.036093
-0.220189
0.010890
-0.072860
0.048741
-0.022727
-0.040125
-0.010954
0.004420
0.050988
-0.059199
0.118511
-0.075379
-0.034689
-0.149907
0.022836
-0.046997
-0.056931
-0.129735
0.000169
0.097573
0.056617
0.095296
0.008352
-0.079702
0.092075
0.025485
0.158323
0.138978
0.110498
0.051158
0.115436
0.093835
-0.112313
-0.041704
-0.032591
0.037457
0.176766
0.054052
0.009131
-0.158899
0.047184
0.024531
0.042373
-0.122887
0.068894
0.005777
-0.015229
0.079496
0.039731
-0.035466
-0.021675
-0.091985
0.028689
-0.032672
-0.165153
0.068269
-0.125074
-0.055742
-0.017606
0.031329
-0.030898
0.036317
-0.102775
-0.226332
-0.139890
0.101684
0.100521
0.007896
-0.191306
0.024182
-0.034788
-0.073486
-0.100368
0.060847
0.335607
-0.106724
-0.059409
-0.213271
-0.001000
0.037121
-0.184187
-0.141593
0.108508
-0.019781
-0.153921
-0.065576
-0.083692
0.024933
-0.186143
-0.048879
-0.159759
-0.027016
0.041967
0.023686
-0.009336
0.029200
-0.270861
0.038300
0.153489
0.025222
0.008019
-0.025294
0.024880
-0.206225
-0.003385
-0.012907
0.014049
0.037373
0.011461
-0.077613
-0.065377
0.069987
0.025916
-0.007666
-0.074833
-0.115832
-0.006497
-0.030146
0.199990
0.180054
-0.057403
0.114358
-0.202499
-0.123640
-0.047638
-0.040648
0.044179
0.250692
0.004786
-0.253828
-0.062514
0.136509
-0.128702
-0.221099
0.067305
-0.256912
-0.014251
0.120783
-0.261151
-0.127695
-0.055969
0.052149
0.018063
0.005781
0.100064
0.201780
-0.356600
-0.041303
0.318130
0.216944
0.197904
-0.103600
0.141555
-0.131190
-0.132719
0.057180
-0.024025
-0.010762
0.006085
-0.344324
0.120743
0.138797
0.055127
0.001168
0.124860
-0.405525
-0.072764
-0.028653
0.000480
-0.155923
0.155144
-0.041465
-0.102293
0.029809
0.030111
0.127529
-0.155892
0.141909
0.168185
-0.131286
-0.030660
-0.088358
-0.072646
0.106854
0.147175
0.128401
-0.118482
-0.206914
-0.143898
-0.094150
0.037233
0.041926
0.186901
-0.085401
-0.085453
0.145244
0.204732
-0.076366
-0.072764
0.040274
0.291988
-0.032181
-0.197932
-0.044847
-0.287517
0.031426
-0.048864
-0.059463
0.045197
0.124497
-0.042874
-0.064477
-0.106298
0.043700
0.146956
-0.010844
0.040561
-0.130582
0.363270
0.031292
-0.101085
-0.008447
-0.146868
-0.163403
0.225752
0.135990
-0.052479
-0.009305
-0.083241
0.004657
-0.003340
0.259668
-0.027588
-0.015191
0.125890
-0.149361
-0.288692
-0.164899
-0.171414
0.017148
0.004254
0.009894
-0.303784
-0.450209
0.017498
-0.006106
0.099736
-0.219970
-0.205732
0.034318
0.143539
0.230863
-0.133725
0.054859
-0.607645
0.112191
-0.056798
-0.036880
-0.191979
-0.101693
0.087500
0.001980
0.135004
-0.153653
0.210208
0.050892
-0.009504
-0.306515
0.101664
0.108696
0.039640
-0.032837
-0.013171
0.093846
0.043407
-0.242730
0.209673
-0.159643
0.102811
-0.140109
0.004467
0.082828
-0.179763
0.096303
0.084042
0.176272
0.114739
0.135490
-0.170824
0.078253
-0.157798
-0.043427
0.103860
-0.116766
-0.036728
-0.523314
0.060112
0.093205
0.055101
0.097659
0.146048
0.153835
-0.022228
-0.083189
-0.092721
-0.174383
-0.157240
-0.167896
-0.010080
-0.060044
-0.056156
0.032776
-0.071627
0.105090
0.026333
-0.011928
0.197900
0.070413
0.105748
0.020724
-0.041196
0.035797
0.005189
-0.056542
-0.065996
0.022616
0.013726
-0.312586
-0.066464
-0.060716
-0.084923
-0.333340
0.078866
-0.057949
0.090453
-0.053092
-0.058071
-0.135786
-0.162496
-0.173751
0.135661
-0.030776
-0.050889
-0.006199
0.277962
-0.022893
-0.309912
0.084749
0.005816
-0.306520
0.086658
0.105060
-0.064516
-0.141943
0.053217
0.196143
0.138085
-0.064185
-0.018440
-0.145051
0.008511
0.085091
0.152951
-0.152842
0.032018
-0.032507
0.093807
-0.104329
0.062536
-0.365879
0.176085
-0.176723
-0.026562
0.008272
0.083892
0.309116
0.031715
0.031491
-0.247959
0.173639
-0.207750
-0.215948
0.007109
0.085716
0.010194
-0.096007
-0.240372
0.156522
-0.260988
-0.044034
-0.169851
-0.137995
0.033790
0.279145
0.312526
-0.093964
-0.005204
-0.050933
-0.028810
-0.015416
0.106283
0.143921
-0.235141
0.076744
-0.056801
0.143175
0.210621
-0.214389
-0.015797
-0.089875
0.134299
-0.312499
-0.101540
-0.051538
0.019978
-0.201936
0.098068
-0.134936
0.175546
-0.182259
0.000023
0.015117
-0.035459
0.207842
0.056691
-0.219973
0.148911
0.147954
0.062617
-0.057768
-0.259400
0.195693
0.033665
0.168038
0.170315
0.090029
0.009211
-0.030282
0.191619
-0.004692
0.110912
0.150676
0.006520
-0.053005
-0.256394
-0.165213
-0.110475
0.183870
-0.053645
0.062688
-0.098365
0.199045
0.147045
-0.027011
-0.241868
0.100875
0.392099
-0.028117
-0.185243
0.078208
-0.002143
0.005667
-0.024430
0.039538
-0.030029
-0.138937
-0.016027
0.168024
-0.053537
0.040163
-0.072204
0.072027
0.114805
-0.071363
0.318664
-0.001031
0.023247
0.100135
-0.062461
0.103983
0.110825
0.017516
-0.210248
0.051614
-0.094313
0.036293
-0.031790
0.022649
0.040604
0.158089
0.025589
-0.053852
0.008326
-0.239182
-0.042675
-0.088809
-0.046206
-0.204590
-0.005686
-0.299302
0.001881
-0.001557
-0.060636
0.156294
0.063584
0.059016
-0.038133
0.103881
0.035535
0.067288
-0.085794
-0.111735
-0.106203
0.018255
0.014643
-0.041719
-0.151679
0.043711
-0.007238
-0.114404
0.016553
0.015364
0.241047
-0.245764
0.022551
-0.189707
0.054863
0.002296
-0.040901
-0.172291
-0.023286
0.031579
0.008784
-0.004640
-0.048374
0.012712
0.077173
0.042206
-0.206455
-0.045254
0.016164
-0.072999
0.064834
0.093668
-0.209160
-0.118078
0.150559
0.018221
0.019766
-0.014090
0.075759
-0.325194
-0.053883
0.026754
0.018912
0.018922
0.056311
-0.062242
-0.051299
0.099400
0.124790
-0.191838
0.087664
-0.144081
0.045311
0.010861
0.039577
0.206454
0.047526
-0.010135
-0.140367
0.104351
-0.069376
-0.044404
-0.032612
-0.126870
-0.037139
0.039013
-0.007397
-0.004680
-0.123621
0.081894
-0.178958
-0.142802
-0.089001
0.156206
0.162666
-0.137840
0.057627
-0.110036
0.087321
0.000108
0.003274
-0.019680
-0.054402
0.060599
-0.003715
0.167544
0.086301
-0.016983
0.103887
-0.107809
-0.039660
-0.156420
0.027621
-0.038711
0.044314
-0.090212
-0.050962
-0.117952
0.170755
-0.120814
0.005075
0.053640
0.044336
0.069189
0.001074
0.043030
0.045411
0.062231
0.056127
-0.017613
-0.163964
0.190512
0.020622
0.094372
0.007022
0.104048
0.012042
-0.005954
0.352014
-0.267732
0.016560
0.254877
0.180080
-0.184501
-0.118887
-0.091014
0.011693
-0.013567
-0.255143
0.081929
0.021547
0.217104
0.234512
-0.047467
-0.150780
0.143583
0.477539
-0.259185
-0.266087
0.203616
-0.122780
0.131602
0.106470
-0.036491
-0.128878
-0.198882
-0.267296
0.191532
-0.212227
-0.116762
-0.261849
0.071224
0.116572
0.069385
0.141656
0.110345
0.098965
0.084959
0.097792
0.306290
-0.178920
-0.041864
-0.155106
0.143734
-0.029927
0.016024
-0.002337
-0.279790
0.009978
0.314894
-0.121523
0.013661
0.012832
-0.047587
0.092607
-0.150120
-0.000022
-0.126604
0.173689
-0.122054
-0.051982
-0.005369
-0.035205
0.293636
0.060603
0.070505
-0.178506
0.001056
-0.002288
-0.021458
-0.045518
-0.112329
0.015027
0.040520
0.197422
-0.013091
-0.150617
-0.012607
-0.058405
-0.151286
-0.016706
0.121802
0.208324
-0.097620
0.032128
-0.178800
-0.094644
0.041426
-0.013278
-0.064665
0.071598
0.124622
-0.064361
0.041937
0.193410
0.083488
0.044746
-0.067376
0.018980
-0.097068
0.029460
-0.064710
0.073314
-0.070401
0.047256
-0.053886
0.008107
0.006656
0.040522
0.103543
0.212465
-0.021448
-0.050943
-0.034192
0.192814
0.082637
-0.018634
0.025862
0.019753
0.064113
0.150928
0.004761
0.009668
-0.097238
0.003423
0.030574
-0.010912
0.087684
0.051033
0.100005
0.097860
0.091286
-0.030762
-0.024778
-0.267654
-0.027989
-0.150672
0.038373
-0.105368
-0.085059
0.049062
0.071759
0.006717
0.054955
0.169431
-0.036198
0.071607
-0.111136
0.017517
-0.077888
0.090912
0.010388
-0.118204
-0.157370
0.030874
0.075885
0.053753
0.057260
-0.093522
0.064392
0.138051
0.004815
0.091143
0.008745
0.100592
0.008177
0.096427
0.123091
-0.097963
-0.051193
-0.057115
0.088047
0.139008
0.098355
-0.015623
-0.178633
-0.035938
0.136621
0.007422
-0.061492
0.019807
-0.017867
0.027413
0.040181
0.133306
-0.035916
0.022691
-0.092205
0.037833
-0.022916
-0.108369
0.147463
0.057584
0.090287
0.089096
0.082885
0.048945
-0.072227
-0.104254
-0.133121
-0.113259
0.110351
-0.003908
-0.154269
-0.047468
0.042399
0.000649
-0.055981
-0.016733
0.030417
0.149651
-0.081477
0.015776
-0.211251
0.059712
-0.053952
-0.181765
-0.111901
-0.017539
0.035978
-0.129771
0.018854
-0.047349
0.042908
0.055676
0.016331
0.031744
-0.098436
0.088528
-0.081973
0.114907
0.093625
-0.077722
-0.119122
-0.012267
0.006200
0.072133
0.071184
0.130128
-0.043023
-0.032638
0.130386
-0.023729
0.000560
0.072775
0.036485
-0.005734
0.008522
0.034795
-0.032754
-0.089970
-0.085024
-0.031553
-0.039086
0.042439
-0.028773
-0.090417
-0.007230
0.044509
0.121196
-0.082733
-0.015162
-0.135725
-0.127382
-0.083670
0.087770
-0.010363
-0.026820
0.023439
-0.070671
-0.008808
0.063771
-0.067684
-0.001251
0.140795
-0.084070
0.109930
-0.031234
0.045703
-0.082305
-0.075316
-0.023166
0.049104
-0.013066
-0.022109
-0.076836
0.009256
0.022253
-0.015006
-0.034684
-0.048305
0.026092
0.018738
0.002222
-0.038375
0.107681
-0.116613
0.095443
-0.076396
0.060394
0.086416
-0.050942
-0.085210
-0.114887
-0.015385
0.053491
-0.025263
-0.018034
0.102162
0.006696
0.015209
0.066171
0.004042
-0.022796
-0.050052
0.015416
-0.044381
-0.028110
-0.000321
-0.049294
0.020619
0.000283
-0.049155
0.033413
-0.002633
-0.019196
0.001584
0.026384
-0.041779
0.032308
-0.056775
-0.038747
-0.006432
-0.054356
0.006556
0.052073
0.057987
0.016596
-0.032220
0.030468
-0.046082
0.058260
0.041040
0.020420
-0.035878
0.057950
-0.053529
0.026232
0.007167
0.015501
0.039381
0.010994
0.033312
0.054997
0.056989
0.034335
0.024963
0.013097
-0.022491
0.015609
-0.029001
-0.028494
0.035301
0.031767
-0.040107
-0.009560
0.031312
0.009417
0.029631
-0.023050
-0.041875
-0.029393
0.036704
0.020779
0.056999
-0.057907
-0.045542
-0.094049
-0.090366
-0.140902
0.013963
-0.018593
-0.025955
0.073253
0.058447
0.095868
-0.268142
-0.105321
-0.116062
-0.092773
-0.104686
-0.104210
0.113458
-0.148181
-0.135942
0.008997
-0.087319
-0.162413
0.008766
-0.083934
0.050081
0.011005
-0.085484
-0.193394
0.060557
0.024895
-0.109232
0.001865
-0.034352
0.021154
0.004905
-0.139685
0.005023
-0.056162
0.045720
0.020038
0.137524
-0.054175
0.054393
0.011931
-0.054792
-0.120422
0.020517
-0.181727
0.068906
-0.023173
-0.073873
0.093941
0.072207
-0.055301
-0.058533
0.101175
-0.028279
-0.308079
0.082651
-0.063631
0.037539
-0.039928
0.019487
-0.053113
0.031006
0.052240
-0.119738
-0.272020
0.047132
-0.086876
-0.021849
0.133912
0.025211
0.215895
-0.005215
-0.057523
0.168327
0.031920
-0.028943
-0.090166
-0.094791
-0.122157
0.150816
0.116077
-0.023426
-0.072200
0.075694
-0.218109
0.108596
0.167834
0.142900
-0.252297
-0.023030
-0.163063
-0.057146
0.012051
0.140259
-0.100817
0.115028
-0.000280
0.096196
-0.173075
0.065059
0.153808
-0.130901
0.102885
-0.188622
0.024806
-0.104840
-0.019064
-0.147241
0.032603
-0.383212
0.086165
0.064708
0.137231
0.084099
-0.067205
-0.036897
-0.273089
-0.030699
-0.164766
-0.018683
-0.089464
-0.057371
0.049587
0.163972
-0.108340
0.144771
0.158141
0.160385
0.024131
-0.003470
-0.073238
-0.020599
0.025269
0.138493
0.131349
0.081931
0.061600
-0.238662
-0.195015
-0.071056
0.054659
-0.112121
0.090736
-0.094901
0.042310
0.092276
-0.031750
-0.044294
0.072527
0.240886
-0.067116
-0.167647
-0.045412
-0.031546
-0.047130
-0.010849
-0.078221
-0.065729
-0.020080
-0.041354
0.039196
-0.022151
0.016706
-0.036262
-0.082951
0.076110
0.062924
0.217110
-0.096388
0.021109
0.068241
0.020616
0.029067
-0.015801
-0.069380
-0.193257
-0.017573
-0.034795
0.070750
-0.028880
0.168639
0.009862
0.135775
0.053006
0.031149
0.089516
-0.152188
-0.040983
-0.016726
0.037122
0.031050
-0.243093
0.036897
-0.039721
-0.018657
-0.157089
0.019758
0.019126
0.160114
-0.173627
-0.145420
0.133581
0.158193
0.260097
-0.139799
-0.010223
-0.017476
0.228857
0.056064
0.046934
-0.011668
-0.014861
-0.394209
-0.194549
0.026540
0.236214
-0.152682
-0.007175
-0.142244
0.070474
-0.055543
0.036019
-0.045662
-0.023848
-0.158276
0.056688
-0.165289
0.100258
0.156914
-0.085995
-0.087613
-0.373551
0.088098
-0.173161
-0.252172
-0.226877
-0.000334
-0.191514
0.071963
0.144753
0.231164
0.011563
-0.074741
-0.059407
-0.136977
-0.017069
-0.033675
0.010517
-0.062812
-0.217360
-0.036365
0.135920
-0.175568
0.087527
0.046635
0.013027
0.009085
-0.023921
0.032837
0.018771
-0.052614
0.006092
0.025627
-0.023909
-0.005459
0.008058
0.044781
-0.051416
0.050577
0.014299
0.023630
0.054445
0.017672
-0.041659
0.012541
0.014152
0.052597
0.001031
-0.019681
0.011266
-0.035411
-0.022993
-0.037217
-0.031385
-0.053565
0.011714
-0.000299
-0.047798
0.039371
0.044802
0.027361
0.019833
0.012663
0.011100
-0.055342
-0.058272
-0.057410
-0.010510
0.046517
-0.025435
-0.008409
0.041429
-0.024358
-0.056903
-0.034124
-0.022965
0.057867
0.057533
-0.033741
-0.035312
0.039091
0.029193
0.041826
0.058362
-0.043525
0.008947
0.035318
0.001328
0.098746
0.074317
-0.028868
0.048609
-0.054961
-0.092790
0.010573
0.129218
0.117278
0.064012
0.104810
-0.195169
-0.133502
-0.341186
-0.033520
-0.141953
0.024453
-0.086690
-0.066315
0.051979
0.083601
0.024620
0.002063
0.063761
0.023646
-0.084045
0.006351
0.017462
-0.158259
0.009068
0.052402
-0.124083
-0.112435
0.026891
0.132702
-0.012029
0.077490
-0.009770
-0.049903
0.030520
0.043215
0.145376
-0.003385
0.072478
0.054584
0.081696
0.106306
-0.059330
-0.024094
-0.178194
-0.140966
0.013113
0.031351
0.110881
-0.009732
0.037271
0.142953
0.053138
-0.023489
0.103990
-0.117566
-0.009627
0.027467
0.073938
0.046782
-0.100000
0.019692
-0.042088
-0.029427
-0.098077
-0.095669
-0.097274
-0.039318
0.039209
-0.041521
-0.004938
0.043048
0.005263
-0.009494
-0.007611
0.000281
-0.168147
-0.019613
-0.115193
-0.210157
-0.009304
0.049916
-0.147489
-0.167467
0.011159
-0.018685
-0.113942
0.039498
-0.037007
-0.039800
-0.004737
0.009928
0.088120
-0.082809
-0.129961
-0.125250
-0.095803
-0.074377
-0.069476
0.025636
0.019046
-0.041656
-0.020501
0.091310
-0.074397
-0.018914
0.075023
0.005256
0.008358
-0.017792
-0.047697
-0.074064
-0.101424
0.092084
-0.045299
-0.101581
-0.031908
0.061165
-0.008382
-0.057950
-0.079153
-0.064613
-0.067328
-0.347580
-0.277564
-0.339938
-0.025821
-0.035247
0.032762
0.192796
-0.096675
0.024786
-0.152506
0.159422
0.007322
-0.074325
-0.197800
0.095503
0.067180
-0.208441
-0.245192
0.056969
-0.264344
-0.295100
-0.065562
-0.246748
-0.023181
0.018657
-0.087014
-0.326533
0.191409
-0.144129
-0.063673
0.005618
0.096139
0.265608
-0.176223
-0.280084
0.166184
0.029118
0.379630
-0.186720
0.239408
-0.056144
-0.049798
0.030623
-0.065944
-0.157494
0.048572
-0.119254
0.066038
-0.127038
0.161940
-0.186295
0.136874
-0.333384
0.032066
0.078214
-0.055113
-0.334944
0.195349
-0.151308
0.038422
0.065975
-0.176021
0.047865
-0.133640
-0.142254
0.225116
-0.134598
-0.050299
-0.037914
0.051859
0.224026
0.087131
0.075549
-0.039368
0.033051
-0.145769
-0.079516
-0.190403
-0.036395
-0.018867
-0.027448
-0.032090
-0.006909
0.040669
0.034353
-0.147474
-0.030788
0.112736
0.028432
0.076926
-0.051413
0.066106
-0.155351
-0.032532
-0.047965
-0.079937
-0.068668
-0.056883
0.155268
-0.121714
0.094204
0.087500
0.037631
0.071155
-0.035670
0.254104
-0.062984
0.039213
-0.004038
0.113521
0.059444
0.105920
-0.081813
-0.057247
-0.064968
-0.011745
0.157588
0.081112
0.160937
-0.062652
0.185958
0.082298
-0.032956
0.077373
-0.055779
-0.076699
0.042150
0.057157
-0.034372
0.041475
0.075991
-0.040310
-0.074738
0.087812
0.115085
-0.003274
-0.013798
-0.016874
0.014869
-0.250592
-0.113753
0.014268
-0.071487
-0.194977
0.067864
-0.106048
0.211850
0.003252
-0.167038
-0.008839
0.158938
0.158804
0.030297
0.160005
0.096042
-0.038498
-0.181076
0.029753
-0.005273
-0.121841
-0.116095
-0.065619
0.164690
-0.148111
0.039551
0.027885
-0.004877
-0.173565
-0.042098
0.097105
-0.104637
0.010913
0.236179
0.013225
-0.107902
-0.034304
-0.030445
0.103401
-0.118790
-0.046571
-0.021530
-0.042588
-0.217232
0.048747
0.012876
-0.012151
0.072793
-0.001470
0.015690
-0.009016
0.052340
0.016477
0.026563
-0.130294
-0.088677
-0.039975
-0.056553
0.020510
-0.033701
-0.049603
0.035753
0.062247
0.145729
-0.085080
-0.021158
-0.138769
0.111286
-0.102197
0.013469
0.010318
0.067993
-0.038829
-0.003907
0.015363
0.053299
0.075203
-0.102135
0.046135
-0.166529
0.100792
0.011133
-0.022463
0.026426
-0.005504
-0.068603
0.039664
-0.016344
0.171733
0.055802
-0.041739
-0.043819
-0.037498
0.038207
0.030980
-0.029245
0.146137
0.125568
0.070222
0.108981
-0.042801
0.048308
-0.113671
-0.028412
0.117013
-0.023265
-0.063652
-0.192163
-0.010459
0.035968
-0.000865
-0.016500
0.171911
-0.073056
-0.026939
0.074916
-0.066688
0.007275
-0.105743
-0.124278
-0.059236
0.046454
-0.068977
0.129302
-0.093116
0.012360
0.061896
0.025345
0.009923
0.071384
0.023607
-0.127950
0.045652
0.002424
-0.066981
0.094266
-0.065807
0.060850
0.033405
-0.088153
-0.002595
0.096575
0.209281
-0.205137
-0.026122
-0.166189
0.057037
-0.060743
0.050870
-0.055563
0.021615
-0.045908
-0.096703
-0.073057
0.145487
0.086768
-0.066135
0.046155
-0.215898
-0.065587
-0.035665
-0.040708
0.006699
0.069499
-0.078100
0.056955
0.090569
0.102138
0.053395
-0.043596
0.039580
-0.015908
0.049801
-0.079263
0.171669
0.029082
-0.048887
-0.132716
-0.019954
-0.015836
0.028594
0.106982
-0.336987
-0.066605
-0.044081
-0.005375
-0.058037
-0.186802
-0.147681
0.020343
-0.039772
-0.079987
-0.016474
-0.042835
0.004898
-0.114183
-0.037349
-0.152152
-0.174964
0.004623
-0.092843
-0.169152
-0.014125
-0.067016
-0.244614
-0.209642
-0.253661
-0.059177
-0.043920
0.001689
-0.060131
-0.055178
-0.091483
0.035449
-0.007756
-0.153558
-0.052160
-0.164338
-0.103335
-0.057169
0.083078
-0.049006
-0.017496
-0.136073
0.010095
-0.125194
-0.112735
-0.079299
0.096838
-0.049273
0.014849
-0.064999
-0.205937
-0.054441
-0.178825
0.151133
-0.024542
-0.118825
-0.023909
-0.185723
-0.101585
-0.086171
0.005073
-0.056667
-0.131753
-0.032535
0.153035
-0.054774
-0.054643
-0.064332
-0.076151
0.168628
0.164558
0.059681
0.012048
0.055685
-0.094102
-0.158581
-0.133470
0.004434
-0.091006
0.026475
0.019610
-0.027511
-0.027421
0.109474
-0.014332
0.010348
0.099840
0.061354
-0.007633
-0.056916
-0.007985
-0.136805
-0.053374
-0.038920
-0.146999
-0.147116
0.033825
0.103529
-0.109116
0.034045
-0.046687
0.005706
-0.006628
-0.015767
0.160555
-0.118392
0.011971
-0.011504
0.060540
0.103297
0.106534
-0.127115
-0.121817
-0.140189
-0.047630
0.136783
0.033195
0.082662
-0.006013
0.168317
0.066874
0.002026
0.069273
-0.106916
-0.066369
0.096662
0.004491
-0.067531
0.033789
-0.093621
-0.048198
0.014581
-0.083014
0.206085
0.110842
0.062852
-0.004423
0.094918
-0.052813
-0.131768
-0.110808
-0.109291
-0.024298
0.090919
0.061315
-0.091266
-0.059680
0.106822
-0.037020
-0.050033
0.037321
0.075889
0.170107
-0.018930
0.017964
-0.207273
0.051823
0.029922
-0.097838
-0.141395
-0.000225
0.049403
-0.155552
0.130871
-0.028970
-0.033385
0.046549
0.039962
0.031908
-0.110118
0.026892
0.061431
0.143767
0.093199
-0.026145
-0.114868
-0.020381
-0.077332
0.021010
0.112824
0.128545
-0.007440
-0.022714
0.043817
0.034331
0.083843
0.029162
0.002588
-0.004526
0.092542
0.056868
0.044802
0.245423
0.143339
0.006283
-0.033119
-0.115970
-0.190386
-0.118016
0.111806
0.217470
0.163742
-0.063965
0.040097
-0.134801
0.196123
-0.082072
0.228957
-0.077452
-0.180024
-0.023048
-0.137454
0.122647
-0.102988
0.136641
0.101652
0.007793
0.136150
0.002891
-0.142271
0.034836
-0.058555
0.021901
-0.215810
0.267201
0.120952
0.046274
0.051336
0.014603
-0.119402
0.255911
0.115630
0.096058
0.303171
0.247510
-0.036688
0.189868
-0.010098
0.020157
0.175080
-0.204219
0.098106
0.031147
0.153684
0.128385
-0.172048
-0.006434
-0.119613
-0.104957
0.123512
0.081332
0.263935
0.040343
0.068731
0.079399
0.081096
0.004218
-0.203883
0.017072
-0.054305
0.042121
0.072371
-0.013925
-0.065888
-0.136942
-0.028782
-0.045929
-0.138162
0.019644
-0.064396
0.030504
-0.043036
0.027248
-0.039983
0.020571
0.130310
-0.042280
0.078070
-0.098100
0.002707
-0.222221
-0.057686
0.180024
0.093822
-0.023733
-0.042916
-0.002999
-0.025624
0.037036
0.074502
-0.017390
-0.139463
0.019134
0.042703
-0.280316
-0.002678
0.030755
-0.147037
-0.042864
-0.003532
-0.050204
0.007834
0.013124
0.051180
-0.056917
-0.100959
0.009598
0.078302
-0.158365
0.029512
-0.011412
0.144469
-0.057591
-0.060143
0.143723
-0.003348
-0.079692
-0.121795
-0.191770
0.169402
0.037650
-0.052689
-0.037850
0.024006
0.118899
0.147710
0.029556
0.131331
0.047894
-0.032640
-0.146355
0.055436
0.024014
0.148168
0.237234
-0.032630
-0.044410
0.159798
0.098926
0.079354
-0.158417
0.088616
0.000543
0.015217
-0.226268
-0.127046
-0.028210
-0.046710
-0.104899
-0.017699
0.010577
0.081911
0.115714
0.078582
0.055276
-0.131693
0.169987
0.099283
-0.138779
0.002358
0.140935
0.069856
-0.084395
0.014881
-0.016562
0.106141
0.233515
-0.036505
-0.019240
-0.265688
-0.016378
0.005324
-0.018280
0.190076
0.023103
-0.000164
0.064229
0.043224
0.022690
-0.196838
-0.249131
-0.062170
-0.278805
-0.060401
0.278066
0.251398
0.038792
-0.029476
-0.392808
-0.199071
0.095219
0.032225
0.164056
0.074256
-0.089142
0.030883
-0.110829
-0.030437
-0.109417
0.376278
-0.116119
-0.197888
-0.031669
-0.025984
0.057224
-0.102253
-0.002801
0.154177
0.042812
0.285742
0.125392
-0.065594
0.153859
-0.065187
-0.026222
-0.122355
0.288981
0.208569
-0.028410
0.084843
-0.076772
-0.079436
0.063679
0.140384
0.028480
0.201079
0.046185
0.001764
0.128757
-0.044142
-0.106838
0.145391
-0.355257
-0.012090
0.061509
0.222202
-0.139890
-0.154888
0.009898
0.217977
-0.000283
0.311807
0.030780
0.260425
-0.038657
0.023926
0.069473
-0.322206
-0.113329
-0.089384
-0.060882
0.035313
0.236056
-0.115833
-0.061819
0.003188
-0.056323
-0.174175
0.105177
-0.082747
0.095939
0.100115
-0.140924
-0.067464
-0.030488
0.145663
-0.152310
-0.240420
0.028753
-0.057213
0.046998
0.034395
-0.111183
-0.057632
-0.058455
0.152895
0.025455
-0.052799
-0.071250
-0.059186
-0.241635
0.003273
-0.042818
-0.191169
0.027309
0.013202
0.162347
0.093186
-0.032483
0.072492
0.071296
-0.037408
0.097085
0.002035
-0.070556
-0.038396
0.166438
0.179467
-0.112328
-0.078985
0.224018
-0.132097
0.029224
-0.044939
-0.189231
-0.191048
-0.021238
0.057259
0.109722
-0.020444
0.088670
0.161543
0.227494
-0.118107
0.018255
-0.035627
-0.048499
0.255448
0.063052
-0.270482
-0.213095
0.045703
-0.250706
-0.345080
-0.015342
0.021392
0.171673
0.087430
0.135545
-0.276660
0.229217
0.256151
0.001987
0.041579
-0.055313
0.003989
-0.236491
-0.036388
0.212267
-0.038074
0.045445
0.038284
0.098958
0.182233
-0.110042
0.335707
-0.060590
-0.220435
-0.010937
0.123908
-0.414551
-0.137505
0.016834
-0.166335
0.009031
0.046360
-0.227756
-0.201253
-0.137562
0.142466
-0.207307
-0.273528
-0.090268
0.052528
-0.346963
0.273606
-0.031487
0.196404
0.203230
0.036830
0.218783
0.183876
-0.107778
-0.113286
-0.285758
0.024391
-0.015849
0.218350
0.028415
-0.003662
0.000925
-0.183912
0.013711
0.140070
0.069747
-0.003324
-0.239000
-0.152132
0.169541
-0.120935
-0.015193
-0.057747
-0.152764
0.120741
0.028829
-0.205086
-0.042573
0.208850
-0.321070
-0.047738
0.079130
0.042107
0.007902
-0.081419
-0.210709
0.019220
-0.093942
-0.132559
0.021491
0.100541
-0.011528
0.109421
-0.106801
-0.231697
-0.086623
0.013520
0.111314
-0.257802
-0.069995
0.098419
-0.052419
0.015513
0.034877
0.047698
0.065081
-0.277342
-0.033464
0.086655
-0.240744
-0.204608
-0.028399
-0.251962
-0.167908
-0.009074
0.053564
-0.106410
-0.059021
-0.078079
-0.125491
0.053175
0.313497
0.028065
0.015500
-0.010627
-0.031411
-0.208049
-0.063084
0.098246
0.222292
0.129522
-0.029086
0.015755
-0.182557
0.114585
0.090302
0.208306
-0.090989
-0.068389
0.054058
-0.015970
-0.005185
-0.084879
0.150512
0.070523
0.104940
0.045513
-0.051055
-0.081677
0.153490
0.013715
0.115809
-0.074039
0.153812
0.045064
0.001644
0.064809
0.008345
-0.028251
0.224544
0.084194
0.155489
0.181858
0.163646
-0.084644
0.190995
-0.011569
0.109223
0.019030
-0.148740
-0.001264
-0.019916
0.150662
0.180818
0.051646
-0.016335
-0.066167
-0.137363
0.096819
-0.060677
0.150030
-0.086968
0.184040
-0.065452
-0.192447
-0.017869
-0.295273
0.038315
-0.061084
0.220707
-0.260228
-0.146613
-0.428747
-0.245434
-0.097129
0.053312
-0.097247
0.042981
-0.029252
-0.064982
-0.020693
0.010061
0.023902
-0.038735
-0.084452
-0.151683
0.044664
0.005511
-0.012073
-0.223360
-0.116742
-0.009551
0.098273
-0.099149
-0.074484
-0.034312
-0.151617
-0.189975
-0.191874
-0.118568
-0.153446
-0.107787
-0.045323
-0.222176
0.056029
-0.004579
-0.114073
-0.116528
0.022447
-0.129979
-0.128357
0.006719
-0.065645
0.150296
0.063943
-0.088486
-0.162221
-0.001657
-0.318863
0.023707
0.106017
-0.372679
0.032481
-0.033119
-0.087452
-0.059438
-0.013208
-0.072122
0.094091
0.071529
0.034473
-0.002803
-0.004986
0.053361
0.112276
-0.056214
0.046133
0.135681
-0.060890
-0.094791
-0.076035
0.053736
-0.038028
0.097560
0.082919
-0.034981
0.124307
0.013744
-0.041412
-0.030417
0.148014
-0.058778
0.016419
-0.042784
-0.137821
0.131941
-0.068487
-0.168945
0.040578
-0.115102
0.040916
0.184832
0.068759
-0.096914
-0.016523
0.049248
-0.125922
-0.293760
-0.001956
0.100422
-0.043456
-0.103879
0.003847
-0.007505
0.120063
0.072675
0.095025
-0.035111
-0.245556
-0.018647
0.096343
-0.240251
0.023752
-0.033119
-0.099900
-0.083166
-0.096464
0.073948
-0.170881
-0.180015
-0.134734
-0.241849
0.011038
0.077543
0.105680
-0.049631
-0.010400
-0.043364
-0.233643
-0.080323
0.048006
0.114037
0.044857
0.018369
0.060588
0.008549
0.141448
0.081366
0.155065
-0.003865
-0.006296
-0.046318
-0.087383
-0.030375
0.048751
0.038788
0.003069
-0.047590
0.026362
-0.019299
-0.085636
0.054029
-0.057280
-0.014007
0.025771
0.070977
-0.006380
-0.001860
-0.013937
0.131802
-0.124073
0.010716
-0.006892
0.113663
0.028377
0.078414
-0.077114
0.030956
0.020364
0.107646
0.034571
0.022672
-0.064181
0.116593
0.086398
0.031324
-0.019319
0.011869
-0.119227
-0.114958
-0.009944
-0.075464
0.100200
-0.041640
0.075505
-0.141020
-0.164507
-0.014545
0.040929
-0.059127
0.001292
0.087221
-0.012456
-0.159030
-0.471909
-0.103385
-0.303720
-0.190511
-0.342607
0.014690
-0.204564
-0.105215
-0.189658
-0.266413
-0.196354
-0.129461
-0.067484
-0.185936
-0.031714
-0.401313
-0.096233
-0.151291
-0.127333
0.124129
0.114281
-0.256106
-0.001391
-0.179730
-0.098354
-0.304122
-0.191322
-0.168632
-0.224438
-0.058167
-0.151473
-0.236499
-0.065814
0.117354
-0.439113
-0.272094
-0.215421
-0.340280
0.019606
0.225417
-0.244970
0.157443
-0.218964
-0.351003
-0.118902
-0.242359
-0.141238
-0.047420
0.093696
-0.110690
0.056710
0.004493
-0.377050
-0.172718
-0.173538
-0.199386
-0.073293
0.070644
0.046228
-0.036603
-0.038725
-0.022629
-0.130274
-0.153365
-0.042154
0.077965
0.022860
0.007967
0.183886
-0.059641
0.042054
-0.058492
0.259912
0.045181
0.110284
-0.086850
-0.069693
-0.078202
-0.181799
0.167806
0.111971
0.047518
0.030254
-0.105387
-0.014598
0.148352
-0.053113
-0.029669
-0.005016
0.009333
-0.175202
-0.064690
-0.034103
0.094634
-0.146746
0.046643
0.118518
0.184337
0.063352
0.062432
-0.000541
0.022323
0.018063
0.050468
-0.071266
-0.011503
-0.121572
0.005101
0.076754
-0.044837
-0.037019
-0.007596
-0.170906
-0.055180
0.007683
-0.091909
0.006333
-0.062954
0.103651
-0.158587
0.115824
0.029363
-0.077639
-0.022435
0.026102
0.075598
0.135635
-0.068245
-0.030383
-0.115456
-0.009223
-0.006923
-0.084674
0.060268
-0.057888
0.005534
-0.003393
0.089239
-0.011363
0.046190
0.100226
-0.101442
0.065959
-0.052756
-0.088537
-0.172337
-0.171679
0.105020
0.053179
-0.009445
-0.013501
0.016489
0.036947
-0.042161
0.019784
-0.000712
0.021811
0.010291
-0.037246
-0.316369
-0.069090
-0.022706
-0.137175
-0.116537
-0.107010
-0.091016
-0.056088
-0.029651
0.064143
0.063714
-0.250071
0.015092
0.024238
-0.209224
0.002451
0.010790
0.084162
-0.011324
-0.033769
0.062997
-0.007207
-0.175694
-0.114617
-0.215138
0.076687
-0.053891
0.033974
-0.044847
-0.053625
0.020199
-0.064413
-0.004999
0.078024
0.092859
-0.090549
0.036861
0.003526
0.096953
-0.049730
0.085766
-0.087397
0.033431
0.099407
-0.041704
0.008740
-0.092786
0.153436
-0.041709
-0.039746
-0.077926
-0.080470
-0.069163
-0.014690
-0.034862
-0.058067
-0.022615
-0.003413
0.044794
-0.007017
-0.025448
-0.012172
-0.023578
-0.120315
-0.120498
0.017741
0.046942
-0.133562
-0.108277
0.002066
-0.063992
0.119509
0.138364
0.008477
0.114411
-0.224305
0.067968
-0.002622
-0.222021
0.117282
-0.019736
-0.015142
-0.025966
-0.131492
0.017881
-0.076428
-0.183372
-0.133876
-0.216615
0.030373
0.062590
-0.012502
-0.020728
-0.069304
0.047801
0.145560
0.006356
-0.061366
-0.038349
0.001789
-0.185377
-0.116749
-0.070261
-0.039371
-0.018456
-0.052936
0.003480
0.025298
0.122194
0.061665
-0.069246
0.047409
-0.058784
-0.025979
-0.288352
-0.046650
0.147096
-0.102109
-0.091163
-0.016975
-0.051045
0.056978
0.060000
0.030239
-0.059386
-0.115015
0.045360
0.030283
-0.075895
-0.040605
0.052197
-0.046289
-0.010620
-0.028577
-0.085035
-0.004846
0.053327
-0.050916
-0.059211
-0.141182
0.049527
0.061013
-0.073787
0.196897
0.006403
0.108984
0.057851
0.013099
0.055309
-0.169158
-0.126505
-0.044116
-0.096398
-0.016301
-0.012627
-0.025959
0.009650
-0.010052
-0.017444
-0.025915
0.011690
-0.049967
-0.054689
-0.057923
0.040983
-0.014471
0.021166
-0.040367
0.031553
0.058397
0.047953
-0.032202
0.048856
0.036812
-0.003152
-0.006452
0.047237
-0.035602
0.028435
-0.040616
0.031063
-0.052672
-0.010182
0.047812
-0.011032
0.046971
0.005050
-0.038171
-0.057657
0.031715
-0.002344
-0.005833
0.027885
0.036488
0.052625
-0.058786
-0.000891
0.039485
-0.041939
0.044621
0.045958
-0.013386
0.058607
0.000279
-0.009612
0.011675
-0.022738
0.002913
-0.039198
0.018919
0.050833
-0.002964
0.012093
-0.019638
0.002336
-0.001752
0.052249
-0.184277
0.087108
0.025428
-0.020776
0.004073
-0.060006
-0.164483
-0.004034
-0.104118
-0.016903
0.078641
0.066766
-0.018915
0.128092
-0.063294
-0.198271
-0.010038
-0.059041
-0.082921
-0.073495
-0.151274
0.044393
-0.103106
0.104880
-0.002568
-0.048819
-0.025327
-0.027086
-0.160858
-0.086678
-0.004172
-0.049795
-0.161492
0.152962
0.093882
-0.070978
0.039346
0.033933
-0.030401
0.161175
0.053257
-0.012705
0.107972
0.103294
0.043441
0.102127
-0.130022
-0.019563
-0.073224
-0.066978
0.067707
-0.083866
0.102064
0.134822
-0.097874
-0.075885
-0.106555
-0.181163
0.138222
0.035769
0.064284
0.039253
0.128206
-0.029217
-0.156791
-0.131306
0.049607
-0.040740
0.006631
0.199781
0.117278
-0.165493
-0.080135
-0.021616
-0.173687
-0.210941
0.058931
0.074381
0.119927
-0.071598
0.109393
-0.134857
0.178389
-0.137081
-0.053597
-0.209684
0.101901
0.105290
0.309525
-0.092652
-0.168686
-0.151113
-0.020139
-0.173312
-0.073192
0.008795
0.009752
-0.120942
-0.146447
0.046470
0.074613
0.260590
-0.186440
-0.231369
-0.100829
0.124244
0.235331
-0.287135
0.033690
-0.198558
-0.237345
0.147169
-0.140613
-0.036612
-0.394467
-0.115295
-0.178418
-0.350703
0.064305
-0.012317
-0.532962
0.209961
0.066809
-0.136981
0.003733
-0.247760
-0.207156
-0.400373
-0.050201
-0.061172
-0.023095
-0.035922
0.002597
-0.004289
-0.060941
-0.053271
-0.321467
-0.218524
-0.125838
-0.023067
-0.117504
0.067029
0.017716
-0.042696
-0.013296
-0.005712
-0.088767
0.026474
-0.006899
-0.127885
-0.033185
-0.005140
-0.080250
-0.230459
-0.087116
-0.030694
0.014024
0.052796
-0.055998
-0.052445
-0.046813
-0.111880
-0.043185
-0.114129
-0.095748
-0.093646
-0.031154
-0.028564
-0.031667
-0.013856
0.015449
-0.088139
0.022658
-0.125027
-0.126731
-0.042497
-0.023840
0.074910
-0.044861
-0.110144
-0.148653
0.031440
-0.067123
-0.074004
0.065420
-0.165313
0.027548
-0.055234
-0.046527
-0.010656
0.030616
-0.052892
-0.088445
-0.137579
0.124317
0.022132
0.006110
0.115872
-0.009225
0.044383
0.114164
-0.068835
-0.270379
-0.353672
0.090386
0.159021
0.087881
-0.024510
-0.107815
-0.230817
0.208984
-0.045322
-0.071975
-0.282653
0.098597
-0.077607
0.110293
0.047774
0.056244
-0.166958
-0.194337
-0.230661
-0.047761
0.047811
0.060614
-0.155310
-0.024544
0.087319
0.041335
0.214428
-0.163339
-0.103841
-0.177282
0.154478
-0.012385
-0.208607
0.123344
-0.157230
-0.120962
0.105225
-0.050025
0.012447
-0.067061
-0.062112
-0.109784
-0.269713
0.068065
-0.040282
-0.274054
0.082173
-0.088196
-0.170696
-0.135731
-0.046741
-0.064846
-0.146497
0.007748
0.019463
-0.015668
0.043760
0.029948
0.020571
-0.005356
0.033964
0.012259
-0.053861
-0.010313
-0.046677
-0.032086
0.033178
-0.051623
0.027162
-0.038108
-0.047367
0.044967
-0.047726
-0.054305
0.058624
-0.018252
0.005096
0.020970
-0.003359
-0.005554
-0.056548
0.001927
-0.035379
0.027993
0.038019
-0.006330
0.002784
-0.000454
-0.030491
-0.040758
-0.009862
0.058758
-0.036811
0.019711
-0.024914
-0.043570
-0.007418
-0.042204
-0.055988
-0.016645
0.012501
0.015221
-0.032621
-0.052464
0.018555
0.014788
0.007208
0.006938
-0.034954
0.020359
-0.048768
0.039297
-0.024444
0.026563
0.039877
-0.036065
-0.049542
-0.005003
-0.049596
-0.166666
-0.017621
0.022906
-0.012503
-0.017849
-0.008570
-0.160182
-0.152030
-0.058422
-0.026090
-0.057718
0.070382
0.021196
0.008550
-0.088857
0.072237
-0.042903
0.065123
0.094360
-0.109512
0.051731
-0.130769
-0.141143
-0.172301
-0.174374
-0.023546
0.038365
0.012249
-0.016339
-0.019469
0.053886
-0.047338
0.046668
-0.005850
-0.035558
-0.078247
0.042735
-0.283446
-0.055153
-0.000414
-0.021778
-0.114338
-0.002141
-0.109757
0.033611
0.055172
-0.023436
0.100021
-0.054338
0.010950
0.004861
-0.078187
-0.023173
0.041709
0.010962
-0.096822
-0.107249
0.033575
-0.072152
-0.152533
-0.062048
-0.132864
-0.120782
-0.058387
-0.040127
-0.054535
-0.060949
-0.329272
0.039585
0.033587
-0.004508
-0.075238
-0.051254
-0.034627
-0.134075
-0.060362
-0.037945
0.014200
-0.121378
-0.172737
-0.227299
-0.042458
-0.023791
0.069011
-0.022424
-0.049332
-0.181373
-0.077150
0.023396
-0.039344
-0.170897
-0.104393
0.007526
-0.128915
-0.074832
0.005062
0.128844
-0.098130
-0.174930
-0.025981
0.021532
0.070293
-0.031686
0.061205
0.008924
0.043267
-0.038569
0.033024
0.025259
0.014659
-0.149927
-0.183036
0.095004
-0.111276
-0.076200
0.114374
0.334894
-0.046346
0.099471
0.085621
-0.071549
-0.083734
-0.043440
0.064901
-0.039394
-0.006554
0.012181
0.313316
0.035775
-0.004744
-0.063796
-0.218077
-0.180948
-0.029718
0.097430
0.164479
0.104371
-0.163511
-0.103558
-0.034000
-0.064489
0.031316
0.103384
-0.222159
-0.199679
0.120423
0.051081
-0.003447
-0.138749
-0.157635
0.043583
0.089353
-0.053707
0.148840
-0.218820
-0.030066
-0.067079
-0.080847
-0.141919
0.173533
0.040942
-0.137478
0.297059
-0.089515
-0.207536
0.169299
0.079173
0.080527
-0.081835
0.144115
-0.002609
0.149057
-0.008718
0.086621
-0.025300
-0.181427
-0.254083
-0.156198
0.286508
0.102605
-0.266611
-0.045999
-0.147475
-0.135418
0.148610
0.151889
0.058729
-0.046590
0.194967
-0.109947
0.009415
-0.022576
-0.074700
-0.018153
0.000247
0.034780
-0.165938
-0.058880
-0.048537
0.061755
-0.043982
0.084819
0.088004
0.123154
0.079841
0.013886
-0.007985
0.073257
-0.005542
-0.097921
-0.078810
-0.024265
0.045786
0.061265
-0.056647
-0.133423
-0.160282
0.043806
0.116387
0.108969
0.002676
-0.015913
-0.067341
0.060247
-0.142675
-0.030671
-0.018921
-0.055613
-0.116097
0.026411
0.020975
0.158332
0.073525
0.002995
0.032037
0.037237
0.055648
0.173189
-0.074679
0.098652
0.060019
0.017740
-0.002432
0.099686
-0.204934
0.052100
-0.056238
-0.285399
-0.149324
0.000249
0.049912
-0.092420
-0.019581
-0.030420
-0.132347
-0.036928
0.011755
-0.023965
0.001824
0.033332
0.151282
-0.009216
-0.006082
0.035824
-0.115251
-0.158284
0.029371
0.089964
0.070289
0.099021
0.073903
-0.163271
-0.105087
-0.088599
-0.096380
0.020787
0.025041
0.011558
0.043616
0.022868
-0.152253
-0.011303
-0.035033
-0.071371
-0.006153
0.111566
0.071365
0.098076
0.056063
-0.051146
-0.077759
0.132079
-0.038489
0.122535
0.038004
0.103760
0.092266
-0.029305
-0.023924
-0.059887
-0.113625
0.108066
-0.161297
0.006490
-0.217624
-0.066766
-0.000858
0.030481
0.150880
-0.026789
-0.036546
0.052495
0.073928
-0.151053
-0.037793
-0.139048
-0.032159
-0.085452
0.153628
0.061327
-0.043222
-0.085689
-0.042243
-0.102088
0.134145
0.033956
-0.216649
-0.155551
0.060443
-0.060364
-0.147787
-0.024588
0.024016
0.066231
0.026591
-0.001050
-0.139017
0.106233
0.145221
-0.155987
0.037133
-0.112234
-0.128645
-0.384160
-0.017149
0.161040
0.061246
-0.012472
-0.060428
0.056004
0.058318
0.016015
0.098532
-0.022264
-0.277146
-0.022761
0.018940
-0.152188
-0.029019
0.019863
-0.108277
-0.041945
-0.027603
-0.115473
-0.042588
-0.027174
0.063100
-0.148867
-0.110243
0.040083
0.067711
-0.258331
0.196606
0.016920
0.166455
-0.016257
-0.030288
0.074545
-0.026438
-0.089904
-0.046608
-0.071834
0.007770
-0.101130
0.043430
-0.061188
0.018482
0.001773
0.201635
0.119124
0.002638
-0.019026
-0.010683
-0.184618
0.087125
0.032853
0.038192
0.060042
-0.043077
-0.006292
-0.013384
-0.053053
0.016091
-0.063086
0.082684
0.057478
-0.025771
-0.167787
0.048958
-0.037974
-0.136339
-0.092582
0.061070
-0.069068
-0.014962
0.134585
0.020405
0.077548
-0.006949
0.115151
-0.043939
-0.067198
0.042613
0.203209
0.080160
-0.007561
-0.062983
-0.020644
0.023931
0.039005
-0.037931
-0.001119
-0.040525
-0.019862
0.013262
-0.092702
0.109232
0.001572
-0.048599
0.001761
-0.074663
-0.025662
-0.120236
-0.151049
-0.035456
-0.195334
-0.156174
-0.091255
0.089449
0.004438
0.036663
-0.430324
-0.101916
0.008949
0.030611
0.056565
-0.021901
0.074657
-0.060320
-0.006063
0.034732
-0.084061
-0.125837
-0.194527
-0.259443
-0.025400
-0.292669
0.091692
-0.094958
-0.145968
-0.139849
-0.064434
0.054452
0.028675
-0.264465
-0.084603
-0.039907
-0.002597
-0.074869
0.194635
-0.002836
-0.002437
-0.018713
-0.188267
0.022164
0.228194
0.063459
0.014314
-0.018618
0.055229
-0.024260
-0.019762
0.041274
-0.136036
0.008770
-0.191490
0.028498
-0.108218
-0.040852
0.079986
0.130353
0.005098
-0.042297
-0.059001
-0.054399
-0.092896
-0.051069
0.018298
-0.027037
0.054077
0.015434
-0.045844
-0.060566
-0.060875
-0.071760
0.065153
-0.076664
-0.054561
-0.106730
0.030059
-0.037045
0.046137
-0.001271
0.041389
0.066281
0.003656
-0.069236
0.099743
0.088664
-0.034775
-0.084855
-0.127829
0.063898
0.017842
-0.023361
-0.145744
-0.160542
0.010318
0.002668
0.061859
-0.037251
-0.021297
0.023751
-0.090863
-0.123579
-0.038762
-0.049256
-0.086079
-0.021213
-0.090275
0.045672
0.045498
0.026731
-0.023773
-0.009577
-0.050771
0.007271
0.143769
-0.101485
0.079975
-0.034679
0.027714
-0.032535
0.005570
0.009663
-0.037542
-0.021390
-0.119056
-0.070191
-0.023291
-0.025525
-0.095739
0.008287
-0.149744
0.063141
0.023870
0.027275
-0.053914
-0.002897
0.002235
-0.072634
-0.018318
0.052545
0.127681
-0.018479
-0.024655
-0.036125
0.027313
-0.022659
0.038461
0.048424
-0.021402
0.091252
-0.037164
0.003918
-0.048683
0.008728
-0.012177
0.019991
-0.146166
-0.042777
-0.029004
0.060350
-0.015638
-0.049592
-0.095483
-0.004148
0.120257
0.015117
-0.009328
-0.018498
0.048655
-0.118580
-0.202902
0.049726
0.068945
-0.003130
-0.012895
-0.039162
-0.059706
0.151053
0.084669
0.034486
0.083679
-0.148892
-0.061833
0.023967
-0.142919
-0.023373
0.022694
0.022531
-0.131874
-0.061786
-0.011746
-0.109643
-0.096052
-0.033535
-0.222741
0.098214
-0.127468
-0.241299
0.011683
-0.031741
-0.314846
0.217597
-0.011609
0.211290
0.050952
0.190037
-0.179697
-0.148343
-0.049482
0.003303
-0.072221
-0.134024
-0.104714
-0.212717
0.140811
-0.270662
0.169755
-0.144911
-0.265531
0.074338
0.260483
-0.139894
0.227183
-0.343577
-0.252982
0.002310
0.014887
-0.045029
0.185261
0.050194
0.023490
-0.040912
-0.120025
-0.139118
0.243728
0.031062
-0.148036
0.071735
0.184056
-0.168396
0.211196
0.072272
-0.269995
0.300590
-0.297417
0.057782
-0.176778
0.080469
0.161681
-0.078299
0.056631
-0.352244
0.136983
-0.198409
0.091884
0.251525
0.115142
-0.001539
0.049032
0.132044
0.091899
0.073414
0.016251
-0.079129
0.060037
-0.048887
-0.046588
-0.050192
0.052280
-0.037386
-0.033064
-0.109522
-0.255730
0.029520
0.009880
0.051399
-0.124537
-0.057796
0.101877
0.122983
-0.013414
-0.159096
0.071875
0.083109
-0.193166
-0.020027
0.049991
0.037555
-0.097040
-0.047513
0.010609
0.021026
0.077535
0.066306
-0.097067
-0.249006
0.021660
0.018955
-0.160974
0.036643
-0.096685
-0.013777
0.024801
0.036951
-0.109725
0.069865
0.076143
-0.044862
-0.070282
-0.003344
-0.065148
-0.074615
-0.055057
-0.140201
-0.003650
0.109963
-0.123963
0.086014
0.100608
-0.143859
-0.106193
-0.132190
-0.051225
0.209503
-0.016229
-0.082779
-0.021827
-0.013733
0.085883
-0.020336
-0.121174
-0.003802
0.065720
-0.133858
0.041596
0.096657
0.020620
0.227794
0.179446
0.015010
0.075372
0.147282
0.056311
-0.297707
0.128236
-0.096795
0.127855
0.141092
-0.090952
-0.058148
-0.066714
0.161593
-0.057449
0.034549
0.083715
0.232957
0.080262
-0.021594
0.122390
-0.198701
0.072318
-0.002531
-0.215866
-0.026794
0.003829
0.139726
-0.093040
0.085810
-0.187037
-0.026371
0.091289
0.214315
0.070153
0.034539
0.003082
-0.114083
0.019330
-0.285867
-0.039848
-0.226845
-0.174375
-0.034893
-0.055238
0.088402
0.004212
-0.167667
-0.105259
-0.050110
0.069899
-0.058360
-0.026277
-0.044664
-0.158932
0.048859
-0.005850
0.140486
-0.002418
0.168647
-0.350281
-0.366986
0.136416
-0.311896
-0.181134
-0.054108
-0.333012
-0.140317
0.092574
-0.146926
0.111103
-0.176020
-0.349894
0.265190
0.139691
0.018904
0.227640
-0.269227
-0.270313
-0.067893
-0.009156
-0.058852
0.157285
0.018165
-0.241478
0.271989
0.091346
-0.399625
0.195684
0.124978
-0.235449
-0.309498
0.056167
0.237979
0.182636
0.056634
-0.289445
0.072422
-0.111028
-0.404792
-0.305450
0.218591
0.078333
-0.276519
-0.058010
-0.312242
0.026930
0.122966
0.233946
0.011526
-0.091942
0.089080
-0.212937
-0.258838
-0.234576
0.028814
-0.017314
-0.053968
-0.224465
-0.022167
0.105203
0.112054
0.015928
-0.183933
0.046926
0.134388
-0.138677
-0.092303
-0.117974
0.014774
-0.267438
-0.126235
-0.164802
-0.065950
0.080592
0.125514
-0.101630
-0.122275
0.051723
-0.019837
-0.200498
-0.161636
-0.007736
0.012570
-0.155680
-0.145417
-0.099971
-0.008959
-0.010115
-0.107173
-0.279145
0.142551
-0.073525
-0.091776
0.059230
-0.038970
-0.054016
-0.093169
-0.094712
0.050565
-0.014451
0.006785
-0.150754
0.245296
-0.061541
0.061787
-0.039648
0.102148
-0.084843
0.128829
0.036485
-0.092845
-0.270016
0.060643
0.224846
-0.101393
0.181647
0.274006
0.158195
-0.073164
-0.052544
-0.052179
0.067563
0.136902
-0.086291
-0.219967
0.023617
-0.000325
-0.344145
-0.268758
-0.256830
0.203367
0.157937
-0.028113
-0.163421
-0.030926
0.308130
0.203454
-0.171840
-0.134984
0.135867
0.150331
-0.274665
-0.166052
0.200065
0.015656
-0.204951
-0.000919
0.145516
0.254004
0.077638
-0.019822
0.026309
-0.174626
0.246193
-0.066047
-0.127752
-0.046722
0.032569
-0.088566
-0.092314
0.027732
-0.070685
0.002317
0.216612
-0.022689
-0.165221
-0.404598
-0.242829
-0.180885
-0.299911
0.257356
-0.029659
0.065486
0.185324
0.284863
0.141105
-0.181513
-0.211400
-0.087156
-0.298950
0.013745
-0.195869
-0.264749
0.014701
-0.038699
0.066497
-0.241482
-0.126940
0.025797
0.071031
0.057922
0.014111
-0.003327
0.162625
-0.090940
-0.222981
-0.035763
-0.011732
-0.001855
-0.036085
0.128526
-0.058273
-0.029276
-0.013576
-0.171946
-0.224966
-0.366546
0.052690
0.112313
0.021662
-0.022549
-0.077548
-0.102544
-0.097855
-0.256618
-0.121284
0.064330
-0.186643
-0.032816
-0.008505
0.068886
0.055821
-0.089001
0.108013
-0.151371
0.067563
0.149370
-0.048941
-0.123258
0.165316
0.036156
-0.048035
-0.222886
0.006642
-0.328443
-0.064079
0.252690
-0.342533
-0.064494
0.088261
-0.096613
-0.134776
-0.027450
-0.192668
0.074644
-0.036260
-0.215608
0.029422
-0.038830
-0.230321
-0.075896
-0.054239
0.166310
-0.052585
0.039847
0.010516
-0.067666
-0.152906
0.219830
-0.015162
-0.062382
-0.037032
-0.127619
0.150378
-0.233172
0.191989
-0.082345
0.015425
0.092334
0.037611
-0.184510
0.090200
-0.130401
-0.095695
-0.059893
0.057385
-0.031811
0.131777
0.020507
0.149905
-0.132337
-0.129655
-0.034827
0.272707
-0.078016
-0.193464
0.181007
0.146732
-0.061491
0.188355
-0.003574
-0.192840
0.288972
-0.205647
0.017576
-0.014569
0.203383
0.237558
-0.111432
0.016611
-0.238286
-0.097087
-0.094141
-0.032509
0.196427
0.036291
-0.007126
0.017461
-0.199050
-0.057078
0.164667
-0.014570
-0.071047
-0.158315
-0.069925
0.032955
-0.092477
-0.031407
-0.106139
0.079760
-0.051576
-0.407618
-0.181908
-0.183466
0.050168
-0.301728
-0.169324
-0.054213
0.155549
-0.171453
0.002548
-0.097190
-0.026500
-0.035428
0.072829
-0.171810
-0.160530
-0.026981
-0.056538
-0.140006
-0.030263
-0.211205
0.087215
-0.127571
0.020789
-0.207065
0.066482
-0.296858
-0.014600
-0.157356
-0.144506
-0.017352
0.145323
-0.223016
0.105787
-0.114811
-0.151405
-0.154252
0.136960
-0.101788
-0.006174
-0.051496
-0.391102
0.045737
0.244036
-0.180939
0.163064
-0.155455
-0.034571
0.073630
-0.068501
0.079881
0.222946
-0.026785
-0.337478
0.027402
0.012772
-0.006767
-0.234132
-0.111365
0.060627
0.106296
-0.055047
0.078348
-0.015317
-0.103844
0.182812
0.054398
0.042646
0.000982
0.013221
0.153878
-0.018931
0.119864
-0.060803
0.067019
-0.010637
-0.191253
-0.210744
0.034634
0.146002
0.004111
-0.032850
0.036173
0.001964
0.218715
-0.122471
0.031064
-0.209602
0.005342
-0.023212
-0.192370
0.119531
-0.013502
0.022659
0.060809
-0.041390
-0.079850
0.159397
0.112804
0.226778
0.104671
0.075542
-0.043855
-0.088018
0.113656
-0.250451
-0.000910
0.001629
-0.308788
-0.121744
-0.009067
0.049569
0.000086
-0.085101
-0.049506
0.090249
-0.055762
-0.187655
-0.004866
-0.017045
-0.098856
-0.184969
-0.174473
0.012199
-0.074865
0.082084
0.024466
0.052742
0.000862
0.164445
0.023812
0.001039
0.027195
-0.073801
0.124104
-0.016688
0.126273
-0.150004
0.050522
-0.019178
0.092524
-0.168333
0.009676
0.063216
0.049632
-0.078478
0.004301
0.016102
0.151849
-0.071084
0.086736
-0.101798
-0.133181
-0.021916
0.029956
-0.136779
-0.179857
0.119399
0.077978
0.019417
0.061049
0.007256
0.007380
0.190275
0.040477
0.059783
-0.028698
0.076325
0.131277
-0.172255
0.046357
-0.027909
-0.237092
-0.118313
0.007182
0.112669
0.096972
0.007775
-0.008053
-0.264520
-0.056676
0.184505
-0.064941
0.060078
-0.338830
-0.141601
-0.059448
-0.161815
-0.053409
-0.207444
-0.105939
-0.104531
-0.111878
-0.433534
-0.241726
-0.079883
-0.259266
-0.168425
-0.174520
0.387402
-0.496570
-0.067095
0.012426
-0.015730
-0.237941
0.136443
-0.148876
-0.049700
0.129205
0.023283
-0.087969
-0.089036
-0.420709
-0.024123
-0.437352
0.092710
-0.219377
-0.068268
-0.265701
-0.008444
-0.150959
-0.344764
-0.215768
0.117258
-0.295299
0.125870
0.003620
-0.428261
0.042097
-0.177455
-0.183531
-0.270767
-0.488109
-0.320557
-0.057397
0.272835
-0.107979
0.248028
-0.252112
-0.456760
-0.111157
-0.111565
-0.170269
0.066465
-0.008323
-0.126984
-0.023552
-0.024761
0.021156
-0.123228
-0.189511
0.036683
0.021663
0.093248
0.124559
0.072146
0.038997
0.166963
-0.016481
0.185778
-0.073059
0.021960
-0.061350
-0.044880
0.034254
-0.234910
0.089824
0.099714
0.098607
-0.136624
0.142122
0.061281
0.080196
0.001731
0.108650
-0.021378
0.177760
-0.135962
0.154808
0.009771
-0.022177
0.088972
0.127334
-0.052987
-0.031315
0.146996
0.152024
-0.120016
0.106559
0.096268
0.057916
0.156626
-0.043739
0.234834
0.072713
0.133316
0.029730
-0.149588
-0.038076
-0.130424
-0.235947
-0.049140
0.058548
0.170774
0.046355
-0.036482
0.055227
0.163239
0.059678
0.057661
-0.041377
-0.063684
0.007370
-0.150531
-0.063355
-0.104703
0.014882
-0.054090
-0.007932
-0.037956
-0.111055
-0.031725
0.036595
0.098023
-0.121605
0.011841
0.117547
0.204445
-0.005217
-0.061580
0.017545
0.015161
-0.049265
-0.000005
0.031717
0.087214
-0.025804
-0.083486
-0.028767
0.154318
0.008362
-0.013929
-0.090481
-0.166224
0.022796
0.014226
-0.176856
-0.002751
-0.049268
-0.020442
-0.031228
-0.039354
-0.007955
0.045559
0.100334
-0.118343
0.066214
0.004109
-0.004157
-0.088369
-0.071847
-0.004379
-0.052773
0.185425
-0.086397
0.112780
0.069791
-0.101632
-0.127883
-0.090079
-0.035276
0.119807
-0.016130
-0.141855
-0.013118
-0.026477
-0.031354
-0.105646
-0.106042
-0.057818
0.054743
0.017515
0.112011
0.032237
-0.001641
0.041833
0.079383
0.033523
0.081875
-0.022383
-0.021287
0.039538
-0.002610
-0.131207
0.066447
-0.087043
-0.102500
-0.084728
-0.112331
0.044225
-0.000353
0.023745
-0.097564
0.016207
0.079090
-0.001863
0.085386
-0.147150
0.017324
0.002534
-0.126167
0.043362
-0.105385
0.064284
-0.004680
0.055748
-0.010538
0.063270
0.019270
0.054989
0.127159
-0.024041
0.035366
-0.009964
0.065141
-0.164732
-0.005632
-0.016409
-0.225897
0.022398
-0.051261
0.011297
0.024842
-0.048506
-0.024240
0.041563
0.031186
-0.007456
-0.051234
-0.033728
0.128123
-0.029417
0.034802
-0.146088
-0.058874
-0.087622
-0.067964
0.023023
-0.126318
0.146743
0.006608
-0.012380
-0.023202
0.085135
0.049508
-0.095602
-0.079634
-0.089218
0.102502
0.015844
-0.180542
-0.044860
0.080132
0.008297
-0.103146
-0.071752
0.070476
0.137667
-0.022770
0.013690
-0.025308
-0.062331
0.142770
-0.020416
0.018654
-0.028521
0.041860
0.004955
-0.026276
-0.009852
-0.013100
-0.018891
0.093577
0.012971
-0.028038
-0.089631
-0.140090
-0.175280
-0.096825
0.094653
0.044008
-0.006588
0.059553
0.006266
-0.014814
-0.106456
-0.194076
0.038695
-0.119735
-0.014978
-0.006204
-0.058429
0.042336
0.017489
0.027500
-0.031671
-0.024601
-0.042265
-0.052265
0.020916
-0.012561
0.051235
-0.025031
-0.014919
-0.007989
0.006051
-0.023859
-0.018529
0.039821
0.017279
-0.016907
-0.002997
0.032485
-0.037750
-0.051641
-0.025794
0.035869
-0.049768
0.041154
-0.035083
-0.035350
-0.033075
0.028667
0.012282
0.035309
0.057932
0.017230
-0.009412
0.041350
0.046070
0.053887
-0.022623
-0.039104
0.005647
-0.037031
0.037587
0.046765
-0.008005
0.054869
0.051837
-0.020935
0.009551
0.020176
-0.034273
-0.037951
0.023604
-0.011887
0.019925
-0.048501
0.038723
-0.033047
0.038412
0.028406
-0.205472
-0.246194
-0.034977
-0.002263
0.013796
-0.217580
0.079234
0.069600
0.078079
-0.048612
0.054634
-0.004356
0.093661
0.042289
0.003738
-0.062979
-0.193031
-0.083043
-0.146946
-0.033943
-0.139069
0.058568
0.023526
-0.081289
-0.025411
-0.015627
-0.047519
0.083199
-0.125802
-0.077971
-0.034267
-0.059958
-0.124111
0.014993
-0.024879
0.016783
-0.068288
-0.122096
-0.099936
0.162353
-0.087941
-0.035556
0.094825
0.103815
-0.164986
0.115142
0.029326
0.032025
0.017130
-0.106210
0.125426
-0.009454
-0.046634
0.182804
0.149892
0.019836
-0.056706
0.084446
-0.189522
0.105357
0.079599
0.055576
-0.082253
0.047685
0.009823
-0.222835
-0.297104
0.051541
-0.053212
0.208037
-0.107178
-0.325559
0.053753
-0.060428
0.013528
0.087380
0.049847
0.038857
0.383566
0.120011
0.001364
0.057856
0.137270
0.048252
0.042715
0.017927
-0.106632
0.191839
0.194176
-0.025808
-0.215050
0.075764
0.187373
0.034467
0.012358
0.261847
0.223085
0.040425
-0.204901
0.335051
-0.163535
0.186734
0.094361
-0.244379
-0.107173
-0.071480
0.066009
-0.084725
-0.047672
-0.147080
0.030967
0.079993
0.209933
0.172258
0.432042
0.081890
-0.257338
-0.304438
-0.410475
-0.050231
0.023494
-0.244508
-0.045414
-0.021547
0.104561
0.252210
-0.126793
-0.020933
0.005028
-0.037678
0.059869
-0.030182
-0.009239
-0.080490
-0.037821
0.073516
-0.094174
-0.031662
-0.046547
-0.106846
-0.076180
-0.126945
0.001798
-0.116362
0.032232
-0.080849
-0.130566
-0.037870
0.072514
-0.070241
-0.009647
-0.059495
0.044455
0.020767
0.054358
-0.062022
-0.084015
-0.053838
-0.007284
-0.085757
0.056383
-0.083513
0.049508
-0.007705
-0.026664
0.001306
0.101631
-0.101695
-0.099502
-0.129557
-0.042219
-0.093907
0.079201
-0.136816
-0.004426
-0.068162
-0.050386
-0.089388
0.113116
-0.026971
0.084614
-0.044017
-0.051608
-0.020433
0.180875
-0.070853
0.149324
-0.084812
-0.045974
-0.013556
-0.120501
0.092182
-0.055472
-0.402593
-0.182124
0.045102
0.023946
0.202760
-0.270763
-0.216522
-0.044609
-0.107856
-0.313264
0.124133
0.028736
0.086283
0.254901
-0.035040
0.054501
-0.021708
0.126663
-0.076824
-0.297049
-0.119984
0.139801
0.198271
0.012562
-0.117212
-0.289979
-0.133656
0.250225
0.076175
0.022193
0.028145
-0.085010
-0.142141
0.019982
0.117562
0.014229
0.012050
-0.066778
-0.279738
-0.142928
0.228796
0.157225
-0.177525
-0.057853
-0.179584
-0.176924
0.153742
0.143855
0.183819
0.126671
0.051223
-0.169498
-0.292181
-0.251510
0.003408
-0.143801
-0.371525
-0.231701
-0.237967
0.029264
0.042402
-0.062061
-0.055574
0.044810
-0.042631
-0.020990
-0.021406
0.023576
0.046692
-0.013677
0.014942
-0.016583
-0.049441
0.034216
-0.033258
-0.056891
-0.033867
-0.012802
-0.001948
-0.018485
0.019611
-0.044391
-0.051938
0.030512
0.036039
0.000344
0.018398
0.020684
-0.017277
-0.036482
-0.047231
-0.012636
-0.036792
-0.033111
-0.001907
0.042552
-0.035501
0.017735
-0.052797
-0.003288
0.027095
-0.054504
-0.048456
-0.036358
0.000986
0.005161
-0.009622
-0.011249
-0.023907
-0.022032
-0.026077
0.004240
-0.004527
0.004047
-0.038834
-0.043084
0.032809
-0.037997
0.010762
-0.054255
0.000401
-0.031132
-0.051179
-0.017866
0.026995
0.049854
0.044981
0.043771
0.093541
0.095004
-0.061996
0.008884
-0.000590
-0.065464
-0.045178
-0.105635
0.000856
-0.093891
-0.001728
-0.010226
-0.160073
-0.030667
0.063209
0.057520
-0.058967
-0.064158
0.032466
0.142351
-0.050544
-0.148510
-0.011357
0.021475
0.011248
-0.028773
-0.012012
-0.057843
-0.071260
-0.063229
0.010641
0.106055
-0.036727
0.024265
-0.103133
-0.102858
0.048458
0.052459
-0.173624
-0.067302
-0.157621
-0.075241
-0.102679
0.097469
-0.016960
0.072618
-0.016887
-0.060227
0.004740
-0.003453
-0.048077
0.001618
-0.018494
-0.088697
0.038520
0.135159
-0.098135
0.119124
0.020979
-0.012839
-0.067461
-0.143330
0.017162
0.010440
-0.111769
-0.051006
-0.059185
-0.000031
-0.136543
0.118135
-0.008315
-0.038863
-0.032351
-0.093291
-0.209372
-0.097480
-0.056159
-0.020078
0.017571
-0.122061
0.012343
-0.119643
0.069471
-0.362055
-0.128916
-0.053794
0.002498
-0.095730
-0.083558
-0.035313
-0.055937
0.024411
-0.113714
-0.012801
-0.041088
-0.089985
0.047265
0.091783
-0.102850
0.019168
0.001855
-0.133461
0.095314
-0.073065
0.055964
0.004483
0.045075
-0.102068
-0.103778
-0.083253
0.076874
0.020402
-0.064692
-0.155570
-0.110859
-0.063637
-0.019575
0.197534
-0.061346
-0.266804
0.037307
-0.110856
-0.113582
-0.086337
-0.033098
-0.066964
-0.111527
0.073674
-0.183337
-0.512434
0.024183
0.012483
-0.292193
-0.106657
-0.216107
0.158821
0.078903
0.032120
0.038826
-0.159221
0.032112
0.016306
-0.180415
-0.356836
-0.095039
-0.174460
0.049101
0.019911
0.043964
-0.289174
-0.317780
-0.099824
-0.232284
-0.372469
0.209177
-0.340155
-0.175722
-0.053865
0.019874
-0.046157
0.062607
-0.141897
-0.144821
-0.099358
-0.149456
-0.177912
0.291452
-0.071874
-0.372168
-0.076379
0.212494
-0.034667
0.356142
0.090981
-0.402236
0.074702
-0.084670
-0.134286
-0.180394
-0.048848
0.217128
-0.228929
-0.045131
0.003134
0.004928
-0.113880
0.161470
0.064683
-0.009808
-0.044021
-0.284200
0.009637
0.016051
0.029415
-0.001850
-0.014687
-0.148782
-0.074624
-0.066386
0.063536
0.053358
-0.060186
0.056868
0.026359
-0.148260
0.063896
-0.066812
0.069757
-0.103689
-0.156559
-0.015399
0.042894
0.051649
-0.131678
-0.008176
0.020961
0.041155
0.012601
-0.023410
-0.003650
0.016052
0.024740
-0.123010
-0.080618
0.110799
0.013751
-0.003186
-0.094463
-0.133635
0.054115
0.045120
-0.005219
-0.160019
0.025752
0.079460
-0.086014
0.091501
0.088178
-0.054826
0.091875
-0.099311
0.090264
-0.040802
0.028121
0.102316
-0.288705
-0.033142
0.073438
-0.074806
0.016899
-0.040645
0.091159
0.008869
-0.058965
0.098776
0.127487
0.068455
-0.008367
-0.000263
-0.011529
0.095759
0.102347
-0.077268
0.001567
0.054482
-0.022721
-0.056832
-0.103568
-0.116321
0.287471
0.120640
-0.049300
-0.032563
-0.022017
0.032959
-0.132803
0.087430
-0.118886
0.152325
0.111192
-0.057116
-0.038686
-0.039434
0.051173
-0.099670
-0.043284
0.185074
0.114897
0.146858
0.065562
0.111065
-0.075747
0.167838
0.004807
-0.097089
0.010339
-0.075316
0.147733
-0.009428
0.030988
-0.021699
-0.016880
0.159104
0.202075
0.022524
0.027276
0.062707
-0.045654
-0.010748
-0.251876
-0.016090
-0.129196
0.034659
-0.046929
-0.041225
0.088665
0.039866
-0.067523
-0.031481
0.097232
0.013705
0.033646
-0.012739
0.022461
-0.047828
-0.019315
-0.068829
-0.129657
0.053965
-0.078307
-0.263119
-0.161084
-0.141526
0.069112
0.000075
-0.049813
-0.107677
0.036599
0.159244
0.102486
-0.142145
-0.097390
0.042689
0.068500
-0.223417
-0.032053
0.071150
-0.061746
-0.143398
-0.067310
0.015732
0.178928
0.094919
-0.041124
-0.057007
-0.157498
0.117457
-0.053488
-0.095315
0.004781
-0.123201
-0.042599
-0.033938
0.017782
-0.160266
-0.028007
0.027463
-0.076539
-0.055476
-0.231904
-0.177086
-0.022339
-0.225625
0.031551
-0.076764
0.092745
0.006224
0.114139
0.157585
-0.088263
-0.090228
-0.166103
-0.177244
0.108602
-0.048196
-0.189287
-0.046335
-0.030600
0.077050
-0.116469
-0.090631
-0.006427
-0.007348
-0.075594
0.042889
0.003755
-0.094942
0.140668
0.046811
-0.014621
-0.048161
0.060669
0.038450
-0.111933
0.042308
0.069219
0.113243
0.010718
-0.146779
-0.204610
-0.055646
0.143401
-0.022148
-0.028539
0.048400
0.053042
0.136413
0.024884
0.026109
-0.099195
-0.053917
0.001165
-0.117491
-0.024466
0.100493
0.136092
-0.070915
-0.066051
-0.041523
-0.053516
0.110029
0.157868
0.113764
0.134856
-0.065131
-0.042579
-0.054472
-0.072219
0.038429
0.003904
-0.085596
-0.054941
0.014216
0.050985
-0.030424
-0.022064
-0.138416
-0.160043
-0.064797
-0.010363
-0.085689
-0.024016
-0.159175
-0.016409
0.093169
0.075457
0.067584
-0.130302
-0.249166
-0.249818
0.076336
-0.222371
-0.078538
-0.377249
-0.022279
-0.045696
-0.024183
-0.381168
-0.122569
-0.072398
-0.142386
-0.247874
-0.090629
0.055934
0.098369
-0.147565
-0.214556
-0.029355
-0.037854
-0.255530
0.075435
-0.062489
0.015647
-0.022593
-0.174853
-0.165474
0.091466
-0.013977
-0.072423
-0.109870
0.076837
-0.104383
0.028921
0.089968
-0.023325
-0.006455
-0.099665
-0.129823
-0.176340
-0.125202
-0.015986
0.182907
-0.069961
-0.366024
-0.000018
-0.198331
0.073528
-0.400916
-0.020579
-0.055671
-0.163750
0.073908
-0.036261
0.073363
-0.038218
-0.075423
-0.013078
-0.124711
0.009362
0.022833
0.083217
-0.063589
0.083148
0.057472
-0.158407
0.014301
0.021409
0.081300
-0.040736
-0.112482
0.026865
0.119209
-0.039620
-0.119631
-0.052670
0.014922
0.067791
0.001617
-0.020267
-0.010288
-0.026507
-0.007821
-0.044807
0.014321
0.065979
0.092693
0.041858
-0.091058
-0.021747
0.070461
-0.026695
-0.036838
-0.152862
0.025503
0.057630
0.073129
-0.032163
-0.005919
0.069054
0.007371
0.006903
0.104852
0.033913
0.110889
0.037497
-0.175122
0.035242
0.115544
-0.140026
0.089130
-0.089915
0.042509
-0.015184
-0.055254
0.099708
0.168889
-0.005521
-0.114984
0.015306
-0.073104
-0.044514
-0.193221
-0.077863
-0.013902
0.063829
-0.020970
-0.017009
-0.025517
-0.139660
0.119485
0.004850
0.092783
0.037114
-0.060668
-0.012246
-0.023299
0.029276
-0.143972
0.146333
0.091710
-0.005571
-0.013347
-0.022747
-0.025831
0.009914
-0.061866
-0.010035
0.010431
0.086438
-0.017232
0.052427
-0.164331
-0.041167
-0.007533
-0.036334
-0.058876
-0.189306
0.029652
-0.033136
0.018155
-0.061759
0.110041
0.064518
0.126947
0.020977
0.070525
-0.045826
-0.038824
0.041046
-0.329437
0.056483
0.049942
-0.250807
0.033832
-0.062631
0.053669
0.012639
-0.105051
0.019009
-0.110200
-0.338786
-0.313622
0.001055
-0.016930
0.031829
0.136706
-0.078145
0.107729
0.057058
0.225697
-0.250100
-0.259741
-0.104061
-0.132868
-0.120456
-0.197416
-0.082579
0.117058
-0.249235
0.051953
0.053082
-0.079142
-0.086917
0.035342
0.052936
-0.190799
0.184108
-0.265320
-0.030730
-0.022804
-0.098328
0.076142
-0.018434
-0.218834
-0.177997
0.012610
0.209623
-0.307392
0.002510
0.097567
0.160577
-0.403394
0.072165
-0.124704
0.188909
0.110641
0.049138
0.000294
0.000368
-0.195369
-0.038393
-0.264950
0.155663
0.091155
-0.001595
0.017998
0.072790
-0.191099
0.213139
-0.189812
-0.054179
0.003703
-0.172167
0.009460
0.146894
0.107345
0.029863
-0.007768
0.246147
0.006526
-0.009880
0.144988
0.015436
-0.091152
-0.078993
-0.037744
0.015969
0.204008
-0.086504
0.017571
0.111456
0.122244
0.033419
-0.132087
0.121142
0.084305
0.153700
0.148825
-0.075719
0.141051
-0.063705
0.033826
-0.069507
-0.037775
0.041478
0.152968
0.016856
0.085901
0.102462
0.072736
-0.014707
-0.022803
-0.293385
0.063500
0.015655
-0.005864
0.032910
0.245872
-0.185770
-0.050321
-0.103022
0.084137
-0.131130
0.055875
-0.042024
-0.073391
0.066548
-0.246394
-0.040634
-0.005017
-0.207591
-0.023132
-0.177105
-0.010893
0.082086
0.005541
0.019236
0.143022
-0.096565
0.050547
-0.034684
-0.052578
-0.000667
0.002556
-0.097643
-0.024981
0.063591
-0.045548
0.087424
0.067917
-0.072955
0.091990
0.138769
0.061397
0.135263
0.010670
-0.087991
-0.189914
0.187675
-0.007350
-0.207646
-0.060598
0.196667
0.025219
-0.008983
-0.053542
0.021895
0.045263
0.106619
0.197805
0.060414
-0.066986
0.076399
-0.151869
-0.092771
0.022062
-0.261833
-0.173985
-0.127830
0.136516
-0.106105
-0.051044
-0.185498
-0.156985
-0.028979
0.187156
-0.035960
0.177888
0.069520
-0.104321
-0.069425
-0.439974
-0.045520
-0.219115
-0.154378
-0.137867
-0.086326
0.077587
0.269661
-0.112369
0.071610
-0.273830
-0.419840
-0.367777
0.016532
0.044024
-0.013130
-0.002800
-0.316264
0.126548
0.123411
0.219517
-0.170871
-0.254923
-0.114029
-0.023629
-0.132894
-0.190704
-0.273969
0.003981
-0.227192
0.143275
0.076405
-0.234504
0.122227
-0.026460
-0.151290
-0.304865
0.290490
-0.289227
0.103130
0.034867
0.007210
0.136412
-0.214023
-0.211792
-0.048931
-0.030861
0.229341
-0.290800
0.181913
0.140886
-0.291956
