-0.001920
0.208617
0.008773
-0.119747
-0.104013
0.026728
-0.125817
0.038290
0.079254
-0.074769
-0.139263
0.003164
0.061597
-0.006957
0.073749
-0.054761
-0.041786
0.040530
0.193742
-0.041286
0.119255
0.023683
-0.132080
0.099789
-0.146154
0.057879
-0.033388
-0.024513
0.014994
0.054899
0.000180
0.085675
0.183391
-0.058989
-0.067556
-0.011265
0.104534
-0.031098
-0.129242
-0.003532
-0.041767
-0.134628
0.105261
-0.061218
-0.004727
-0.011184
0.007261
0.107565
0.005395
-0.152801
-0.094532
-0.025463
0.099243
0.024628
-0.171836
0.066258
-0.099929
0.071635
0.030490
-0.083000
0.070607
-0.151710
-0.021470
-0.011591
0.039457
-0.008220
0.018216
0.007070
0.114667
-0.049047
0.052294
0.053627
-0.157868
0.019880
-0.002358
0.081212
0.052785
-0.198145
0.157403
-0.086550
-0.040722
-0.030136
-0.088591
-0.041836
-0.109461
0.002853
-0.089578
-0.072644
-0.079295
0.037826
-0.058252
-0.086373
0.041649
-0.042814
0.016036
-0.294201
-0.139109
0.001624
-0.115628
-0.116142
-0.083670
-0.059516
-0.129241
0.023923
0.034663
0.128829
-0.146876
0.046455
0.068599
0.002596
0.010534
0.010939
0.062377
0.072881
-0.143189
-0.197906
-0.179292
-0.039736
0.062372
0.059752
-0.063818
0.071491
-0.033416
0.043762
-0.024093
-0.096384
-0.133722
0.029570
0.000024
-0.180251
-0.018387
0.129521
0.106105
-0.087150
-0.054584
0.090982
-0.117948
-0.022289
0.180878
-0.121362
0.080412
-0.024774
-0.144319
0.108145
0.117140
0.000279
0.087366
0.041782
-0.053544
-0.239052
-0.007259
0.054719
0.041511
-0.079508
-0.101436
0.120182
-0.070068
-0.142928
0.030678
-0.081350
-0.247085
0.113791
0.062660
0.073330
-0.201848
0.025334
0.229833
0.030916
0.002737
0.171976
-0.010424
0.006444
-0.144360
-0.034015
0.005204
0.070786
-0.239560
0.003233
0.061155
-0.087849
-0.106952
-0.031121
0.046639
-0.098466
-0.026176
-0.048469
-0.067671
-0.071050
-0.069652
-0.040094
0.025959
0.024175
-0.015869
0.009252
-0.027089
-0.002359
0.059403
-0.037413
-0.006274
0.039710
-0.008391
-0.031719
0.031563
-0.000844
0.002479
-0.022408
0.034507
0.027176
-0.004434
0.040463
0.017553
0.028183
-0.028872
-0.004317
-0.018100
-0.036109
0.025728
-0.021058
-0.021361
-0.029108
0.029613
-0.019585
-0.034170
0.032110
0.035828
0.023383
-0.018014
0.040941
-0.017847
-0.017674
0.007535
-0.023527
-0.022455
-0.003863
0.013023
-0.000125
0.020426
-0.015284
0.008313
-0.007222
0.012407
-0.000901
-0.008425
-0.003565
-0.006777
-0.039480
0.020739
-0.019407
-0.000569
0.034010
-0.013706
0.004941
-0.022664
-0.002409
0.041539
-0.038137
0.016942
-0.020556
-0.014987
0.046167
0.012635
-0.002865
0.057449
-0.019631
0.028071
-0.019452
0.012962
0.022708
-0.026950
0.044192
0.014336
-0.015855
0.035012
-0.018759
0.015069
0.029746
0.013351
0.037243
0.012827
-0.009025
0.040358
-0.084313
0.021861
0.031641
-0.004979
-0.050197
-0.006549
0.064416
-0.004896
-0.058644
0.051184
-0.000994
0.039920
0.047733
0.025320
-0.031697
-0.042531
0.041335
-0.030565
-0.068496
-0.059471
-0.028486
0.021236
0.012530
0.032017
0.013153
-0.033124
0.020578
0.023622
-0.057550
0.016168
-0.067112
-0.040566
-0.025616
-0.013293
0.037656
0.010141
-0.045884
-0.001869
0.028108
0.008013
0.041507
-0.027551
0.021907
-0.069036
0.006072
0.035711
0.047959
0.112971
-0.012923
-0.082597
-0.029084
-0.088044
-0.077028
0.117911
0.011923
-0.080192
-0.132459
-0.032773
-0.045809
0.025164
0.018789
-0.001685
-0.017281
-0.005359
-0.185098
0.034039
-0.038415
0.042445
-0.031936
-0.005342
-0.033086
0.024257
-0.110031
-0.015864
-0.198851
0.100936
-0.046328
0.074502
0.031983
-0.057067
0.169635
0.021325
-0.117625
0.039585
-0.044759
0.047157
-0.032198
0.065890
-0.229913
-0.123914
0.084465
-0.059951
0.072149
0.140038
-0.013541
-0.077154
0.116113
-0.015795
0.021391
-0.106721
-0.005667
0.052524
0.009009
-0.014183
-0.234806
0.015130
-0.008864
0.123636
-0.048923
0.091902
-0.010067
-0.183721
-0.036238
0.066140
-0.065313
-0.062630
0.064116
-0.074256
-0.142840
0.052289
-0.071180
-0.067319
-0.073086
0.127795
0.083660
-0.048813
-0.081099
-0.023156
-0.034865
-0.078436
0.117573
-0.054640
0.041994
-0.017842
0.124161
-0.279016
0.127780
-0.094631
-0.049731
0.031757
-0.152767
0.085128
-0.015163
-0.014716
-0.080767
0.049482
0.115009
0.026163
-0.025738
-0.013418
-0.083506
0.002839
0.124500
-0.010557
0.124685
-0.003983
0.065477
-0.051667
-0.155158
-0.033069
0.014788
-0.052211
-0.094303
0.007583
0.069996
0.019555
-0.026553
-0.011867
0.043033
-0.010805
0.071154
-0.020287
-0.042553
0.052518
0.186289
-0.110195
-0.068994
0.051652
0.078779
0.130642
-0.179032
-0.038633
-0.099106
0.043430
0.108979
-0.137312
-0.051785
0.001682
0.000849
-0.059442
-0.009303
-0.003980
-0.070105
0.026664
-0.054606
-0.017250
-0.010879
0.001756
0.086092
0.064978
-0.034663
-0.061022
0.002152
-0.155886
-0.122138
-0.000263
-0.011326
-0.017516
0.206040
-0.088677
-0.062471
0.060018
-0.024171
0.002279
-0.023456
0.086814
0.121244
-0.127071
-0.087179
-0.194218
-0.107348
0.043469
-0.019380
-0.032241
-0.050055
-0.050514
-0.050962
0.044999
0.042215
0.078736
0.016504
0.005862
0.062273
-0.035849
-0.054927
-0.009618
-0.039400
-0.000181
-0.238413
0.031054
-0.037324
0.051593
-0.096065
-0.126819
0.036753
-0.160241
-0.044944
-0.128072
0.146982
-0.029778
0.102160
-0.107048
0.058237
-0.011493
0.101974
-0.135681
-0.006641
0.045548
0.076276
0.056872
-0.008064
-0.018533
0.238362
0.236293
-0.104096
0.106618
0.115108
-0.182731
-0.220863
0.031885
-0.031773
-0.103418
-0.186706
-0.028732
-0.036839
-0.029095
-0.055462
-0.036429
-0.175377
-0.044021
-0.013873
0.008669
0.164955
-0.077515
-0.010945
-0.179249
-0.077013
-0.145832
-0.115748
0.000542
-0.217230
-0.060086
-0.143058
0.035469
0.004093
0.017311
0.155565
-0.021628
-0.226891
-0.064129
-0.079007
0.111211
-0.074694
0.131799
-0.028229
-0.020559
0.069000
-0.046273
0.107652
0.045385
-0.043684
-0.058693
0.072128
-0.044304
0.103813
0.014150
0.024041
-0.051755
0.019569
0.003031
0.084410
-0.091815
0.012382
0.008595
0.088856
-0.047368
0.157741
0.246279
-0.266362
0.063636
0.117807
0.015363
-0.080675
-0.013672
-0.043890
-0.088801
-0.112984
-0.048728
0.038916
0.001221
0.012799
-0.072202
0.063704
0.031438
-0.020628
-0.061255
0.103624
0.010255
0.050807
-0.207022
0.032529
-0.100659
-0.113506
0.030504
0.035624
0.037356
-0.093898
-0.004384
0.029792
0.001961
-0.048206
0.018730
-0.115554
0.181048
-0.098616
0.056444
-0.064858
-0.072115
-0.045416
0.045913
-0.167500
-0.198836
-0.053184
-0.034192
0.012027
0.170362
-0.142842
0.036339
-0.031476
0.028709
0.085485
-0.085858
0.033913
-0.058644
0.015350
-0.154004
-0.010382
-0.029223
0.062073
-0.005802
-0.047838
-0.064772
-0.078504
-0.089234
-0.093452
0.027419
-0.058228
-0.094769
0.030362
0.036198
-0.134653
0.062588
-0.020758
-0.021420
-0.048740
-0.071202
0.005388
-0.095780
0.068463
0.014031
0.037949
0.091017
-0.105651
-0.028869
-0.160310
-0.022344
-0.114635
-0.028022
-0.024131
0.014522
-0.074555
0.068251
0.044295
0.016346
-0.052565
-0.020275
-0.014795
-0.004977
-0.059054
0.033713
-0.012642
-0.084228
-0.053880
-0.066246
0.022395
-0.192333
0.030883
0.022131
0.009874
-0.054204
0.080775
-0.061380
0.065747
0.016359
0.140857
0.069205
0.019989
-0.072010
-0.011918
0.015793
-0.038048
0.136335
-0.005019
0.008135
0.064872
0.038411
-0.060205
0.085626
-0.096004
-0.048112
0.040616
0.149843
-0.008708
-0.105529
0.083217
-0.003540
0.082274
-0.034898
0.006807
-0.073121
-0.129990
0.054861
-0.015906
-0.058021
-0.053127
0.002967
-0.082615
0.026711
0.024077
0.000120
0.058252
0.030748
0.031718
-0.181019
-0.073028
0.109083
-0.002597
0.011334
0.031374
-0.026134
-0.018615
0.006736
-0.093164
-0.012518
-0.086169
-0.110755
-0.069166
-0.049156
-0.009315
-0.107069
0.130262
0.014510
0.075568
-0.082482
-0.009962
-0.025968
0.028166
0.088008
0.116503
0.047039
-0.098592
-0.089198
0.014890
-0.134205
0.059076
0.092402
-0.066029
0.031782
0.073057
0.110171
-0.049970
-0.019778
-0.038198
0.063704
-0.088045
0.024180
0.009157
-0.066068
0.022381
0.025144
0.002824
0.123697
0.035115
-0.074007
-0.051972
-0.010034
0.003936
-0.051658
-0.046867
0.013315
0.037562
0.055225
-0.023834
0.008162
0.057151
0.024087
0.098125
-0.126618
-0.047436
0.049055
-0.019762
-0.021100
-0.160562
0.018909
0.021277
0.126789
0.041177
-0.005471
-0.049972
-0.070164
-0.059877
0.067054
0.000637
-0.251157
-0.006555
0.031459
0.114708
0.138700
0.044116
0.086042
0.125196
-0.000563
-0.011218
0.138401
0.068627
0.038760
-0.067515
-0.084036
-0.056111
0.104669
-0.024065
-0.008350
0.044943
-0.041712
0.061458
0.056016
-0.005585
-0.082706
0.066203
0.253571
-0.039435
0.020961
0.073340
-0.059991
0.005584
0.020941
-0.000410
0.025329
-0.155918
-0.044202
-0.127799
-0.064298
-0.084018
-0.191182
0.053190
0.140149
-0.013997
0.001571
-0.161259
-0.036330
-0.198104
0.030866
-0.085000
0.047965
-0.006790
0.013425
0.108610
-0.025830
-0.124004
-0.157704
0.012688
-0.074346
0.013347
0.163005
-0.097027
-0.149699
0.109360
-0.026048
0.094383
0.248465
0.037961
-0.026172
-0.133807
0.127205
-0.115499
0.114449
0.116181
-0.006063
0.081488
-0.141011
0.033666
-0.042706
0.089383
0.051274
-0.042344
-0.035931
0.152554
0.156677
-0.210826
-0.036088
-0.059875
0.127137
-0.055649
0.036389
-0.002601
-0.043462
-0.045688
0.042400
-0.024958
0.017357
-0.043581
-0.042536
-0.005438
0.054899
-0.073823
-0.076303
-0.089845
0.036873
-0.050302
-0.004448
0.030522
-0.029945
0.103752
-0.052369
-0.055424
-0.081835
-0.060141
0.022368
-0.011516
-0.043115
0.021783
-0.016358
0.025775
-0.089129
0.028093
-0.106521
0.036718
0.114965
0.005157
-0.028092
0.000275
0.140122
0.015844
0.107197
-0.079196
-0.010330
0.025931
0.174518
-0.097001
-0.033895
0.064838
-0.103069
-0.093047
-0.033657
-0.024745
-0.115022
-0.001242
-0.120509
-0.097166
-0.037625
0.005560
0.112078
0.037198
0.006165
0.003007
0.035767
0.043650
-0.173078
-0.041680
0.042279
-0.036762
0.061065
-0.081087
-0.015482
-0.043629
0.141634
0.131992
0.014955
-0.007750
0.050254
0.005233
-0.005466
0.161326
-0.032411
0.006847
0.000640
0.050430
-0.033405
-0.031165
0.072077
-0.098324
-0.021596
0.021252
0.010873
-0.039405
0.031293
-0.076666
0.111090
-0.114483
-0.012773
-0.004031
-0.091030
0.000728
-0.099282
0.039808
0.002609
-0.197548
0.052977
-0.035348
0.023727
-0.064127
0.069326
-0.060191
-0.073112
-0.013943
-0.018393
-0.212129
-0.097726
0.046003
-0.037357
-0.038948
0.092112
-0.032808
-0.015317
-0.238176
-0.094329
-0.025969
-0.039066
-0.151641
-0.013695
-0.059315
-0.072644
-0.019422
-0.030937
0.054809
-0.129014
0.125812
-0.018018
-0.018878
-0.007515
0.022032
0.050796
0.078892
-0.126295
-0.258959
0.012734
-0.121290
0.068519
0.065950
0.020978
0.043661
-0.025423
0.026708
-0.074312
-0.037310
-0.024461
0.039449
0.008781
0.061748
-0.013886
-0.114746
0.028816
-0.038998
-0.038379
0.090825
-0.140676
-0.061324
-0.165732
0.016220
-0.058209
0.072930
0.000657
-0.120534
-0.171368
0.012044
0.149743
-0.002921
-0.048960
0.013434
-0.007062
0.099980
-0.066142
-0.000826
-0.048492
0.017395
0.052463
0.123637
0.032640
-0.008458
0.100461
-0.083900
-0.063567
-0.082268
0.052417
0.133635
-0.038289
0.019578
-0.012624
0.084796
-0.020840
-0.083480
-0.014936
-0.038234
-0.009405
0.006838
0.043683
0.015941
0.023139
0.104540
-0.082397
-0.096681
-0.043270
0.103813
-0.014577
0.047903
0.001922
-0.028057
0.076146
-0.002103
-0.062082
-0.003430
0.022484
0.037344
-0.014884
0.005277
-0.054818
-0.033907
0.126283
-0.080568
0.084031
-0.003659
-0.006012
-0.041390
-0.203826
0.050003
0.029895
0.065793
0.107536
-0.002510
-0.156523
0.061561
-0.005930
-0.013713
0.025457
0.114129
0.085977
-0.191567
-0.018480
-0.012741
0.090680
0.041659
-0.037039
0.064636
0.121697
-0.177063
-0.114647
0.015377
-0.035733
0.027760
0.189673
-0.038057
-0.018291
0.142051
0.008905
-0.043159
0.068354
-0.065989
0.063569
-0.063354
0.150134
-0.078859
-0.094424
0.144213
-0.007109
0.114856
0.047745
0.003881
-0.087775
0.129452
-0.058580
-0.086604
0.092281
-0.153694
0.146651
-0.006641
0.020440
0.216033
-0.042849
0.005325
-0.034470
-0.010780
-0.034546
0.113372
0.126717
-0.007338
-0.032254
0.041866
0.056549
-0.036077
0.120744
0.037724
0.046651
0.234111
0.124567
-0.032997
0.106601
0.006247
-0.088855
0.088039
-0.072917
0.050415
0.032847
-0.080628
-0.149444
0.002352
0.002113
0.107165
0.110857
-0.175361
-0.004925
-0.064188
-0.021462
0.007933
-0.013847
-0.002341
-0.078477
-0.051893
0.054065
-0.050166
-0.031004
-0.065251
-0.097093
-0.009982
0.091659
-0.042419
0.032454
-0.028694
0.039182
0.105303
-0.117042
0.014059
-0.148620
0.001104
0.013258
-0.031713
0.083860
-0.164119
-0.008502
-0.035420
-0.006261
0.005381
0.027006
0.025527
0.091278
0.011716
-0.059807
0.066795
0.052659
0.003013
0.007422
0.142053
-0.001554
-0.085964
0.088107
0.047505
0.100009
0.067379
0.079112
0.017758
-0.051649
-0.055108
-0.105664
-0.103617
-0.066543
0.166551
0.016950
-0.210658
-0.084208
-0.070177
-0.004919
-0.010927
-0.126989
0.052007
-0.058213
-0.149423
0.031110
0.121383
0.087486
0.026909
0.008748
-0.001068
-0.035237
-0.051543
-0.004796
0.011688
0.014448
-0.047330
0.025623
-0.008995
-0.036276
-0.083890
-0.152373
-0.037280
-0.037975
0.015883
-0.031352
0.162152
-0.041808
0.022908
0.018452
-0.121826
-0.120205
-0.036194
0.003202
0.129289
-0.019990
-0.142135
0.053259
-0.098833
-0.058683
-0.238182
-0.045544
-0.068993
-0.138473
0.027682
-0.100640
0.031094
0.069155
0.061228
0.100805
-0.227944
0.098038
-0.028550
0.096867
0.131570
0.015340
0.009849
-0.138048
0.047813
-0.036052
0.195395
-0.065228
0.109023
-0.027111
0.178864
0.201039
-0.093168
0.064334
-0.040858
0.058753
-0.221046
-0.002942
0.024317
-0.008900
-0.117249
0.027510
0.003042
0.077792
-0.041737
0.012723
0.018504
-0.027136
-0.010315
0.056987
0.042382
0.093804
-0.090246
-0.112593
0.019762
-0.056823
0.047489
0.005490
-0.006184
-0.165404
-0.039445
-0.005945
-0.009648
-0.034840
-0.245704
-0.028023
0.091305
0.024725
-0.057278
0.055962
0.147955
-0.206985
-0.004575
0.020424
-0.086885
0.128257
-0.032498
-0.094220
0.034462
0.132678
0.022774
-0.134720
0.007360
0.005344
-0.117786
0.041845
0.090553
0.017352
-0.191843
0.011695
0.042833
0.102420
0.009714
0.005635
0.103791
-0.063057
-0.053788
0.039798
0.051829
-0.308035
-0.138256
0.071366
0.025770
0.068962
0.186239
-0.021872
0.054770
0.034610
0.000390
0.034303
-0.014055
0.022995
0.114466
-0.046883
-0.006569
-0.117587
0.201216
0.092348
-0.063347
-0.033748
-0.011698
-0.039957
-0.021012
0.041414
0.053082
0.147949
-0.004807
0.010689
0.019076
0.006560
0.025328
-0.132892
-0.056781
-0.007017
0.017709
0.182653
0.012647
0.052319
0.110408
0.061724
0.005860
0.203622
0.012430
-0.068496
0.110225
0.067150
0.009713
-0.027908
-0.052577
-0.084244
0.028820
-0.115478
0.027364
0.082718
-0.183747
0.075682
-0.139202
-0.030744
0.024032
-0.005233
0.036930
-0.058107
-0.115436
-0.006299
-0.103472
0.056481
0.016642
0.027700
0.007467
-0.159543
-0.079010
0.010866
-0.034345
0.081732
0.042849
-0.000734
-0.001578
-0.079440
-0.067876
0.038062
-0.011151
0.077362
0.078446
-0.050116
0.112032
-0.017166
-0.056780
-0.078753
-0.055069
-0.118755
-0.024421
0.003475
0.017151
0.025560
-0.064791
-0.053934
-0.093256
-0.066172
-0.070411
-0.035240
0.026294
-0.042975
-0.156464
-0.000532
-0.000664
-0.014933
-0.020887
0.116501
-0.050171
-0.143391
-0.038138
-0.055688
-0.116673
-0.159396
-0.070277
-0.107433
0.056968
-0.003736
-0.032293
-0.044038
-0.072420
0.004193
-0.103949
-0.080865
0.002640
-0.082578
-0.199216
0.038552
-0.095873
0.021423
-0.047812
0.048642
0.097737
0.051996
0.106961
0.013344
0.018596
0.001351
0.007691
-0.047004
0.048286
0.077738
-0.069114
0.048192
-0.018515
0.040066
-0.038209
-0.023771
0.071685
-0.022514
-0.047642
0.049343
-0.141588
0.100287
-0.028289
0.017947
-0.126320
0.019763
-0.001672
0.105782
-0.136444
-0.109901
-0.096889
-0.096093
0.011181
0.038151
-0.040575
-0.051369
0.000801
0.033820
0.031449
0.116057
-0.237536
0.019782
-0.086884
0.098613
0.048570
-0.028378
-0.040703
-0.151378
0.105387
-0.073991
0.087854
0.045539
0.120510
0.028433
0.106346
0.021417
0.038407
0.001487
-0.085027
0.001653
-0.144254
0.036715
-0.022414
0.001378
-0.030015
0.060450
0.018165
0.107743
0.003112
-0.080450
-0.105954
0.010374
0.090411
0.110605
-0.116530
0.052158
-0.074390
-0.077830
-0.104612
-0.027725
-0.068939
-0.013181
0.048790
-0.133389
0.064309
0.084057
-0.014542
-0.032592
-0.073444
0.025316
0.063524
-0.056909
-0.153348
0.012530
0.097744
-0.031108
-0.047952
0.084562
-0.079688
0.190011
-0.115370
-0.132548
-0.127996
0.086722
-0.039782
0.145195
-0.021154
0.002181
-0.090850
-0.035596
0.041384
0.037597
-0.080877
0.021795
0.001559
-0.046133
-0.164193
-0.026723
-0.028764
-0.210703
0.105670
0.037788
0.005663
-0.162769
-0.062562
0.004165
0.000558
0.032197
0.148932
-0.047630
0.036775
-0.058559
-0.047551
0.028163
0.108926
-0.057455
0.096469
0.018804
-0.052309
-0.103505
-0.026294
0.148086
-0.036108
-0.037665
-0.015824
-0.022054
0.057937
0.060925
-0.004152
0.032700
-0.039953
-0.030626
0.006672
-0.010582
-0.119601
0.009645
0.092066
0.052697
-0.046336
0.053565
-0.041432
-0.064450
0.058155
-0.142948
0.007185
-0.115760
0.088854
0.140309
-0.008149
0.024641
0.002174
0.018553
0.037876
-0.159331
-0.105776
-0.020014
0.122570
-0.040894
-0.063988
-0.100117
0.004431
0.005647
-0.015308
-0.001120
-0.011988
0.060145
-0.020629
0.168175
0.095456
0.111896
0.018475
0.068383
-0.084195
0.148453
0.015417
-0.070153
-0.031966
-0.063208
-0.207943
0.045954
-0.059731
0.077014
-0.030816
0.061952
-0.070848
-0.041277
0.046586
-0.097822
0.032595
-0.020961
0.024042
0.099597
-0.178403
-0.038122
0.044132
-0.015857
0.062893
-0.022613
-0.026988
-0.020562
-0.066513
-0.052030
-0.006867
-0.026087
0.001276
-0.095196
-0.026671
0.116325
0.015413
0.084850
0.010896
-0.081760
-0.002174
0.001227
-0.148827
0.083741
-0.006251
0.023204
-0.040828
-0.128039
-0.010915
-0.019075
-0.012609
-0.027218
-0.068370
-0.038839
-0.012273
0.067180
0.068202
0.017213
-0.167260
0.036753
-0.097666
0.104170
0.015725
0.066578
0.064391
-0.031019
0.002895
-0.031865
-0.026556
-0.013606
-0.047806
-0.046914
-0.138229
-0.198870
-0.074300
0.035065
0.075497
0.050162
0.031224
-0.047602
0.038965
-0.046061
-0.015221
-0.129404
0.034236
0.080401
-0.015437
0.002679
0.043051
-0.018920
-0.010008
0.104810
-0.006566
0.003663
-0.002285
-0.020283
0.003150
-0.048159
0.085284
-0.107549
0.007932
0.012767
-0.053619
0.042421
0.073043
0.019718
0.102030
-0.055200
0.014236
0.118632
0.005024
-0.047787
0.088279
0.014950
-0.084483
0.026087
-0.013657
0.016205
-0.096973
-0.018200
0.083044
-0.092878
-0.132136
0.005049
0.034849
0.121759
0.015689
0.093798
0.155531
-0.075445
0.022511
-0.031141
0.006853
-0.043326
-0.077607
-0.024457
0.020368
-0.100952
-0.085827
-0.025988
-0.139859
0.021576
0.041950
0.084922
0.029198
-0.015818
-0.026332
0.046282
-0.129898
0.057941
0.038112
0.002289
-0.027610
-0.044054
-0.016784
0.014779
0.004970
0.004333
-0.040957
0.016717
0.016656
0.016485
-0.017436
-0.001525
-0.033731
-0.025951
0.023234
-0.025928
-0.023158
0.047536
0.033107
0.007895
0.016744
-0.002163
-0.024376
0.021744
0.010839
0.050017
-0.036786
0.026554
-0.017097
-0.002082
0.047703
-0.052075
-0.023313
-0.023047
0.007582
-0.039140
-0.007673
-0.009141
0.035358
-0.029858
-0.010868
-0.009473
0.026029
0.034837
-0.002825
0.012690
-0.022312
0.003223
0.001874
-0.003324
0.023631
-0.008862
0.035471
-0.014690
0.016867
0.023528
-0.006718
-0.006946
0.024736
0.046320
-0.016879
0.021862
0.026428
0.005185
0.079471
-0.035179
-0.020158
-0.041121
0.067760
-0.141543
0.077491
0.056993
-0.006982
-0.128070
-0.024861
0.051697
0.071372
0.095065
-0.019286
0.050497
0.051493
0.129115
-0.175521
0.106573
0.040757
-0.123207
0.070490
-0.230476
0.035394
-0.058236
0.050034
-0.163432
-0.038615
0.025005
0.122804
0.107981
-0.079667
-0.095214
-0.091734
0.019395
0.089393
-0.087739
-0.023045
-0.029907
-0.058335
0.102876
-0.069810
0.026990
-0.014668
0.013207
0.038031
-0.027310
-0.115293
0.027029
-0.077279
-0.001943
0.041362
-0.140997
0.024521
-0.100939
-0.017749
-0.035079
-0.059182
0.109597
-0.192733
0.047950
0.012008
-0.003641
-0.012851
-0.027558
-0.023643
-0.033429
0.055041
-0.102543
0.065758
0.003701
-0.007197
-0.127738
-0.065948
0.076581
0.009010
-0.002799
-0.010031
0.051477
-0.003545
0.075446
-0.216990
-0.031938
0.111267
-0.248860
-0.063687
-0.169067
-0.097683
-0.051613
-0.045471
-0.128905
-0.092664
-0.024907
0.029898
0.089016
-0.034630
-0.051957
-0.132428
0.047687
0.066617
-0.219825
0.012475
-0.062878
0.000158
0.102868
-0.146527
0.017637
-0.008776
0.044969
0.100070
0.022033
0.028714
0.029067
-0.033284
-0.099349
0.043357
-0.030485
0.032907
-0.068103
0.080292
-0.064221
-0.066016
0.085835
-0.199089
-0.022426
-0.021898
-0.025457
0.091617
-0.023205
-0.163339
0.146152
-0.181654
-0.004457
-0.108233
0.032743
-0.052819
-0.058577
0.046149
-0.059347
0.087723
0.051600
0.063811
0.072171
-0.086584
0.060142
0.003060
0.049555
0.068041
-0.006611
-0.124450
-0.111165
0.084158
-0.133538
0.184143
-0.046423
0.077581
-0.040657
0.025375
0.193764
-0.089553
-0.001647
0.057977
0.076879
-0.085712
-0.057779
-0.023353
0.040668
-0.124920
0.063830
0.107621
-0.015083
-0.053901
0.068100
0.096933
0.030796
0.044599
-0.059323
-0.008619
0.056071
0.033035
-0.155247
-0.005123
-0.025358
0.058044
-0.004393
-0.009696
0.012537
-0.054156
-0.044370
0.004452
0.033366
0.047915
-0.006250
-0.008941
0.060988
-0.058393
0.037310
0.180021
-0.114299
-0.000399
0.045325
0.041213
0.103869
-0.166233
0.056079
-0.087753
0.060327
0.016399
-0.037323
-0.048759
0.003409
-0.062733
0.010289
-0.020309
0.021495
-0.029078
-0.052562
-0.092243
-0.012846
-0.048945
-0.002655
0.002211
-0.034494
0.051421
-0.043719
0.031319
-0.079679
-0.144484
-0.059461
0.020828
0.057180
0.202292
-0.035347
0.003744
0.024475
-0.035640
0.078234
0.039046
0.030195
0.111127
-0.193229
-0.200490
-0.160075
-0.019065
0.087829
0.034598
-0.048405
0.044380
-0.059020
0.017078
0.022606
-0.011648
0.004886
-0.022464
-0.034209
0.136856
-0.041489
-0.087209
-0.100297
0.092911
-0.079275
-0.093244
0.151256
-0.050975
-0.217488
0.060331
-0.023020
0.108409
0.106470
0.121740
-0.023534
-0.149033
0.095424
-0.077843
0.078190
0.196848
-0.007708
-0.037271
-0.120154
0.122009
-0.012277
0.050869
0.100159
-0.079098
0.017780
0.172201
0.219176
-0.255124
0.032952
0.115857
0.146473
-0.013003
-0.011884
0.001212
-0.023043
0.038106
-0.014885
-0.004865
0.035761
0.010823
-0.095106
-0.013972
0.007299
-0.135223
-0.035279
-0.059377
0.032764
-0.034268
-0.011728
0.050643
-0.035108
0.052216
-0.011375
-0.102059
-0.108227
0.000303
0.009321
0.001258
-0.026743
-0.048333
-0.037392
-0.015653
-0.015618
-0.208821
0.058347
0.020998
-0.124920
-0.077338
0.192007
-0.059939
-0.024343
-0.085068
-0.111687
0.162336
0.222115
-0.122843
-0.013172
0.047889
0.006958
0.075927
-0.035746
-0.047824
0.001824
-0.129254
-0.107403
0.002188
-0.050783
0.084305
0.020947
0.005580
-0.170999
-0.005546
-0.064700
-0.032825
-0.120393
-0.045199
0.242728
-0.039284
-0.076952
0.044560
0.037223
-0.046479
-0.000296
-0.016231
-0.059302
-0.021262
0.015735
0.094538
-0.099678
-0.021649
-0.092890
-0.111032
0.064558
-0.102693
-0.055671
-0.117661
-0.016288
-0.099825
-0.080072
0.004663
0.082061
-0.023944
-0.034504
0.049458
-0.005355
-0.036754
-0.138919
-0.039921
-0.075322
0.118616
0.103327
-0.054646
0.011628
-0.032619
0.015157
-0.030125
0.046835
-0.054051
-0.035302
-0.010833
0.089964
-0.196793
0.064077
0.057218
-0.153150
-0.214545
-0.116138
-0.046808
-0.131799
-0.003394
-0.106645
-0.095402
0.028168
0.119635
0.050667
0.062379
-0.067020
-0.084601
0.049319
0.098355
-0.133386
0.028297
0.057047
-0.115396
0.005565
-0.111599
-0.081345
-0.022594
0.085219
0.014918
-0.026367
-0.128518
0.034264
0.065543
-0.067741
0.110441
0.023811
-0.052346
0.010051
0.082620
-0.073748
-0.090256
0.007480
-0.131758
-0.014087
0.002170
0.031384
-0.012344
-0.043473
0.085239
0.051293
-0.048985
-0.012679
0.054130
-0.082531
-0.077066
-0.013282
0.052330
-0.050625
-0.018527
0.043549
-0.065312
-0.072949
0.028492
-0.069257
-0.040040
-0.113103
-0.007388
-0.138363
-0.137352
-0.082728
-0.139096
-0.024827
-0.179066
0.020310
-0.016344
0.007996
-0.022383
-0.020495
-0.007877
-0.055126
-0.114472
0.018575
0.070065
-0.061448
-0.046594
-0.069233
0.074737
-0.066657
0.030182
0.032553
-0.031746
-0.008939
0.007399
-0.027609
-0.025596
-0.030464
0.011101
-0.141787
-0.166803
-0.067342
-0.022936
-0.068393
0.025856
0.015464
0.081950
-0.043396
0.027589
-0.006414
0.035311
-0.028894
-0.083832
0.010221
0.007076
-0.030669
-0.037829
0.094993
-0.093946
-0.031133
-0.068772
0.202918
-0.106477
-0.069383
-0.054560
-0.048483
-0.105545
-0.003658
-0.001138
-0.027809
0.031053
0.055309
-0.012947
0.009475
-0.005116
-0.044304
-0.185950
-0.113874
0.027922
-0.121539
0.001942
0.021475
0.194058
-0.115851
0.026405
0.085934
-0.197498
-0.011241
-0.028139
0.017517
-0.038098
0.042511
-0.182880
0.131679
0.028503
-0.057072
-0.062977
0.058580
-0.002623
-0.052683
-0.004785
0.143855
0.068260
0.075095
-0.086563
-0.052576
-0.162290
-0.063263
-0.053613
-0.047364
-0.110571
0.021210
-0.149384
-0.091796
0.007505
-0.016372
0.121621
-0.040061
-0.176939
0.079787
-0.058876
0.078200
-0.155047
-0.076012
-0.002913
-0.088318
-0.084436
-0.095486
0.022144
-0.110157
-0.085875
0.056314
0.069828
-0.100237
0.073412
-0.129522
0.014353
-0.138165
0.018430
-0.055494
-0.042577
-0.085259
-0.009912
-0.059669
0.043966
-0.036113
0.120287
0.171193
-0.101115
-0.034383
0.026711
-0.029693
-0.120214
-0.076120
-0.039829
-0.026195
-0.227098
0.052820
0.025358
0.093289
0.000769
0.019355
-0.022006
-0.130312
0.000883
-0.104380
0.060086
-0.000305
-0.000914
-0.087795
-0.010962
-0.064921
-0.120799
0.004415
-0.041792
0.043876
-0.130485
0.013857
-0.035533
-0.004795
-0.078878
-0.014849
0.226393
0.076930
0.064437
0.072203
-0.011837
-0.035352
0.009787
0.138689
-0.105093
0.036522
-0.116160
-0.131328
0.085283
0.009016
0.039648
-0.400442
-0.020649
-0.032598
-0.018096
0.082860
0.131845
-0.038166
-0.225078
-0.100145
0.044680
0.002805
0.076592
0.001892
0.098596
0.027365
-0.103918
0.022238
0.115975
-0.425692
-0.315445
0.120864
-0.024263
-0.010290
0.015969
-0.000808
0.091962
0.138012
-0.042691
0.045461
-0.105120
0.007123
0.065974
0.059924
0.012208
-0.129461
0.265679
0.032686
-0.121070
-0.062095
0.001934
-0.009689
-0.092667
0.080674
0.040064
0.121977
0.004451
-0.046728
0.035317
-0.031597
-0.073031
0.028061
0.000128
-0.107737
-0.092798
0.030862
-0.058210
-0.099268
0.105727
-0.023595
0.048101
0.144367
0.034202
-0.132264
-0.162097
-0.044622
-0.088041
0.125291
0.066403
0.116890
-0.034857
-0.104491
0.074700
-0.000149
0.186159
0.045937
-0.016586
0.010337
0.084354
0.133037
-0.113219
0.030998
0.053328
0.098692
-0.155133
-0.006562
-0.031966
-0.006711
0.027607
0.117270
0.029065
0.058379
-0.023457
-0.035588
-0.062308
-0.067170
-0.049774
0.006118
-0.137030
0.044075
0.081146
0.089130
0.076736
0.001057
-0.039705
-0.013339
-0.041690
-0.142001
0.016391
-0.106657
0.006876
0.013800
0.093579
-0.034923
-0.154892
0.062871
0.036661
0.063941
-0.200222
-0.072044
-0.050136
0.014487
-0.058653
-0.189894
-0.024057
-0.118756
0.016269
0.058022
-0.011842
-0.052348
0.058960
0.015759
0.003931
-0.156811
-0.042663
-0.145506
0.004457
-0.073911
0.043868
-0.218295
0.032712
0.014122
0.197606
0.179384
-0.141516
0.100961
-0.064278
-0.020554
-0.009694
-0.033757
0.024348
-0.035990
-0.329104
0.041312
-0.023960
-0.054128
-0.035638
-0.012241
-0.048573
-0.126310
0.072111
-0.029082
0.120733
-0.054502
-0.032748
-0.264108
-0.015226
-0.207494
-0.175658
0.004247
-0.122193
0.028192
-0.056031
-0.074281
-0.024185
0.014902
0.002448
-0.046023
0.042630
-0.034657
-0.048895
-0.100645
0.110295
0.063101
0.010387
-0.012274
0.002037
0.124760
-0.015635
0.140608
-0.113742
0.017402
0.061959
0.065722
-0.118650
-0.042811
0.061306
-0.141232
-0.004208
-0.063659
0.085170
0.085008
-0.162058
0.027536
-0.157693
0.024748
-0.203015
-0.165442
0.139906
-0.036816
-0.000401
-0.096199
0.004671
-0.073555
-0.020757
0.048976
0.163969
0.026530
0.011453
-0.044204
0.040984
0.045381
0.085121
0.035151
0.076987
-0.067655
-0.112468
-0.122343
0.002681
0.140181
0.091013
-0.046155
0.073818
-0.026811
0.056676
0.012135
-0.104720
0.034943
0.015684
0.009875
-0.003549
-0.057488
-0.183889
0.089391
0.050384
0.080248
-0.250146
-0.092905
0.002484
0.060481
-0.091173
-0.323196
0.005489
-0.128511
-0.032193
0.063237
-0.013726
0.019921
0.033869
-0.025411
-0.051403
-0.164699
0.049143
-0.095200
0.026306
-0.085653
0.073008
-0.139832
0.054122
0.006066
0.119035
0.078566
0.016608
0.026407
-0.157829
0.078024
0.016246
0.059832
-0.050182
-0.002953
-0.238004
0.119216
-0.053880
-0.153869
-0.007472
-0.078791
-0.188754
-0.044377
0.057706
-0.034191
0.108534
0.032035
-0.064894
-0.179711
-0.046122
-0.207734
-0.093722
-0.021624
-0.143784
0.013158
-0.174857
-0.045597
-0.040316
-0.008072
0.034989
0.002661
-0.299776
-0.023422
-0.026307
0.050620
-0.092013
0.075932
0.001423
-0.078048
-0.070585
-0.118458
-0.020365
-0.108188
-0.023284
0.124259
0.114712
0.010377
0.136215
-0.136246
0.056978
-0.127150
-0.063884
0.014988
0.114768
0.083859
-0.134498
-0.118180
-0.024133
-0.040784
0.042007
0.120848
-0.042537
0.039838
0.013253
0.019556
0.000994
0.110108
0.027004
-0.003500
-0.039172
-0.016348
-0.039484
-0.028117
-0.054480
0.104209
-0.193157
-0.032882
-0.020245
-0.039772
0.024956
-0.108961
0.057391
-0.042931
0.028226
-0.007349
-0.020152
0.005406
-0.035667
0.038581
-0.206804
0.057366
-0.028689
-0.008331
-0.048100
-0.013392
-0.015061
-0.099284
-0.092628
0.108601
-0.091430
0.105303
-0.039551
0.139522
-0.090338
0.049336
0.049956
-0.209785
0.085116
-0.254151
-0.116228
-0.194618
-0.041098
0.037849
0.046951
0.101813
0.086158
-0.165854
-0.105445
-0.107327
0.004529
0.039644
0.059119
0.007443
-0.136598
0.008880
-0.040661
0.048634
-0.031734
-0.106441
-0.203026
0.100685
0.026782
-0.046317
-0.010928
-0.067173
0.098969
-0.130453
-0.042016
-0.140443
0.038625
-0.087434
-0.148690
-0.123611
0.012945
0.133417
0.286947
0.067253
-0.221774
0.097759
0.069356
-0.000874
-0.085052
-0.103283
-0.087694
0.073579
0.021913
0.009096
0.138647
-0.028448
-0.141346
-0.123077
-0.074518
-0.052825
-0.043778
0.008057
-0.016548
-0.217117
0.093834
-0.031149
0.049077
0.141082
0.098587
0.061119
-0.021858
0.094150
0.006518
0.154122
0.072616
0.003055
0.142238
-0.095839
0.093028
-0.114258
0.104239
-0.052937
0.040653
0.019851
0.200519
0.224795
-0.091738
0.089218
0.073153
0.120253
-0.055995
-0.002298
-0.014078
-0.032957
0.019792
0.097535
-0.068640
-0.036116
-0.039561
-0.035212
0.007319
-0.003487
-0.003552
0.068633
0.025222
0.065127
-0.086128
-0.060489
0.036611
-0.138586
0.066658
-0.013659
-0.012497
-0.083330
0.031185
0.022677
-0.008055
0.014037
-0.044351
-0.028591
-0.047392
0.114952
-0.084738
0.088014
-0.095560
0.044722
0.003259
-0.015052
-0.049686
-0.132420
-0.051577
-0.049816
0.007129
0.069176
0.127457
0.013578
0.064300
-0.039220
0.138784
0.084015
0.034789
0.029000
0.028948
0.058567
-0.131635
0.015979
0.044636
-0.046920
-0.133454
-0.053298
0.079420
-0.043032
-0.173677
-0.048870
0.004795
0.215627
-0.020049
0.062120
0.102913
-0.058077
-0.003581
0.003202
-0.040528
-0.017318
-0.156098
-0.003977
-0.296536
-0.140259
0.029345
-0.065278
-0.019921
0.014579
-0.007580
0.031829
-0.034061
0.030347
0.003878
-0.067624
-0.122006
0.030750
-0.023668
-0.034641
-0.093011
-0.029074
0.089506
-0.022595
-0.036334
-0.061427
0.071502
-0.049947
-0.044489
0.046697
0.038712
-0.026095
-0.019845
0.072552
0.041559
-0.125316
-0.064873
-0.152030
-0.056725
0.014008
0.106893
-0.022035
-0.050311
-0.184873
-0.126944
-0.016346
-0.116962
0.033530
-0.022566
-0.043935
0.257120
0.005644
-0.111840
0.108061
-0.135638
-0.063218
-0.117622
0.017147
0.020859
-0.037001
0.206919
-0.014146
0.147481
0.029840
0.000293
0.028038
-0.018483
0.012438
-0.003232
0.064967
-0.085308
0.011289
-0.217001
-0.050875
-0.014899
-0.063441
-0.017833
-0.047838
0.078448
-0.090798
0.075909
0.101309
-0.016894
-0.038053
-0.059024
-0.004115
-0.045835
-0.002192
-0.074329
-0.001477
-0.100668
-0.003547
-0.012286
-0.029960
-0.045434
-0.209714
0.032766
0.052667
0.047989
-0.037735
-0.023591
0.090618
0.059142
-0.012003
0.100022
0.065743
-0.099747
-0.014590
0.042053
0.057705
0.012816
0.173073
-0.007148
-0.046100
0.028427
0.021671
-0.177172
0.028468
-0.073603
0.011770
-0.050597
0.031541
-0.024016
-0.002312
0.066132
0.003528
-0.010831
-0.062208
-0.016126
-0.020643
-0.027223
0.117679
0.040492
-0.045512
-0.021816
0.011090
-0.076468
0.085524
0.014811
0.077487
0.129526
-0.055431
0.070278
-0.075160
-0.023819
0.064104
-0.011075
-0.002442
0.001792
-0.015626
-0.005019
0.133528
-0.277299
0.030627
0.064207
-0.114103
-0.013970
0.019064
0.014998
-0.032826
-0.178826
-0.054453
0.036938
0.116194
0.015341
-0.108636
-0.050815
-0.140293
-0.002371
0.016587
0.003344
-0.060828
0.060193
0.058139
0.103225
0.026381
0.009382
-0.033225
0.003800
0.054051
-0.130541
-0.104199
-0.047713
-0.022848
-0.149988
-0.096027
-0.040577
-0.017264
0.124056
-0.066386
0.143570
0.067003
-0.036886
-0.053010
-0.013054
0.009579
0.082225
-0.138968
-0.095303
-0.247100
-0.135165
-0.000255
0.017950
-0.012956
-0.100275
-0.000772
0.026773
-0.072768
-0.007574
-0.084126
-0.026366
-0.004429
0.017932
-0.043265
-0.044927
0.030256
0.029238
-0.012372
-0.165032
0.003188
-0.092050
0.110679
0.022182
-0.106779
-0.009571
0.018312
0.117515
-0.042723
-0.042454
0.028521
-0.039150
0.006798
0.012553
-0.094687
0.108496
-0.178658
-0.000107
-0.051862
0.135010
-0.148819
0.094250
-0.015787
0.192047
0.066169
-0.089045
-0.016421
0.049952
-0.052440
-0.024184
-0.102472
-0.043402
-0.100929
-0.316066
-0.051414
0.055183
-0.103406
-0.037047
-0.125563
-0.019045
-0.006498
0.242767
0.001959
0.086252
-0.037567
-0.032051
-0.245206
0.038301
-0.209767
-0.238921
-0.030032
0.002439
-0.006960
-0.036838
0.075408
0.021807
-0.026583
0.211498
-0.040780
0.085007
0.005560
0.082087
0.069105
-0.059902
0.218603
-0.070968
0.163086
0.026021
0.118832
0.068555
-0.164462
0.055416
-0.102776
0.147366
-0.164626
-0.022897
0.126062
0.103513
0.119094
0.047109
-0.108935
0.142308
-0.196217
0.159304
-0.011038
0.074742
0.003167
0.029776
0.103940
-0.095089
0.072448
0.202035
-0.079642
0.024346
-0.086294
0.011838
-0.049500
-0.224102
-0.133764
0.008510
-0.063129
0.020438
-0.038431
0.098844
-0.075308
-0.029725
-0.005778
0.023167
0.060536
0.313549
0.001058
-0.013465
0.067598
0.011164
-0.006552
-0.138175
-0.047633
-0.094852
-0.009505
-0.010578
-0.005502
0.019480
0.004262
-0.032131
-0.018073
0.019511
-0.028266
0.020338
-0.035827
0.025969
0.003874
-0.036313
0.009153
0.014749
0.019471
0.005802
-0.004093
0.009205
-0.023803
-0.034176
0.012301
-0.027317
0.039749
0.018621
-0.025777
0.024187
-0.043372
-0.000322
-0.000258
0.000826
-0.037702
-0.018081
-0.005113
-0.027895
-0.025650
0.034932
0.030299
-0.005342
0.026613
-0.039598
0.014320
0.006054
0.001857
-0.032575
-0.023082
-0.006360
-0.042783
-0.032467
-0.026257
-0.030829
0.016076
0.021937
0.022052
-0.022178
-0.018187
0.002924
0.011484
-0.012416
-0.040905
-0.033446
0.022506
-0.021870
0.004495
0.028383
-0.025705
-0.012876
0.001275
-0.026791
0.124484
0.100875
0.044548
0.025534
0.031229
-0.040240
-0.045519
0.173889
-0.061283
-0.217940
0.073266
-0.039643
0.067198
0.059887
0.020075
0.028122
0.007362
0.062820
-0.055690
-0.102027
-0.002590
0.135171
0.057305
-0.199187
-0.062533
-0.083962
0.022368
-0.126859
-0.179374
0.009035
0.025069
-0.120643
0.047353
0.173431
0.153670
-0.032449
-0.017472
0.059287
-0.080957
0.035103
0.015422
-0.036779
0.077188
-0.011352
0.086627
0.027993
-0.150203
-0.109327
-0.095662
-0.044444
0.034327
0.045366
0.013389
0.112093
-0.051053
-0.015179
0.006174
-0.061081
-0.063512
-0.021889
-0.037275
-0.124033
-0.030789
-0.046095
-0.141768
0.098372
0.039024
0.046842
0.130601
-0.002677
0.099291
-0.048933
0.024709
0.050117
-0.020445
-0.146012
-0.097968
0.044730
0.036653
-0.133995
0.016629
0.061699
-0.100184
-0.155242
-0.084144
-0.070174
-0.018311
0.053282
-0.141010
-0.056157
-0.037467
0.065254
-0.208118
0.142101
-0.091065
-0.027763
0.092674
0.004394
0.036176
-0.029609
0.087455
-0.154012
0.027925
-0.151425
-0.089840
-0.053637
0.030440
0.107688
-0.048814
-0.064566
0.031956
0.007312
-0.069447
0.122002
-0.210265
-0.080401
-0.004341
-0.074018
-0.082614
-0.110096
-0.006607
-0.045194
0.000604
-0.028090
0.013652
-0.004086
-0.018957
-0.014424
0.033266
0.047110
-0.105112
0.065400
0.147639
-0.011390
-0.024903
0.034967
0.062387
-0.058866
0.147934
0.026425
-0.000921
0.094975
0.052476
-0.115724
-0.060643
0.034215
-0.162145
-0.067563
-0.091410
0.116417
0.101551
-0.158470
-0.077994
-0.175255
0.003465
-0.131683
-0.180985
0.097481
-0.026839
-0.085184
0.018360
0.009897
0.000243
-0.041045
0.044912
0.021834
-0.003059
0.006602
-0.036858
-0.062369
0.031450
0.038552
-0.058228
0.011490
0.006471
-0.172260
-0.039923
0.039165
0.024569
0.114456
-0.057787
0.071146
-0.053133
0.033465
0.053434
-0.111289
0.021451
0.005599
0.037529
0.034308
-0.014184
-0.190735
-0.022072
0.054603
0.064557
-0.060325
0.079021
-0.020629
-0.013085
-0.004937
-0.238871
0.045170
-0.113938
0.094972
0.068888
0.051767
-0.027694
0.010909
-0.006618
0.043186
-0.245209
-0.115375
-0.058369
0.069402
0.013025
-0.088488
-0.099204
-0.020157
-0.023352
0.053639
-0.006338
-0.089175
0.003201
-0.064077
0.167059
0.077295
0.126104
-0.032141
0.009330
-0.122699
0.135370
0.072141
-0.056756
-0.002917
-0.021895
-0.196570
-0.028617
0.057087
-0.001164
0.019667
0.033351
-0.041178
-0.083242
0.016216
-0.152819
-0.014904
0.010230
-0.035304
0.133208
-0.223589
-0.044030
0.011523
0.002895
0.067648
-0.000707
-0.100161
0.093547
-0.077312
-0.131331
-0.153449
-0.095312
-0.056879
-0.039808
0.050020
-0.127189
-0.031019
0.089555
0.027859
-0.030389
-0.204129
0.030972
-0.102402
0.088476
-0.011856
0.067187
-0.206266
-0.143645
0.019760
0.011860
0.174972
-0.013250
-0.004380
-0.038757
0.066213
0.062084
-0.141607
-0.049984
0.075848
0.058877
-0.153135
-0.000945
-0.002309
0.015468
-0.084814
0.059496
0.152712
0.060854
-0.056121
-0.030155
-0.050324
0.009309
-0.063416
-0.007891
-0.205749
0.102143
-0.138257
-0.054476
0.028373
0.009151
0.020465
-0.026884
-0.060408
-0.122209
-0.030929
-0.096039
0.006808
0.018904
0.004134
-0.017171
-0.157749
-0.104941
0.094169
-0.098754
-0.082523
0.028454
-0.059290
-0.062384
0.143594
-0.059832
0.031708
0.081084
0.020163
-0.091806
-0.078797
0.030631
-0.171061
0.026482
0.095928
0.040035
0.208695
-0.087331
0.138235
-0.042443
0.019457
0.020473
0.094147
0.026262
0.282397
0.161921
-0.203545
0.041564
0.134464
0.000267
-0.056821
0.044272
-0.022745
0.027445
-0.076433
0.034687
0.044433
0.015944
-0.001727
-0.201242
-0.216390
-0.115435
0.137884
0.130217
0.053798
-0.090525
-0.132445
0.009651
0.102926
-0.194582
-0.149874
-0.010924
0.039426
0.037505
-0.066339
-0.019084
0.030195
0.013325
-0.137996
0.016394
0.026547
-0.017354
-0.173227
0.052508
0.088592
-0.031069
-0.054770
0.162524
-0.006003
0.015918
-0.035932
-0.036195
0.029185
0.080982
-0.011904
0.064270
-0.058942
0.046080
0.092164
0.004328
-0.043337
0.024170
-0.190886
-0.046128
0.025914
-0.010324
0.073634
0.020008
-0.053534
-0.152719
0.086130
0.011610
-0.079326
-0.052348
-0.140353
0.019440
0.032211
-0.076887
-0.016012
0.118615
-0.083637
0.026366
-0.040499
-0.024922
0.104771
0.033692
0.099145
0.015745
0.051065
0.009120
0.000078
0.097657
-0.103322
-0.017021
-0.060441
0.020087
0.023115
0.023809
0.009294
0.020248
-0.023549
0.001164
-0.053626
-0.013084
0.077306
0.049376
-0.093201
-0.016416
0.002485
-0.050922
-0.007629
0.079365
-0.007218
-0.020007
-0.113211
0.080601
-0.008333
-0.016261
-0.004835
-0.122381
-0.005129
-0.120748
-0.030658
0.033938
-0.131696
-0.135941
-0.047996
-0.028717
-0.168894
0.053307
-0.058726
-0.029531
0.111882
-0.089075
-0.053151
-0.059329
-0.098989
-0.095663
-0.193083
0.005241
-0.030328
-0.026180
0.164011
-0.060867
0.073560
0.138547
-0.006306
-0.005537
-0.040448
0.064497
0.006909
-0.014525
-0.138389
-0.088939
-0.168420
-0.072080
-0.116395
-0.016543
-0.013867
-0.039680
0.027556
-0.115887
0.034099
0.039821
0.028824
-0.021875
0.112126
-0.031332
-0.085095
-0.201755
0.096503
-0.037238
0.111739
-0.003317
-0.062514
-0.105197
0.035393
0.042549
0.145163
-0.102811
-0.190485
0.048034
-0.001515
0.106737
-0.076015
0.057538
0.003713
0.046142
0.073586
0.076555
0.010704
0.027895
-0.055979
-0.060790
0.052884
-0.027576
-0.056423
0.064707
-0.120127
0.091012
-0.037780
0.070382
-0.036432
-0.072791
-0.023373
-0.240030
0.055328
0.004864
-0.175964
-0.012225
-0.037938
0.011049
-0.017562
-0.010629
0.078145
0.063014
0.059296
-0.016184
-0.036886
0.086805
0.141555
-0.016467
-0.040075
0.008740
0.087329
0.090019
0.007831
0.023142
-0.028209
0.005619
-0.083971
-0.022112
0.091579
-0.099594
-0.098637
0.088557
0.013327
-0.059126
0.006530
-0.031059
-0.200549
0.022181
-0.001923
-0.125413
-0.063893
0.116065
-0.045843
0.111198
-0.045868
-0.013895
0.055866
-0.069713
0.045084
-0.007425
-0.095296
0.073717
0.036253
-0.150761
0.030315
-0.028983
-0.132806
-0.121672
-0.073791
0.029829
-0.043982
-0.134465
0.043437
-0.055722
-0.047603
-0.041613
-0.021360
-0.002229
-0.096862
0.125166
0.009419
0.072907
0.049931
-0.035364
0.053545
0.052948
-0.107523
-0.061599
-0.053865
0.023669
-0.151574
0.080380
-0.046845
-0.017592
-0.077555
-0.038262
0.010240
-0.051028
-0.021375
-0.042628
-0.181398
0.007643
0.044877
0.070877
-0.068617
0.036015
0.031944
0.059695
-0.049497
0.090757
-0.166536
-0.060010
-0.179567
-0.005785
0.052898
0.109782
0.040558
-0.042288
-0.039668
-0.067716
-0.067333
-0.035200
0.008971
0.010113
-0.071582
-0.025475
0.172019
-0.107931
-0.201538
0.005232
0.014510
-0.093420
0.022643
-0.010264
-0.013486
-0.283794
0.078335
-0.001966
0.016615
0.129162
-0.029413
-0.053667
0.076379
-0.038097
-0.055831
0.125763
-0.221166
0.029699
-0.185190
-0.063570
-0.106982
-0.092154
-0.213160
0.151770
-0.157624
0.029996
0.020722
-0.004630
-0.175794
-0.069894
0.072747
-0.123973
-0.015030
0.039572
0.034589
-0.035193
0.033050
0.028717
0.037690
-0.020811
0.032846
-0.002705
0.012375
0.043189
-0.016601
0.007449
0.007056
-0.036892
-0.019066
0.006475
-0.041168
0.001832
0.057173
-0.008835
-0.024649
-0.035429
0.039689
0.034690
0.014119
0.004196
-0.029880
-0.031020
-0.006860
0.011814
-0.019248
-0.038059
-0.037732
0.015076
0.017418
0.006456
0.018421
-0.003893
0.024870
-0.034984
-0.011947
0.008974
-0.065889
-0.004565
-0.001466
0.020036
0.011840
0.025620
-0.021483
-0.009397
0.018625
-0.038833
-0.016238
0.036967
-0.022177
0.004274
0.022564
0.014957
-0.002090
-0.032235
0.001964
0.028587
-0.009858
0.017264
0.059900
0.009856
0.040364
-0.001230
-0.021487
-0.029889
0.004420
-0.008536
0.018890
-0.011406
-0.040787
0.010000
0.041720
0.054727
0.024851
0.044595
0.009175
0.002674
-0.007679
0.048172
-0.011110
-0.013540
0.011360
-0.018667
-0.025472
0.003958
-0.029013
-0.012618
-0.025736
-0.003670
-0.013617
0.037851
-0.046862
0.035919
-0.003309
0.084239
0.002129
0.015579
-0.022042
-0.017390
0.050031
-0.006355
-0.058262
-0.008130
-0.037381
0.003251
0.012606
0.018442
0.009209
-0.016010
0.023799
0.023688
-0.011105
0.001153
-0.046801
-0.057303
-0.030159
0.028751
0.043689
-0.020305
-0.000785
0.013746
0.013279
0.036688
0.013109
0.012453
0.006684
0.007936
-0.014493
0.078265
0.071488
-0.151718
-0.046317
0.093287
0.039678
-0.090159
0.143317
0.089663
-0.092176
-0.112784
-0.106008
-0.010572
-0.085742
0.063419
0.113246
0.136695
-0.115903
-0.085627
0.070752
-0.309754
-0.021144
0.120401
-0.038753
0.030142
0.067055
0.061946
-0.031861
-0.095517
-0.024031
0.058036
-0.013647
0.153974
-0.039640
-0.037032
0.081246
-0.079280
-0.012203
0.154633
0.005801
-0.057858
0.103048
0.185271
0.045324
-0.017882
-0.151632
0.001656
-0.303912
-0.136976
0.089768
0.069530
0.010414
-0.040265
0.093287
-0.034964
-0.016185
0.060421
0.021696
-0.002296
-0.256601
-0.022575
-0.001403
-0.306186
0.073781
0.105675
0.021556
0.042300
-0.075649
-0.073005
-0.172915
-0.135404
0.084921
-0.099194
-0.137589
0.097788
0.034934
-0.010983
-0.175785
0.047649
0.059440
-0.068806
-0.073272
0.028000
-0.077188
0.172504
-0.100122
0.065792
0.045833
-0.032971
-0.163348
-0.158906
0.027494
0.162887
-0.134305
0.009385
0.058085
-0.056176
0.017848
-0.041109
-0.089156
0.037513
-0.226666
-0.048200
-0.044943
-0.098054
0.070748
-0.260355
0.109870
-0.079956
0.031896
0.052936
-0.074209
-0.165572
-0.094395
0.019092
-0.145526
-0.021146
-0.134297
0.068880
-0.143258
-0.059611
-0.041897
-0.038482
-0.032748
-0.021952
0.006401
-0.015845
0.023110
0.077587
-0.096603
-0.098514
-0.055473
-0.004626
-0.142059
0.108064
0.075634
-0.013271
0.047908
0.024860
0.024914
0.054915
-0.004612
0.161454
0.028406
-0.013999
0.008422
-0.061193
-0.016426
0.070517
0.056275
-0.014842
0.117813
0.023044
-0.115944
0.029254
-0.105401
0.011626
0.046705
-0.177162
0.000876
0.042547
-0.014808
0.049451
-0.092499
-0.055011
-0.012729
0.032374
-0.061544
-0.068834
0.002929
-0.013375
0.031077
-0.037656
0.007064
-0.013609
-0.042744
-0.008441
-0.140621
0.021415
0.011324
0.010834
-0.017097
0.056354
-0.026978
-0.060422
0.027724
0.008020
-0.015677
-0.023085
-0.116223
0.091664
-0.093919
-0.054463
-0.064653
-0.038498
-0.031288
-0.075098
-0.114096
-0.077474
-0.230745
-0.014314
-0.047018
-0.178689
0.113628
-0.023942
-0.004552
-0.173233
-0.133269
-0.033231
-0.039106
-0.097024
-0.177149
0.085193
-0.070156
-0.010312
0.110070
0.010255
-0.133223
0.035143
0.156879
-0.019901
-0.115427
-0.154579
-0.214844
-0.098162
0.028501
-0.036445
-0.115179
-0.272494
-0.035670
-0.002826
0.005211
-0.088444
-0.134374
-0.109891
-0.021554
-0.021231
0.046217
-0.269618
-0.085021
-0.047945
0.125365
-0.009936
-0.201088
-0.025119
-0.017202
-0.137186
-0.326254
-0.195015
-0.034554
0.001623
0.074998
-0.038987
-0.256626
-0.038736
0.066078
0.026076
-0.048509
-0.020303
-0.035716
0.008539
-0.009310
-0.018852
-0.032929
-0.023057
-0.207262
-0.130196
0.015871
0.073132
-0.014335
-0.015034
-0.056690
0.016910
0.096289
0.012671
0.118240
0.028225
0.056738
0.092421
0.142118
-0.008326
0.017453
0.176288
-0.071443
0.025824
0.017081
-0.130622
-0.051582
-0.094940
-0.013286
-0.216826
-0.207788
-0.073951
-0.179815
-0.018971
-0.013752
0.035217
-0.196554
0.007538
0.043642
0.119836
0.177223
-0.068726
0.087980
-0.109262
0.109397
-0.036976
-0.279134
-0.051934
0.066477
0.019460
-0.037114
-0.034035
0.029853
-0.002522
-0.065353
0.018819
-0.045693
-0.218232
-0.028734
0.062098
0.000859
0.021241
-0.000960
-0.029439
0.011716
-0.233733
0.096155
-0.050599
-0.190201
0.023503
0.004764
-0.096000
0.014642
0.034743
-0.033280
-0.077856
0.055849
0.079478
0.019693
0.124247
-0.200481
-0.085344
0.073599
-0.004821
0.033100
-0.135789
-0.056908
0.143333
0.024996
0.048554
0.100973
-0.031034
-0.010673
0.010607
-0.190455
0.098175
-0.217196
-0.092034
-0.072815
-0.115547
-0.034752
0.046352
0.087704
-0.179283
0.181573
0.114133
-0.008808
-0.021245
0.069668
-0.111217
-0.094125
0.010000
-0.010065
0.034426
-0.087028
0.033783
0.022643
0.039386
-0.113232
-0.003923
0.049656
0.076589
-0.039165
-0.060298
-0.057829
-0.116830
-0.077055
0.101324
0.013554
-0.002008
-0.054221
0.013654
-0.069495
-0.077499
-0.122666
-0.052389
0.116855
-0.021190
-0.173681
-0.102700
-0.155365
-0.044283
0.012987
-0.042946
0.057701
0.046296
0.077116
-0.039588
0.053043
-0.071418
-0.128811
-0.236178
0.068320
-0.067057
-0.032469
0.170362
-0.022784
-0.023739
-0.106041
-0.124588
0.118969
0.093534
0.013424
-0.011142
-0.046218
0.038485
0.105431
0.079781
-0.032880
-0.119755
-0.037932
-0.046298
0.030683
-0.084878
0.005528
-0.007850
-0.031753
0.081182
-0.040582
0.041465
-0.020691
0.008571
0.028802
0.036264
0.045189
0.041072
0.038260
-0.009237
-0.128227
-0.064707
-0.020917
0.029732
0.024925
-0.075667
0.048097
-0.084897
-0.006872
-0.015958
-0.115553
0.013763
0.090935
0.098545
-0.152829
-0.102792
-0.063737
-0.023395
0.078556
-0.060024
0.151248
-0.052518
0.037437
-0.028220
0.028315
0.030354
-0.123467
-0.127352
0.021971
0.044621
0.015510
0.101694
0.028350
-0.088408
-0.176807
-0.069561
0.090232
-0.056335
-0.028255
-0.002269
-0.113536
-0.014097
0.101298
-0.007798
-0.030415
-0.091552
-0.013571
-0.062196
-0.041519
-0.078645
-0.075474
-0.023823
0.019066
0.055135
-0.002753
0.074709
-0.025219
-0.038148
0.035005
-0.000116
0.007041
0.045284
-0.135375
-0.004920
0.128910
0.069011
-0.026836
-0.019742
0.047227
-0.061064
-0.192312
0.151905
-0.036387
0.019359
0.203414
0.043734
0.048507
-0.106616
0.002474
-0.034099
-0.091320
-0.108868
0.001334
-0.052483
-0.193664
0.026779
-0.058402
-0.010159
-0.137459
-0.100448
0.050983
-0.052489
-0.143640
-0.086738
-0.008108
0.078216
-0.007472
0.114882
-0.069128
-0.087734
0.127383
0.034219
-0.013999
0.003219
-0.140265
0.026610
-0.007717
-0.052089
-0.141748
-0.140054
-0.488952
-0.104549
-0.018532
0.031204
0.142805
-0.026347
-0.142495
0.092329
-0.161603
0.040297
-0.037475
0.013517
0.089943
-0.027742
-0.043743
-0.103762
0.101668
-0.023877
-0.014341
-0.009183
-0.041844
0.097769
0.114123
-0.102072
0.115725
-0.075668
-0.001165
0.092856
-0.032404
0.111270
-0.131242
0.170901
0.037969
-0.071464
0.029097
-0.044656
0.051173
-0.118391
0.051650
0.001796
0.040358
0.016637
0.047584
0.071401
-0.064100
0.121202
0.094453
0.056140
-0.014148
0.110350
-0.045061
-0.231319
-0.010497
-0.035321
-0.221209
0.014261
0.006106
-0.043462
-0.039610
0.049118
-0.080425
0.075826
-0.063377
-0.074200
-0.039640
-0.110464
0.131091
-0.043064
-0.110238
-0.041239
0.060062
0.092443
0.054302
0.045902
-0.034614
0.006816
0.055315
-0.019100
0.066182
-0.156743
0.046832
-0.177386
0.015928
0.029648
-0.032883
0.031895
-0.009393
0.031337
0.012351
0.070560
-0.162897
0.069758
-0.124277
0.145354
-0.083645
0.141835
0.119091
-0.079830
-0.085164
0.068084
0.014595
-0.115495
0.005457
-0.091192
-0.121958
-0.029616
0.025239
0.081734
0.048211
0.068319
0.057496
0.111078
0.100297
-0.055719
0.022313
0.039276
0.013122
0.131217
-0.046206
-0.079459
-0.013302
-0.046975
0.077855
-0.015429
-0.021306
0.019986
-0.063091
0.131654
-0.059197
0.001718
0.048268
-0.067430
-0.036267
-0.016964
0.000653
0.094140
0.161350
0.145632
0.020874
0.032669
0.000865
0.008840
0.024507
-0.014148
-0.026826
-0.029144
-0.077174
-0.198418
-0.002559
0.063680
-0.033754
0.078842
0.001847
-0.082259
-0.112021
0.112017
-0.183731
-0.036822
0.075641
0.124886
0.087752
-0.133784
-0.084568
-0.067638
-0.022408
0.024276
0.000211
-0.039724
0.121536
-0.021192
-0.001686
-0.078117
-0.112659
-0.042010
-0.035619
0.038106
0.000122
0.063898
0.018269
-0.010557
0.040217
0.096012
0.029210
0.036429
0.010027
0.045031
-0.016762
0.030404
0.038846
-0.002549
-0.058300
-0.092275
-0.007661
-0.009404
-0.029875
-0.029489
0.029278
0.029133
-0.066395
0.036986
0.117110
0.105554
0.040606
-0.026225
0.002669
-0.040752
0.052607
-0.055005
-0.038403
-0.094850
-0.033105
-0.195434
-0.057112
0.000372
-0.029415
0.170287
-0.065915
-0.004536
-0.178667
0.097736
-0.034051
0.082154
0.008779
0.006751
-0.133168
-0.207775
-0.001474
-0.001200
-0.103818
-0.020593
0.033857
-0.080348
-0.015701
-0.043666
-0.051261
0.034954
-0.057532
-0.023748
-0.010007
-0.122573
-0.099606
-0.075080
-0.037544
-0.183937
0.054591
-0.087794
-0.025967
-0.044674
-0.037693
-0.057116
-0.008543
-0.052173
0.102207
-0.064003
0.032110
-0.188161
0.053556
0.036006
0.120725
-0.108832
-0.069859
-0.031842
0.150580
-0.009693
-0.048510
-0.013040
-0.033938
-0.009868
0.045282
-0.009736
-0.133268
0.066011
-0.086381
-0.163717
0.023880
-0.101107
-0.030514
-0.149632
0.035757
-0.154894
-0.090212
0.134071
-0.025586
-0.055497
0.028586
0.085839
-0.048216
-0.053746
0.034728
0.071796
-0.035656
-0.152743
0.104389
-0.135400
0.007743
0.137453
-0.033688
0.032402
0.019026
0.017617
-0.133233
-0.118585
-0.192555
0.032159
0.022636
0.129135
0.025324
-0.028032
-0.005439
-0.048276
0.053047
0.133490
-0.036095
-0.091842
-0.032165
0.054758
0.015063
0.037617
-0.194279
-0.151985
-0.303383
-0.096388
0.064328
0.141056
0.016270
-0.022532
0.046437
0.020643
-0.147303
-0.028185
-0.019229
-0.034518
0.087939
0.021298
-0.182755
-0.205609
0.051160
0.019581
0.062611
0.004235
-0.048056
-0.062501
-0.004053
-0.031807
0.051334
-0.020257
-0.254438
-0.046839
0.038265
0.000920
-0.056515
-0.040034
0.018190
-0.090840
0.085042
0.051514
0.032756
-0.070233
-0.067365
-0.067532
0.057958
-0.026454
0.001004
0.014521
-0.096389
-0.009907
0.008410
-0.071393
-0.022501
-0.003336
-0.003694
-0.110553
0.010584
0.031444
-0.084193
0.035605
0.014444
0.041476
0.064684
0.136740
0.011008
0.110680
0.066786
-0.035650
0.026276
0.000365
0.050836
-0.028906
-0.044054
-0.046739
0.048970
0.110804
-0.083859
0.189391
0.001407
0.014273
0.026675
0.016722
-0.063355
-0.174738
-0.182342
-0.004521
0.104018
0.050391
-0.044985
-0.106773
-0.126218
0.025289
0.033068
0.069055
-0.061473
0.064183
-0.008881
0.007370
-0.044147
-0.053200
0.022623
0.030293
-0.009747
-0.051792
-0.119013
0.061676
-0.102791
-0.157813
-0.001682
-0.044573
-0.088673
-0.027720
-0.144198
0.068010
-0.145221
-0.124489
-0.101172
-0.140627
-0.014103
-0.043566
0.046251
0.039332
0.004557
0.072257
-0.025964
0.082417
0.036739
0.021358
0.030408
-0.025024
0.034339
-0.069222
-0.198293
0.049137
-0.016649
-0.010409
0.051379
-0.057753
0.027404
-0.046273
-0.036782
0.017603
-0.022561
-0.017936
-0.054052
-0.039139
-0.134230
-0.099105
0.005136
0.068582
0.028480
-0.065314
-0.067735
-0.023908
-0.024950
-0.184324
0.078021
-0.225669
-0.313298
-0.004045
-0.066543
0.003233
-0.090510
0.034287
0.033701
-0.095178
0.076560
-0.040761
0.044089
0.114922
-0.088533
-0.077576
0.097949
0.025969
0.057886
-0.072771
-0.078583
0.116588
0.005599
0.043257
-0.002456
0.071033
-0.023540
-0.126131
-0.043595
0.096534
-0.172170
-0.093094
0.009364
-0.099615
-0.224337
-0.041540
0.022225
0.036685
0.127181
0.058361
-0.062783
-0.121829
0.006323
-0.082852
-0.021719
-0.040629
-0.085688
0.010709
-0.045956
-0.001333
0.033506
0.007464
-0.037162
-0.018201
0.033476
0.105183
-0.105563
0.125449
-0.110682
-0.133088
-0.024899
0.037377
-0.152620
0.079396
0.060027
-0.005159
0.043229
-0.023318
0.048203
-0.084516
0.127608
0.092989
0.181694
0.092677
0.013947
-0.209814
-0.010491
-0.111009
0.132032
0.004106
0.069618
-0.047045
-0.107042
-0.038697
-0.080957
0.036210
-0.007786
-0.156296
-0.113947
0.071894
0.014420
0.119790
-0.142836
-0.095035
0.143182
0.070131
-0.006236
0.107024
-0.040151
-0.048572
0.011140
0.020215
-0.124236
-0.060685
-0.160603
-0.164735
-0.094185
0.082704
0.029190
-0.060445
-0.142693
0.076122
0.150019
0.072694
-0.002703
-0.035828
0.049979
0.027440
-0.014600
0.091867
-0.134840
-0.092681
-0.063454
-0.114095
-0.041324
-0.033270
0.050576
-0.095425
0.076864
-0.073388
-0.015395
-0.070503
-0.054151
0.046343
-0.085561
0.154514
0.181776
-0.033106
0.009168
-0.091263
0.074462
0.006674
0.042829
-0.037282
0.013410
-0.028474
-0.139549
0.063656
-0.044121
-0.033876
0.000849
0.113972
-0.097214
0.137171
0.034161
-0.029263
0.077286
0.044471
-0.077821
0.066903
0.032369
0.009725
-0.035021
0.055652
-0.052777
0.113104
-0.185193
-0.091512
-0.095566
-0.044355
-0.037715
-0.002248
-0.013799
0.007204
0.021541
-0.140781
0.028411
0.160733
-0.005654
-0.042797
-0.054794
0.004454
-0.075462
-0.205142
-0.022759
-0.009224
0.036995
-0.046781
-0.030573
-0.058721
-0.067282
-0.181371
-0.026677
-0.054713
-0.165073
0.166804
-0.137662
-0.077643
-0.026936
0.028769
0.210387
-0.057783
0.075604
0.019865
-0.013976
-0.089042
-0.018837
-0.063315
0.143906
0.023352
0.104019
-0.062194
-0.138223
0.239665
-0.186883
-0.008568
0.112094
0.072576
-0.021983
0.028106
0.166157
0.050580
-0.069787
0.062957
0.014642
-0.003129
0.044075
0.102428
0.035639
-0.008096
0.041733
-0.020732
0.000498
0.043745
-0.047391
-0.058701
0.101475
0.025632
-0.050913
0.115038
-0.054954
0.183214
0.016017
-0.029599
-0.071387
-0.026343
0.069865
-0.228516
0.036258
0.121385
-0.019028
-0.104845
-0.044485
0.034223
0.025382
-0.061723
0.089605
-0.257020
-0.169357
0.143285
0.021089
-0.169882
0.015458
0.187600
0.042934
-0.053324
0.016056
-0.064442
0.054107
0.063956
-0.068957
-0.042189
0.130950
0.024086
-0.031738
-0.150459
-0.200399
0.150673
0.084802
0.116173
0.075297
0.164391
-0.003026
-0.123367
-0.138668
-0.051523
-0.236050
-0.052738
0.000533
-0.273090
-0.031707
-0.276444
0.077981
-0.040342
0.095907
0.105164
0.043835
-0.251096
0.035298
0.066313
-0.057036
-0.028743
-0.069122
0.099759
-0.079730
0.113289
0.020033
-0.042772
-0.143185
-0.028578
0.027030
0.018026
-0.093568
0.018321
-0.019269
-0.069822
0.021190
-0.023758
-0.129808
0.022304
0.034782
-0.042407
-0.057156
0.080810
-0.033811
-0.077058
-0.002438
0.097125
-0.041219
-0.003110
-0.021359
0.031654
-0.168581
-0.099374
0.118776
-0.170493
-0.043992
-0.031857
-0.012003
-0.087123
-0.133701
0.021488
-0.036097
-0.207701
-0.049569
-0.034864
-0.017642
0.067649
0.045996
0.008792
0.002900
-0.001302
-0.035217
0.094363
-0.180056
0.076039
-0.082691
0.013763
-0.093470
0.025452
-0.206593
0.077820
-0.095561
-0.009632
0.014730
0.007381
-0.167812
0.017156
0.115142
0.001069
-0.036469
-0.002559
-0.056580
-0.014293
-0.121877
-0.124966
0.014993
0.027343
0.029127
0.110496
0.018269
-0.054654
0.030226
-0.124668
-0.019242
0.068705
-0.223451
-0.000391
0.106614
-0.108040
0.047774
-0.076138
-0.145938
0.042506
0.077105
-0.033977
0.052461
0.196951
-0.149966
-0.049662
0.025269
0.001504
0.003464
-0.076146
-0.036163
0.053911
0.029362
0.077681
0.006515
-0.101772
0.004346
0.017739
0.171917
-0.031371
-0.102810
-0.021906
-0.046654
-0.072589
-0.144845
0.131426
0.033503
-0.146554
0.104880
0.019918
0.009841
0.136774
0.080181
-0.096815
-0.037131
-0.055931
-0.030411
0.006761
-0.214889
-0.017957
-0.007837
0.004330
0.032569
0.004564
0.133800
0.053988
-0.061244
0.028516
0.108253
-0.146274
-0.006230
0.165914
-0.022140
-0.012809
0.058254
-0.028450
-0.056210
-0.224119
0.034987
0.027630
-0.007759
0.113726
0.146487
0.058227
-0.184333
-0.095140
0.056279
-0.112322
0.111355
0.183635
0.015096
-0.026426
-0.070010
0.003824
0.023733
-0.097931
0.075749
0.099386
-0.068375
0.030651
-0.019611
0.099660
-0.014876
-0.116435
0.053361
0.157080
-0.018568
-0.035698
0.084880
0.047876
0.125418
-0.058867
-0.062587
0.015635
-0.078576
-0.043436
0.056299
-0.000521
0.014695
-0.012417
0.083335
0.020542
-0.007603
0.092324
0.009747
-0.029284
0.037989
-0.014167
-0.055191
0.014985
-0.081743
-0.082445
-0.048369
-0.096448
-0.073133
0.043814
0.001371
0.090037
-0.013205
-0.002276
-0.127946
0.016238
-0.025092
0.023797
0.063410
0.005796
-0.072790
-0.138860
-0.007068
-0.045169
-0.140762
-0.038725
0.005614
-0.040371
0.053516
-0.031851
-0.075048
0.017663
-0.072592
-0.123336
0.015706
-0.111541
-0.102099
-0.026759
-0.028860
-0.011591
0.028571
0.015571
0.038937
-0.039150
-0.015717
0.069657
0.040472
-0.041036
0.093948
0.064023
-0.060517
-0.205557
0.015592
0.013762
-0.000554
-0.077359
0.141142
-0.019480
-0.046549
-0.006581
0.007657
-0.008181
0.004049
-0.007986
-0.034555
0.027739
0.018911
0.004361
-0.020416
0.028126
-0.042746
0.053036
-0.007164
-0.023980
0.004903
0.011915
-0.027108
-0.020397
0.038420
-0.030949
0.005717
-0.002216
-0.035849
0.011631
-0.041164
-0.027068
0.041538
-0.052868
-0.019348
-0.040484
0.038759
-0.027237
0.058043
0.020982
0.015282
0.044182
-0.018449
-0.046067
0.024421
0.023626
-0.014361
-0.045465
-0.007282
-0.009621
-0.000105
0.027935
-0.019204
-0.028077
0.005335
-0.027129
-0.030348
0.044225
0.037968
-0.045385
-0.044081
-0.016689
-0.033814
0.062896
-0.008315
-0.014720
0.008344
-0.017988
-0.055656
-0.001131
-0.010400
0.012027
-0.000516
-0.027633
0.105544
0.027096
-0.002698
-0.213255
0.066618
-0.025330
0.092688
0.037518
-0.039950
0.030044
0.049547
-0.027314
0.050655
0.033314
-0.099066
0.045153
0.011750
0.055708
-0.095340
0.073808
0.071096
0.021543
0.009571
-0.008272
-0.028681
-0.098068
-0.064779
-0.103589
-0.144738
0.013464
0.102309
0.042658
0.032158
0.103589
-0.013540
0.079072
0.023823
0.048490
0.019786
-0.080335
0.064343
0.064454
-0.097748
-0.088731
-0.009138
0.012998
0.031573
0.105982
-0.016866
0.013150
-0.115610
-0.090986
-0.092379
0.032128
0.088121
-0.140747
0.017789
0.024874
-0.003353
0.095753
0.035149
0.043904
0.010155
0.023249
0.040600
0.019488
-0.024107
-0.207252
0.003763
-0.132285
0.025389
0.030845
-0.042565
0.002232
-0.046399
-0.018122
0.031753
-0.051002
-0.119617
0.160871
-0.027748
0.101019
-0.156672
0.061722
-0.003396
-0.046412
0.014704
0.039042
-0.077450
-0.056773
-0.061351
-0.089534
-0.100681
-0.032951
0.031634
0.022771
0.006685
0.119180
-0.031385
0.087511
0.068764
-0.103821
-0.041580
-0.150700
0.011485
0.188100
-0.179920
-0.075788
-0.073018
0.034130
0.080640
0.053525
-0.060756
0.014785
0.012695
-0.002785
-0.045288
0.038197
0.125878
-0.062514
0.001630
-0.025822
-0.020602
-0.002871
0.097787
0.024581
0.003463
0.019124
-0.013527
0.026356
-0.084671
-0.268924
0.078277
0.067021
-0.076417
-0.067807
-0.049210
-0.064159
0.113624
-0.066034
0.133035
-0.158605
-0.320153
0.058102
-0.074994
0.094644
-0.028216
-0.001212
-0.009199
-0.100202
-0.016922
-0.051679
0.134802
0.096653
0.038141
-0.117175
0.112633
0.003701
0.097383
0.073385
-0.137047
0.099744
0.037028
0.100391
0.076490
-0.000023
-0.040604
-0.170187
-0.113353
0.154207
-0.143210
-0.112432
-0.029355
-0.016480
-0.091565
-0.089062
0.108065
0.074309
0.155988
-0.002787
0.063159
-0.080631
0.079508
-0.241163
-0.138605
0.016501
-0.004490
0.120000
0.091628
0.001146
-0.036501
-0.040666
-0.075476
-0.028358
0.052372
-0.016391
-0.077595
0.070907
-0.044675
-0.168427
-0.063071
-0.027243
-0.069227
0.069927
0.035799
-0.140124
-0.041479
0.026043
0.058529
0.057630
0.003771
0.121574
0.088629
0.012995
-0.075743
0.010562
-0.099875
-0.035924
0.034090
0.043225
0.085420
-0.032201
-0.129381
-0.097226
-0.106015
0.015404
-0.014563
-0.179055
0.039879
0.021448
-0.035619
0.086312
0.012092
0.037939
-0.028622
0.040692
-0.051874
0.026504
-0.043217
0.056090
-0.003629
0.006788
-0.031776
0.004970
-0.077420
-0.002408
-0.149567
0.055024
0.023828
0.001012
-0.104998
0.048618
0.065788
0.036030
-0.011210
0.031847
0.078737
0.017219
-0.098821
-0.018291
0.163486
-0.047798
-0.047726
0.047243
-0.018065
-0.009272
0.182782
-0.087907
0.031377
-0.070453
-0.106556
-0.019959
-0.041372
0.080370
-0.003388
0.029230
-0.036112
-0.037464
-0.031233
-0.070150
-0.001381
0.005901
0.005593
0.027627
0.066810
0.031476
0.006915
0.043302
-0.153808
0.062194
0.113034
0.157540
0.005059
0.014024
-0.016183
-0.210365
0.014066
-0.081680
-0.054848
-0.099269
-0.046297
-0.006219
0.033339
-0.030566
-0.049313
0.007063
-0.010042
-0.050590
-0.008701
-0.069025
0.045305
-0.081906
-0.012550
-0.028600
0.054814
0.069062
0.028959
0.036631
0.032504
0.000457
-0.107653
-0.057913
-0.022248
0.037397
-0.021174
0.153092
-0.087685
-0.061508
-0.033654
-0.046974
-0.083215
-0.011408
-0.027546
-0.082167
-0.005883
0.037129
0.097695
-0.039732
0.001004
0.053043
-0.038605
-0.030643
-0.050870
-0.078074
-0.106424
0.119806
-0.034764
-0.119289
-0.014111
0.033025
-0.048671
-0.069884
-0.078280
0.014818
-0.047784
-0.146153
0.055744
0.098557
0.000781
0.030131
-0.005183
-0.091121
-0.042492
-0.047756
-0.042298
-0.140002
-0.066783
-0.134967
-0.015737
-0.114571
-0.023513
0.036553
-0.162335
-0.180378
-0.050402
0.012014
0.004097
0.015368
-0.161097
0.025372
0.038319
-0.039155
-0.033539
-0.039705
0.006438
-0.018216
0.011885
-0.170884
-0.004071
-0.056155
0.072064
-0.042984
-0.077391
-0.003249
-0.011529
-0.103428
0.020332
0.179147
-0.123569
0.043780
-0.095639
0.143115
-0.319279
0.035588
0.109504
-0.031541
-0.140362
0.020235
-0.042539
-0.114979
-0.027642
-0.093205
-0.209778
-0.012806
0.140875
-0.015002
0.063781
0.073307
-0.082182
0.103761
0.031529
-0.097132
0.024275
-0.059132
0.041721
0.069434
-0.101912
-0.067205
-0.024013
-0.053282
0.042490
0.083724
-0.117223
-0.076362
-0.050638
0.092981
-0.239474
-0.030336
0.030977
-0.085249
0.001486
-0.034277
0.025861
-0.051534
0.064552
-0.041648
-0.003676
-0.042204
0.003188
0.027501
0.086452
-0.100599
-0.045963
0.038230
0.059334
-0.092626
-0.013103
-0.062526
-0.065246
0.107706
0.024018
-0.049668
-0.121892
-0.035217
-0.082541
-0.028446
-0.072735
0.054509
-0.117857
-0.035137
-0.090103
-0.054958
-0.086847
0.059784
-0.005949
-0.088796
0.049782
-0.036775
-0.075995
-0.103971
-0.191463
-0.168807
0.036899
-0.154257
-0.203627
0.015041
0.034019
0.020145
0.006976
-0.096201
0.021510
0.085106
0.019689
-0.026430
0.090911
-0.020917
0.014910
-0.092636
-0.077503
-0.004353
-0.096986
-0.090526
-0.082711
-0.061602
-0.076715
-0.005497
0.019669
-0.001342
-0.023113
-0.086250
-0.020372
-0.002375
-0.142901
0.005003
0.029117
-0.103757
0.085071
0.007324
0.050104
0.115845
-0.067840
-0.000116
-0.074257
-0.284847
-0.217754
-0.001177
-0.050393
-0.206184
0.124700
-0.048640
-0.221340
-0.046912
-0.270358
-0.062847
0.043069
0.090108
-0.171326
0.038459
-0.040296
-0.113696
-0.000895
-0.042379
-0.100504
-0.171756
0.089726
-0.015499
-0.211921
0.042054
0.048901
-0.291068
-0.029876
-0.047184
-0.130172
0.080596
-0.257507
-0.107168
-0.033018
-0.173056
0.042683
0.005202
-0.158680
-0.058600
0.052418
-0.004336
-0.140311
-0.178105
0.038751
-0.100029
-0.145224
-0.011159
-0.080076
-0.061337
-0.123082
-0.279588
-0.035147
0.012029
0.015567
-0.015454
-0.138204
-0.082074
-0.100379
-0.027977
-0.097909
-0.063812
-0.050174
-0.162925
-0.042558
-0.043057
-0.129572
-0.059885
-0.176969
0.010840
-0.007757
-0.020494
-0.031791
0.019250
-0.100916
0.038422
0.002745
0.034410
-0.138764
0.070817
-0.069572
-0.003466
0.055272
-0.042579
-0.000022
0.094107
0.031764
0.020319
-0.127759
-0.003120
-0.116008
-0.081095
-0.001811
-0.067130
-0.096679
-0.028588
-0.210644
-0.109543
-0.025003
-0.035379
-0.129167
-0.095794
0.030774
-0.051862
0.205396
-0.041465
-0.027565
0.006687
0.013744
-0.022299
-0.189853
0.019597
-0.021290
-0.013970
-0.109639
-0.062273
0.013332
-0.017272
-0.076994
0.005167
0.006763
0.038028
0.035721
0.005472
-0.108401
-0.068992
-0.041777
-0.052447
-0.003692
0.120842
0.046466
0.022427
0.042091
-0.092095
0.171672
0.038169
-0.075713
0.059411
-0.080361
0.127975
0.075366
-0.175736
0.017205
-0.147458
0.047424
-0.014691
0.040020
0.029718
-0.037193
-0.076129
0.080404
-0.101968
0.131399
0.075379
-0.057125
0.080937
-0.001314
0.144501
-0.143706
-0.189641
0.134344
0.034903
-0.067046
-0.071703
0.013952
-0.186110
-0.120519
-0.030131
-0.245274
0.034145
-0.152788
-0.231511
-0.169452
0.085497
-0.083886
-0.026236
-0.156732
0.145998
0.055176
0.023267
0.026294
0.025722
-0.019848
0.022804
0.010379
-0.103451
0.021244
-0.025195
-0.123423
-0.055951
-0.014896
0.036675
0.003638
-0.095841
0.121176
-0.041855
-0.091828
0.039816
-0.104563
0.046476
-0.050375
0.178867
0.039133
-0.156789
-0.117701
-0.057199
0.011264
0.048484
0.120072
-0.084874
0.114403
0.004526
0.031728
0.045184
-0.100383
0.001831
0.045034
0.106513
-0.001525
0.129106
-0.030285
-0.085879
-0.120959
-0.022274
-0.080072
-0.110369
-0.038443
-0.108644
-0.093407
-0.076715
0.045549
0.051357
-0.045579
-0.048136
-0.052372
-0.158658
-0.071752
-0.125219
-0.060882
-0.032073
0.018739
0.019281
0.083693
0.075369
-0.034024
-0.031316
-0.127777
0.013148
-0.171832
-0.056596
0.056562
0.034103
-0.152129
0.070579
-0.004347
-0.106410
-0.032663
-0.118731
-0.086265
-0.000963
-0.041278
-0.164628
0.058691
0.075414
-0.116726
-0.123376
-0.169996
-0.002818
0.078151
-0.023450
-0.161045
0.128520
-0.089412
-0.066583
-0.014203
-0.030534
0.036663
-0.035021
0.100448
-0.036745
0.044285
-0.006801
-0.084995
-0.104777
0.032677
-0.024191
-0.101157
-0.046994
-0.111869
-0.049100
-0.003014
-0.103323
-0.171528
-0.016843
-0.044470
-0.057817
0.212701
-0.008806
0.000074
-0.092225
0.071294
-0.081038
-0.265525
0.005297
-0.054526
-0.039996
-0.144539
-0.159505
-0.038250
-0.037158
-0.098996
0.010321
0.090382
-0.085075
-0.126118
-0.040339
-0.021350
-0.037760
-0.063533
-0.077541
-0.132209
0.019651
0.068239
-0.048670
-0.121607
0.157060
-0.071456
0.069438
-0.074387
0.066301
0.128935
-0.026150
-0.041211
0.078082
-0.051271
-0.023101
-0.026892
-0.074085
-0.061281
0.022480
-0.218909
-0.081323
-0.028785
0.087355
-0.023600
-0.102082
0.015778
-0.127257
-0.008980
0.119935
0.091372
0.111677
-0.049670
0.126546
-0.003299
0.168195
0.021763
0.201820
-0.071179
0.023392
-0.110560
-0.067392
-0.061602
0.090301
-0.020338
0.090359
0.088045
0.016374
-0.000703
-0.008089
0.062137
0.068856
0.014336
-0.025752
-0.174573
-0.054028
-0.172600
-0.031726
0.051190
0.035751
-0.050191
0.049617
0.037777
-0.134618
-0.117108
-0.289951
-0.160719
0.048150
-0.079671
-0.187895
0.071391
-0.018277
-0.106741
-0.170251
-0.192281
0.016071
0.047872
-0.048688
-0.152676
0.134610
-0.075890
-0.012583
0.030593
-0.017436
-0.055513
-0.060343
0.172812
0.035257
-0.164357
0.017259
-0.041778
-0.273624
-0.015317
0.023601
-0.020080
0.022792
-0.127442
-0.065271
-0.036136
-0.164438
-0.125213
0.034745
0.000729
-0.237547
0.226913
-0.017112
-0.004826
0.062483
0.144686
-0.043948
-0.107260
0.020327
-0.167080
-0.033121
-0.224189
-0.162798
0.003290
-0.031187
0.031420
-0.015767
-0.228631
0.005110
-0.101244
-0.045722
-0.145803
0.002378
-0.008142
-0.111719
-0.090199
-0.037644
-0.249353
0.063553
-0.115621
0.082782
0.049353
-0.234945
-0.106426
-0.133720
-0.204224
0.076072
0.090836
-0.045920
-0.208439
0.135264
-0.022073
-0.026868
0.064190
-0.041066
-0.160234
0.034755
-0.074480
0.001519
-0.217524
-0.121168
-0.312396
-0.327529
0.003319
-0.106676
-0.110865
-0.123579
0.003538
0.014853
-0.025382
-0.004726
-0.192982
-0.083589
0.054800
-0.023882
0.144950
-0.230835
-0.054742
-0.070705
0.050096
-0.147478
-0.186887
0.006167
-0.002901
-0.124891
-0.082336
-0.059482
0.027203
-0.031385
-0.023728
-0.027685
0.089193
0.002583
0.103450
-0.101781
0.047558
-0.100718
-0.026042
0.073586
0.096588
0.039365
0.025968
0.008045
-0.061502
-0.269907
0.012046
0.006254
0.032125
0.116350
-0.030011
-0.038660
-0.102726
-0.092201
0.140472
-0.188749
0.064619
0.091090
-0.008693
-0.018644
-0.003131
-0.024810
-0.110457
0.045467
-0.002733
0.274970
0.163597
0.202739
-0.011302
-0.016731
-0.244688
-0.064497
0.063958
0.023024
-0.006889
-0.166688
-0.009522
-0.076079
-0.020275
-0.079042
-0.031170
0.006122
-0.099469
-0.163221
-0.116152
-0.080141
-0.102309
-0.024330
-0.081647
0.043434
0.136081
0.057820
-0.036158
0.032431
0.105077
0.007481
-0.138734
-0.108259
0.034718
0.025849
0.051746
0.010691
-0.056827
-0.051520
0.063422
-0.014600
0.038765
-0.177041
-0.140864
-0.043504
0.018896
0.041210
-0.043193
0.014209
0.091758
0.017319
0.014968
0.018313
-0.013349
-0.004943
0.056137
0.025685
0.170371
-0.039142
0.021078
0.013186
-0.038774
0.088013
-0.016997
0.002975
-0.060423
-0.023608
0.024784
-0.139481
0.074790
-0.055248
-0.208947
-0.078419
0.023279
-0.060096
-0.026276
-0.016620
0.006569
-0.007066
0.037670
0.073521
0.038737
-0.033424
0.041410
0.025884
-0.091770
-0.014316
-0.024457
0.077352
-0.047081
-0.046164
-0.002516
-0.026587
0.055061
0.001599
0.016858
0.105616
-0.163968
0.114894
0.042555
-0.183115
-0.012100
0.035080
-0.025403
0.027326
-0.016783
0.052107
-0.035522
0.048527
0.013661
-0.062554
0.022532
0.102480
0.011331
0.040361
-0.154854
-0.091325
0.039928
0.000023
-0.127145
0.101192
-0.055534
-0.004201
-0.158750
-0.078746
-0.072515
-0.117139
-0.094548
-0.071467
-0.121898
0.052853
-0.037924
0.093239
-0.092782
-0.088947
0.124555
0.170027
-0.005789
-0.016907
0.018935
-0.029533
0.146739
-0.240611
-0.183503
-0.215767
-0.152339
-0.096119
-0.043263
0.017101
0.049304
-0.005762
-0.070649
0.048753
-0.087677
0.100031
0.024183
0.016819
-0.097850
0.023504
0.007770
-0.097493
0.023725
-0.025282
0.075987
-0.021316
-0.025690
0.054680
-0.017415
0.073240
0.095492
-0.111705
-0.067436
-0.040587
-0.055342
-0.166036
0.011103
0.071464
-0.065427
0.181442
-0.013942
0.035779
-0.074127
-0.005160
-0.019616
-0.100735
0.075361
0.033380
0.161545
-0.093086
-0.272589
-0.117584
0.095673
-0.095843
-0.240549
0.141993
0.022768
0.037372
0.014477
-0.180137
-0.041971
0.092829
-0.028212
-0.243177
-0.111938
0.098224
-0.008476
0.001605
0.055905
0.009110
0.004464
-0.072435
-0.039956
-0.047563
-0.119591
-0.043221
-0.013106
0.059296
0.025277
0.095857
0.015593
-0.036604
-0.058828
-0.034699
-0.018736
0.003594
0.054002
-0.040890
-0.023662
-0.128149
-0.036939
0.096613
0.043397
-0.008240
-0.051124
-0.074687
-0.100741
-0.050431
-0.240166
0.073819
-0.000555
0.049860
-0.145515
-0.029418
-0.009374
-0.077741
-0.003353
-0.011295
0.138841
-0.035923
0.079323
0.030321
0.068987
0.058114
-0.218556
-0.219885
0.043777
0.132531
0.027165
-0.003281
0.012826
-0.149897
-0.046600
-0.082902
0.019019
-0.082116
0.002897
-0.023867
0.001483
0.072760
0.197280
-0.011050
0.055415
-0.070864
-0.053231
-0.034174
-0.013823
-0.211742
-0.015340
-0.040291
0.018968
-0.048398
0.068620
-0.044596
0.025937
-0.013359
0.063683
-0.045098
-0.065384
-0.141372
0.028406
0.173255
-0.179235
-0.136598
-0.026198
-0.058612
0.012313
0.052623
0.111396
-0.195229
0.039031
-0.049189
-0.015144
-0.051277
0.019617
-0.006751
-0.019129
-0.051828
-0.050984
-0.060738
-0.048173
0.026849
-0.048637
-0.080351
0.251505
0.032481
-0.127903
-0.008245
-0.234777
0.045374
0.110858
0.006890
0.023024
0.035747
-0.031337
-0.040631
-0.248693
-0.034422
-0.045929
0.096010
-0.028721
-0.217188
0.056529
-0.054826
0.096865
-0.003997
0.119814
-0.050099
0.040666
-0.176627
-0.048706
-0.076660
-0.106095
0.022083
-0.085502
-0.010466
-0.091885
0.037825
0.004741
-0.033706
0.039247
-0.029472
-0.026042
-0.132853
0.117012
-0.049495
-0.048985
-0.031325
-0.028857
0.039966
0.004655
-0.002703
0.029724
-0.089314
0.005489
-0.172242
0.050293
0.062577
-0.080314
-0.035947
-0.132489
-0.010082
0.238968
-0.133602
-0.006601
0.044446
-0.084202
-0.082397
0.064769
0.013561
0.095108
0.103092
0.126247
0.067586
0.097560
-0.056282
-0.045764
-0.014004
0.010123
-0.123352
-0.283132
-0.094303
-0.193753
-0.002105
-0.033245
-0.138735
-0.065826
-0.195791
0.007105
0.066017
0.138379
0.036839
0.118377
-0.227483
0.106114
-0.192485
-0.237239
-0.027146
-0.149626
0.047130
-0.059558
0.008538
0.010008
0.011231
0.095762
-0.042171
-0.003363
-0.117362
0.258749
-0.032869
-0.048830
0.089519
0.007698
0.084322
0.297257
0.115920
0.055114
0.069655
0.019987
-0.242682
0.023878
0.089272
-0.014818
0.158073
-0.063298
-0.228386
-0.071229
-0.178642
-0.001809
-0.290647
0.028519
0.060156
-0.054294
0.000233
0.155186
0.081931
-0.004253
-0.021773
0.099705
0.335938
0.222364
0.022916
-0.024554
-0.055074
-0.218962
-0.183518
0.082705
-0.170339
0.005151
-0.208938
0.058030
-0.118962
0.012575
-0.129808
0.024165
0.122116
-0.005547
-0.192806
-0.013099
-0.153113
-0.068400
-0.045690
0.030171
0.171418
0.138867
0.084215
-0.006976
0.000190
0.012459
-0.039804
0.023049
0.036134
-0.003436
0.015997
-0.003688
0.033090
0.043109
-0.007272
0.043710
-0.009022
-0.005922
0.006982
0.043082
-0.010433
0.018926
0.063561
-0.017874
0.019179
-0.000361
0.002081
0.035113
-0.026659
-0.022104
-0.029686
0.022723
0.044124
0.014884
0.017795
-0.035502
-0.001673
0.008990
0.017781
-0.030534
0.059607
0.013136
-0.023712
-0.022550
0.024897
-0.033473
0.020554
0.032434
-0.016495
-0.008858
0.005166
0.009918
0.042680
-0.031576
0.015328
0.027250
0.003896
0.048817
0.026433
-0.012221
0.018833
0.037538
-0.020120
0.006072
0.032609
0.001276
0.006601
0.016275
0.009558
0.023109
-0.012659
-0.034793
-0.098981
-0.125237
-0.019805
0.023266
0.018343
-0.078551
-0.010812
-0.001845
0.063391
-0.040830
0.095060
-0.148103
0.020124
0.024191
0.058593
0.011910
0.008156
0.024555
-0.021168
-0.097118
-0.047255
-0.212183
0.124631
-0.073961
-0.079457
0.050313
-0.005384
-0.241631
-0.074328
-0.117435
0.018756
-0.122383
-0.092032
-0.073360
-0.085923
0.001571
0.068577
0.105964
0.058624
0.021831
0.067374
-0.046749
0.142504
0.050552
0.039981
0.066819
-0.077604
-0.000376
-0.145884
-0.234594
0.027990
-0.119680
-0.064370
0.136448
-0.000449
-0.055578
-0.039409
-0.019264
-0.059690
0.025268
0.002288
0.007864
-0.021580
-0.058818
-0.263983
0.140968
0.018116
0.096363
0.207448
-0.045615
-0.023508
0.042123
-0.037988
0.061188
0.244224
-0.092025
-0.021008
0.087906
0.144623
-0.302720
0.091260
0.145584
-0.046224
-0.138821
0.077967
-0.102973
-0.017447
-0.024582
0.022476
-0.112240
-0.030847
0.023143
-0.145280
0.119870
0.098592
-0.090633
0.223246
0.163368
-0.167207
-0.048578
-0.025127
-0.083323
-0.037849
-0.242005
-0.183617
-0.008306
-0.134254
0.024375
-0.006809
-0.153485
-0.154634
0.072311
0.018087
-0.129340
-0.037033
-0.073923
0.028979
-0.068230
-0.033815
0.080912
0.012328
0.043834
-0.088003
0.021761
0.013608
0.053182
0.016709
0.018928
-0.136378
-0.069940
-0.082054
0.105884
0.026137
-0.017498
-0.007493
-0.107573
0.034169
0.004809
0.012003
-0.166983
0.104278
-0.125451
0.034424
-0.004171
0.094948
0.121089
-0.069944
-0.035251
0.082627
-0.132356
-0.029690
-0.080924
-0.170778
0.003761
-0.018784
-0.128662
-0.153641
0.016186
0.085969
-0.111921
0.009018
-0.002261
-0.124628
0.006637
0.083578
0.146564
0.141569
-0.085293
0.037413
0.034957
0.122676
0.108157
0.157662
-0.011134
-0.044707
-0.007125
-0.044425
-0.098190
0.130731
-0.026456
-0.024904
0.038659
0.014899
0.067519
0.056166
0.107961
0.026216
-0.016248
0.024719
-0.086065
-0.038020
-0.122463
-0.096541
0.066053
0.012485
-0.039320
0.088775
-0.007176
-0.080789
0.009018
-0.165200
-0.055474
-0.030412
-0.169086
-0.039341
0.046151
-0.158285
-0.031339
-0.117343
-0.214053
0.050989
0.139343
-0.039485
0.026531
0.119480
-0.139083
-0.087638
0.051712
-0.015027
-0.117834
-0.099586
0.035759
0.065913
-0.075141
0.080389
0.014135
-0.103246
-0.041914
-0.025936
0.102927
-0.039211
-0.085885
0.011379
-0.051591
-0.038707
-0.141682
0.049419
0.059252
-0.110659
0.225551
0.044947
0.059584
0.059681
0.087860
-0.109389
-0.082319
0.008239
-0.037432
-0.028600
-0.181496
-0.086549
-0.049362
-0.036696
-0.104563
0.028783
-0.100020
-0.084461
0.065639
0.055209
-0.057156
-0.016291
-0.006933
0.066136
0.029610
-0.083192
0.038775
-0.119626
-0.097210
0.114577
0.032246
-0.020594
-0.037290
0.093511
0.086013
-0.118987
-0.042647
-0.055737
0.047929
0.099978
0.077913
-0.142287
0.157084
-0.005182
0.050956
-0.027648
-0.132391
-0.063468
0.107105
0.095374
0.052424
0.043901
-0.000592
-0.088388
0.020687
0.074268
-0.110761
-0.093809
0.027353
-0.122778
-0.254113
-0.092178
0.063494
0.141285
0.049425
-0.062284
0.018310
-0.162212
-0.060124
-0.197009
0.066340
0.004436
-0.042331
0.105610
0.076712
0.021242
-0.016031
-0.031288
-0.017532
0.018950
-0.072371
-0.005092
0.101426
-0.039149
-0.044002
-0.002500
-0.037194
0.130509
0.108443
-0.043434
-0.023353
0.089599
-0.093619
-0.189900
0.093037
0.009000
-0.118195
-0.019960
-0.075994
0.153724
0.048169
0.021329
-0.050181
0.133680
0.070498
-0.036411
0.129423
-0.020768
0.050319
-0.005072
-0.084709
-0.013349
0.251683
0.059640
-0.106449
0.163659
0.012615
-0.057818
-0.220189
-0.237376
-0.176932
0.000778
-0.030785
-0.115792
-0.080032
-0.168144
0.080972
0.009282
-0.023949
-0.172633
0.087935
-0.112743
0.077117
-0.016432
-0.182740
-0.045875
-0.163351
0.034351
-0.054068
0.099683
0.029690
0.017076
-0.099934
-0.049368
0.068184
-0.047335
0.006613
0.187428
-0.079515
-0.057811
-0.046775
-0.019980
-0.015962
0.025052
0.110018
-0.020034
-0.053019
0.036921
0.028743
-0.100753
-0.000252
-0.024869
-0.159675
-0.076770
0.022503
0.041288
-0.038553
0.035085
0.010263
-0.135629
0.000650
-0.017318
0.029653
-0.036992
-0.109559
0.110101
-0.026932
-0.100701
0.072132
-0.012989
0.020535
-0.058061
-0.162081
0.012023
-0.077299
-0.053572
-0.066831
-0.038535
0.028068
-0.125472
-0.025185
-0.027666
0.039495
0.053583
-0.127454
-0.093484
-0.042529
-0.020646
-0.068605
-0.002466
-0.116300
-0.026550
0.053942
-0.067642
-0.027492
-0.009591
0.004938
-0.039041
0.042787
-0.085806
-0.056075
0.069263
0.027206
-0.102612
-0.006212
0.053083
0.005981
0.100024
0.049662
-0.162335
-0.087591
0.026517
-0.062520
-0.090295
-0.017434
0.107235
0.060205
0.034900
0.007003
-0.096501
-0.028734
0.148451
-0.059089
-0.057142
0.120931
-0.046809
0.006441
-0.106565
-0.237466
-0.006311
-0.011862
-0.005193
-0.113004
0.169711
0.002980
0.027744
-0.019253
-0.089196
0.001988
0.111329
0.015371
-0.181879
0.006769
-0.060170
0.066380
-0.067022
-0.007722
-0.037263
0.020014
-0.174278
-0.054807
-0.033219
-0.076089
0.008400
0.031148
-0.003054
-0.004757
0.101113
-0.044583
-0.008819
-0.008164
-0.019105
0.095114
-0.039143
0.040948
-0.055227
0.103662
-0.073413
-0.002062
-0.037232
-0.059595
0.025099
0.194091
-0.127404
-0.025073
0.232612
-0.124919
-0.139780
-0.040900
0.081331
-0.149225
0.066781
0.060957
0.132352
0.004480
-0.063014
0.079656
-0.185694
-0.035495
0.031037
-0.136975
0.033605
-0.135881
0.164271
0.048172
-0.149248
-0.123797
-0.032159
-0.011644
-0.110238
0.070095
0.075380
-0.154314
-0.068531
-0.008115
0.116095
-0.141705
0.078799
-0.001889
-0.044098
-0.031996
-0.135155
0.117290
0.074206
0.001933
-0.038684
0.017230
0.019893
0.157534
0.008819
0.088276
0.008375
-0.022538
0.000364
0.021856
-0.029373
0.141306
0.039404
-0.009882
-0.071830
-0.138015
-0.062301
0.006054
0.004954
-0.167471
-0.042730
-0.037176
0.144261
0.001228
0.044497
0.035053
-0.230484
0.068324
-0.076881
0.040153
0.070562
0.057243
-0.055465
-0.035260
0.011027
-0.008135
0.013372
-0.147206
-0.030863
0.079174
-0.009848
-0.040226
0.192063
-0.105964
-0.187577
0.134475
0.034863
0.015413
0.105463
0.018663
0.125340
0.044864
0.035385
-0.011623
-0.140783
0.059354
0.021709
0.000724
-0.093078
-0.064527
-0.012707
0.076274
-0.001919
-0.066432
0.019830
-0.127111
-0.003272
-0.073716
-0.033278
-0.156633
0.015317
0.004150
0.011275
-0.047632
0.005893
0.120279
0.069200
-0.049349
-0.010221
-0.119784
0.122290
-0.070350
0.182618
0.015489
-0.133332
-0.171503
0.113390
-0.091553
-0.156400
0.183490
-0.001897
0.083224
-0.094222
-0.106443
-0.113753
-0.319945
-0.152320
-0.010272
-0.119612
-0.179848
0.029591
0.084135
-0.027507
0.109361
0.176747
0.045516
-0.035615
-0.196083
0.014850
0.036608
-0.024867
0.003246
0.115421
-0.123502
0.064704
0.140516
0.110621
-0.016630
-0.156262
0.008148
-0.021180
0.087199
0.024815
0.078122
-0.141584
-0.365628
-0.146568
-0.023641
0.021315
0.100405
-0.084915
-0.033586
0.072146
-0.141546
0.041363
0.013686
0.039209
0.030948
0.035765
0.020701
-0.044955
0.001685
-0.026104
-0.007613
-0.010444
0.006785
0.060125
0.004075
0.009279
0.014400
-0.055663
-0.008170
-0.030691
-0.052704
-0.009766
0.015835
-0.024282
-0.009158
0.012532
-0.013357
0.012400
-0.008741
0.040767
0.032115
0.019608
0.020801
-0.038158
0.027333
0.011466
-0.016060
0.028663
-0.007763
-0.028718
-0.013577
0.028959
0.018810
-0.000383
-0.028220
-0.033991
-0.001361
0.000462
-0.022887
-0.007060
0.028959
0.024664
0.005872
0.023390
0.014004
0.037458
-0.040149
-0.001326
-0.021340
-0.024971
0.039104
-0.001158
-0.007442
0.009244
0.039256
0.022014
0.029725
0.008954
-0.042425
0.025305
0.055670
0.000858
0.022938
0.001081
-0.020395
0.007592
0.030919
0.021558
-0.016954
0.037142
0.024732
0.017410
-0.065971
0.032088
-0.066598
-0.023879
0.010455
0.008499
0.026246
0.021091
-0.011446
-0.045771
0.003063
-0.001177
-0.030209
0.047530
-0.024937
-0.038513
0.013889
-0.019586
-0.043688
0.066696
0.075654
-0.010187
0.025955
0.007829
0.017932
-0.029617
0.014537
-0.021260
0.033912
0.061525
-0.029505
0.038087
0.010758
0.025626
0.054762
0.001139
-0.019473
0.040869
-0.021565
0.023287
-0.048655
-0.006112
0.008045
0.000449
0.036022
0.035629
0.000254
0.040979
0.027854
-0.045908
-0.074879
-0.032594
-0.109353
-0.065951
-0.013583
0.097496
-0.001543
-0.015400
-0.047793
0.039995
-0.017779
-0.054232
-0.007952
-0.050401
-0.103643
-0.095035
-0.028177
-0.022733
-0.023138
0.166184
-0.034308
-0.029165
-0.101267
0.102721
-0.207322
0.061985
0.088044
-0.134344
0.117573
-0.041780
-0.145961
-0.131479
-0.046705
-0.098835
-0.011872
-0.040326
-0.052705
0.049143
-0.033040
0.064388
-0.140081
-0.115495
-0.097594
-0.108049
0.002862
-0.061423
-0.019085
-0.224709
-0.010773
0.090091
0.010083
0.029641
0.041326
0.034895
0.020523
0.173616
-0.086061
0.023578
-0.013231
0.055933
-0.053016
-0.004107
-0.042040
-0.036132
-0.114776
-0.012301
-0.154038
-0.115457
-0.086690
-0.094916
-0.129875
-0.146498
-0.057182
-0.081473
-0.043491
-0.272856
-0.180910
0.079695
-0.041418
-0.156126
-0.161330
-0.116687
-0.246620
-0.059551
-0.002937
-0.003026
0.080693
0.009822
-0.227017
0.035010
-0.072116
0.068836
-0.152702
0.025549
0.025324
-0.101865
-0.020675
0.074767
-0.103402
-0.043112
0.116496
-0.105741
0.005948
0.123254
-0.056674
-0.115612
-0.214016
-0.120589
0.033727
-0.240270
0.083048
0.020825
0.074834
-0.207439
-0.024728
-0.028958
0.010598
-0.050488
-0.064691
0.054919
-0.287726
-0.065876
-0.100995
-0.156723
-0.058841
-0.167643
-0.021222
0.011113
0.068086
0.013265
0.151267
-0.093480
0.045842
0.038664
-0.056395
-0.006547
-0.055222
0.033169
-0.174812
-0.043792
-0.165056
0.039843
-0.051673
-0.092738
0.077482
-0.189770
0.016770
-0.117480
-0.020359
0.091803
0.039800
-0.152897
-0.045598
-0.086028
0.031545
0.037129
-0.035308
-0.035724
-0.028763
0.163548
-0.027035
0.093300
-0.021590
-0.194841
0.047645
0.044878
0.014113
0.135230
-0.157714
0.038521
0.051966
0.062664
-0.011960
-0.115814
0.016905
-0.125961
0.141365
0.024292
-0.068662
-0.084162
-0.024227
0.145680
-0.049566
0.048903
-0.013063
-0.084316
0.019167
0.022140
-0.112254
0.065590
-0.042404
-0.037713
-0.047559
-0.003229
0.037921
0.013007
-0.106466
0.023705
-0.159167
-0.006582
-0.020524
-0.070898
-0.138008
-0.020660
0.052682
-0.051322
0.021911
-0.094976
0.108893
-0.075680
0.002196
-0.064142
-0.233070
-0.010152
-0.092195
-0.188182
-0.116858
0.035479
-0.075509
-0.384828
0.031810
0.002388
-0.074775
0.083497
-0.072270
-0.123716
-0.030518
-0.121505
-0.166909
-0.060995
0.020114
-0.157489
-0.069293
-0.209589
0.006858
0.059083
-0.066697
0.036282
-0.070080
-0.167128
0.208898
0.007610
0.153333
-0.281982
-0.052086
-0.052946
-0.063180
-0.124216
0.022598
-0.054026
-0.071689
-0.185351
-0.073468
-0.157562
-0.038767
-0.011040
-0.083634
0.011569
0.092551
-0.048366
-0.053338
0.082594
-0.053776
-0.076412
-0.010201
-0.032993
-0.168937
0.016316
0.002173
-0.048899
-0.029154
0.065195
0.063190
-0.052991
-0.204462
0.072186
-0.117413
0.203825
0.070999
-0.037303
-0.090399
0.018500
0.030194
-0.213748
-0.023680
-0.041483
-0.080494
0.104390
0.006803
-0.036667
0.063099
-0.270762
-0.248424
-0.084017
-0.021801
-0.106480
-0.052546
-0.019652
-0.080550
0.149243
-0.016517
0.012678
-0.028407
-0.084724
0.072311
0.009132
0.038418
-0.220622
0.016586
0.053942
-0.116921
0.123455
-0.104301
-0.013399
0.053394
-0.048928
-0.084110
-0.005969
-0.006487
0.030662
-0.144045
-0.015063
-0.118147
-0.148210
0.073553
-0.015059
-0.138432
0.033781
-0.044113
-0.046723
-0.105322
-0.052101
-0.064294
0.030076
0.051886
0.041958
-0.142449
-0.166579
0.055973
-0.009270
-0.217692
-0.038736
0.168225
0.002323
0.016485
0.063535
-0.075029
0.076875
0.061425
0.034374
-0.052774
-0.029819
-0.090162
-0.029142
0.035669
-0.056489
-0.008662
-0.022347
-0.014230
-0.047917
0.036129
0.002596
-0.276254
-0.039152
-0.035979
0.124422
-0.122100
-0.029272
-0.048748
-0.043983
0.044824
-0.127450
0.153284
-0.030379
0.075399
-0.159243
-0.064413
-0.010297
0.026821
-0.112951
-0.134833
0.024931
0.011272
0.001538
-0.147124
0.025417
-0.049992
-0.151179
0.052412
0.003934
-0.033246
-0.131450
-0.080690
-0.080573
-0.111614
0.075919
-0.009911
-0.096680
0.119710
0.066412
0.105616
0.017148
-0.076373
-0.070131
-0.014857
0.018155
0.037411
-0.074711
-0.023881
0.156439
0.104999
0.041436
0.120435
-0.040627
-0.109406
-0.096445
0.003163
-0.048516
-0.045398
-0.099847
-0.142944
-0.134959
-0.001855
0.007515
0.033236
-0.111733
0.029927
0.017539
-0.016561
-0.142688
-0.024222
-0.170473
0.086783
-0.027994
-0.092986
-0.027697
0.042038
0.010235
0.042650
-0.007396
-0.085523
-0.036389
-0.159724
-0.048125
-0.000111
-0.075003
-0.022075
0.001450
-0.133733
-0.028873
-0.041714
-0.110789
0.077371
0.030118
0.035386
-0.034530
0.016676
0.001672
-0.001340
0.048086
-0.080261
-0.020105
0.078527
0.049499
0.087208
-0.041260
-0.103359
-0.123953
-0.072447
-0.088686
0.054905
-0.106967
-0.010928
0.222911
0.066577
0.012561
0.136007
-0.042761
-0.084408
-0.106308
0.025323
-0.022889
0.042478
-0.025791
-0.132909
-0.089512
0.029477
-0.041625
0.031817
0.005352
-0.014134
-0.014808
-0.039649
-0.098387
0.004150
-0.072413
0.025635
-0.016619
-0.057176
-0.073756
0.080454
-0.061577
-0.004229
-0.058197
-0.150411
0.023386
-0.089018
-0.012523
0.017619
-0.118877
-0.020108
0.006457
0.018178
0.004973
-0.032661
-0.066379
-0.033805
-0.036431
-0.114652
0.040009
-0.023140
-0.012323
0.005058
-0.048626
-0.176923
-0.048496
-0.061512
-0.284809
0.261665
0.170606
-0.078775
-0.002717
0.125156
0.062522
-0.141833
0.025468
-0.145514
0.014631
-0.097798
-0.071673
0.216882
-0.019879
-0.015881
-0.025220
-0.010791
-0.189947
-0.153689
0.010295
-0.069875
-0.077344
-0.036631
0.064344
-0.109233
0.059855
-0.006841
0.035495
-0.001385
-0.010586
0.108637
-0.075211
0.096041
0.102417
0.067392
-0.050381
-0.203156
-0.031340
-0.017660
0.101387
0.041487
-0.022421
-0.067197
-0.018821
-0.177120
-0.006190
0.006714
-0.041610
-0.159120
-0.033658
-0.053877
-0.163073
0.050444
0.010894
0.085370
-0.094299
-0.010631
0.026599
-0.082420
-0.035775
0.101936
-0.016360
-0.053465
0.219372
-0.027803
-0.112059
-0.061180
0.081183
-0.054766
0.052224
-0.047865
0.012844
-0.085591
0.058467
0.090434
-0.054641
-0.020486
-0.019577
-0.189464
-0.062824
-0.160259
-0.026555
-0.025134
-0.083470
-0.221866
0.008127
-0.008018
-0.103384
-0.040790
-0.048845
-0.190371
-0.084856
0.005504
0.008191
-0.091675
-0.039125
-0.139016
-0.105287
-0.114268
-0.053893
0.108438
-0.025241
0.103428
0.058560
-0.174714
-0.040921
-0.002203
0.030249
0.108555
-0.043431
0.009986
-0.046796
-0.061545
-0.034125
0.061626
0.046539
0.008292
0.021319
0.070472
-0.082635
-0.035647
0.150594
0.001809
-0.001498
0.002438
-0.069782
-0.077940
0.150430
-0.179473
0.045657
-0.035953
0.014190
-0.012249
-0.105051
-0.139541
0.104519
0.091096
-0.103020
0.101930
-0.031302
-0.039720
0.004551
-0.044417
-0.013252
-0.150047
0.055381
0.060849
-0.010999
-0.067605
-0.012313
-0.013375
0.020155
-0.046348
0.078064
-0.061002
-0.234398
-0.010757
-0.032311
-0.000554
0.070048
-0.164055
-0.059416
-0.108820
0.073309
0.031307
0.021113
0.126196
-0.050133
-0.061245
-0.040680
0.062632
0.174993
0.172251
0.121683
0.016887
-0.045647
-0.000382
-0.046493
0.106290
-0.100492
0.121790
0.097837
-0.044446
-0.024111
-0.054289
0.074849
-0.055910
0.082652
0.114697
-0.007550
-0.007592
0.096052
0.006848
-0.067605
0.030621
-0.039697
0.035243
-0.067406
0.027112
-0.111262
-0.000300
0.059822
-0.023607
0.024877
-0.011348
0.019794
0.058570
-0.015843
-0.073832
0.199786
0.046753
-0.079048
0.087776
-0.008082
-0.017369
0.001993
0.050104
0.008168
-0.074181
0.031234
0.033502
-0.149566
0.090550
0.014225
0.012737
-0.033242
-0.016749
0.099913
0.019327
-0.020638
0.141370
0.042146
-0.084274
-0.036511
-0.151431
-0.003169
-0.022634
-0.076667
-0.026816
-0.030799
-0.086278
-0.032183
0.165907
-0.155441
-0.079468
0.031492
-0.092985
-0.247530
-0.038312
-0.053994
-0.093894
0.103806
0.106037
-0.063468
0.040644
0.259884
-0.039816
-0.096741
0.028647
0.010944
-0.193352
-0.056849
0.109889
0.021988
-0.021286
0.061619
-0.000714
0.064802
0.024904
0.030492
-0.073139
0.099919
-0.116716
0.011393
0.029622
-0.168665
0.049908
-0.092564
-0.042544
0.001967
-0.076056
0.057988
0.072041
0.045489
0.006166
0.028181
0.003409
-0.041191
-0.058895
-0.027861
-0.082203
0.030148
0.034968
-0.091584
-0.010411
-0.076107
-0.030617
-0.027138
-0.054725
-0.049081
0.054617
-0.109598
0.016805
0.003982
-0.032465
-0.012393
-0.008147
-0.136760
0.024314
0.066393
0.012927
-0.015173
-0.015619
0.073855
0.045912
-0.127712
-0.034569
-0.078148
-0.098492
-0.117109
0.028961
0.055697
-0.136257
0.030527
-0.002255
-0.018685
-0.136908
-0.008114
-0.188733
0.011703
-0.045204
-0.130710
0.119606
-0.041324
-0.019436
-0.152997
-0.151085
-0.235073
-0.032437
0.002400
-0.161841
0.038016
-0.025276
-0.086123
-0.180694
-0.095341
-0.003401
-0.051617
0.010423
-0.094512
-0.122814
-0.158427
0.125877
-0.046108
0.075500
-0.009328
-0.124101
-0.096741
-0.017357
0.041085
-0.031083
-0.034625
-0.044333
0.066682
-0.154063
-0.116959
-0.028207
-0.020782
0.021393
-0.021873
0.078111
-0.140547
0.060955
-0.107856
0.117712
0.052167
-0.059834
-0.003645
-0.103682
0.004813
0.121417
-0.072615
-0.163510
0.088866
-0.050716
-0.199210
-0.022639
0.105759
-0.106301
0.115672
0.064871
0.092293
0.037476
-0.152987
0.039160
-0.059350
-0.087133
-0.020186
-0.084053
-0.001399
-0.037367
0.104086
-0.047382
-0.094237
-0.190204
-0.015245
-0.002384
-0.021476
0.099685
0.148442
-0.034182
-0.012444
0.023619
0.140857
-0.043390
0.157008
0.004999
0.063825
0.025695
-0.117448
0.064107
0.168270
0.074255
-0.038730
0.031861
-0.057040
0.186694
0.028615
0.021970
0.125462
-0.030505
-0.034129
0.096941
-0.016151
0.003005
-0.117392
-0.044208
-0.075276
-0.134027
0.082569
-0.016985
-0.004395
-0.097421
0.077536
0.053782
-0.109234
-0.154193
0.096885
0.035212
0.057738
0.010963
0.058159
0.145103
0.031715
-0.028528
-0.023953
-0.035985
-0.201032
0.016579
-0.029792
0.032897
-0.001971
0.026398
0.091824
-0.096949
0.146811
-0.153646
-0.066858
0.016411
0.139526
-0.031733
-0.098358
0.009432
0.111951
-0.064120
0.155233
0.007776
-0.017067
0.217042
0.093156
0.010668
-0.017668
-0.077961
-0.035511
-0.100004
-0.016584
-0.077272
-0.005479
0.045252
-0.038727
-0.109450
-0.068391
-0.058998
0.162943
0.011976
-0.009582
-0.100203
-0.002463
0.001225
-0.084587
0.112938
0.019214
0.004109
-0.078991
-0.041791
-0.068481
-0.032657
-0.021630
0.094454
-0.026140
0.061552
0.075116
-0.028983
-0.197195
-0.092741
-0.050182
-0.083340
0.019122
0.067385
-0.182651
-0.152629
0.030374
0.092898
-0.120946
-0.159960
0.032251
-0.008430
-0.062852
-0.036542
0.063449
0.005333
0.025813
-0.115869
-0.063719
0.021887
-0.166043
-0.123432
0.077761
-0.181327
-0.163308
-0.028803
0.025553
0.004242
-0.003680
-0.105328
-0.093970
-0.070936
-0.014179
0.189120
0.000755
0.147682
0.032530
-0.110591
-0.023945
-0.045572
0.014723
-0.094624
-0.022519
-0.034467
-0.030209
0.029092
0.009598
0.179855
-0.023507
0.034458
-0.035096
-0.097058
-0.027481
-0.038332
0.150847
-0.019165
-0.100555
-0.213017
-0.076438
-0.016467
-0.200184
0.196236
-0.021039
0.071651
-0.023580
-0.118470
0.079115
-0.216368
-0.046993
0.025273
-0.168742
-0.090786
0.029180
0.134452
-0.007664
0.120898
0.086369
-0.026321
0.011053
-0.050116
0.065839
0.045692
0.064533
-0.022500
0.187351
-0.147672
-0.039706
0.223698
0.013885
-0.029253
-0.094131
0.092519
-0.170950
0.117558
-0.021255
0.013174
0.007371
-0.075021
0.159442
0.102243
0.084971
0.053246
-0.008364
0.011907
0.151160
-0.137600
-0.059771
-0.022739
0.029852
0.001288
-0.015953
0.028208
-0.078598
0.092264
0.104575
0.077391
0.129181
-0.041654
0.198549
0.007554
0.183734
0.063922
-0.145580
-0.197519
0.070226
0.099766
-0.207515
0.068360
0.108106
-0.000816
0.149007
-0.094958
-0.052055
-0.043171
0.041203
-0.000434
-0.165925
0.130676
0.002305
0.136507
0.042941
0.014434
0.156108
0.042136
-0.009494
-0.074474
0.068125
-0.037645
-0.216140
0.009195
0.045187
-0.082760
0.191994
0.003439
0.114491
-0.000260
-0.017444
0.011152
0.010636
0.039262
0.049311
-0.090616
0.026230
-0.001983
0.085165
-0.061226
0.007928
-0.008103
-0.021440
0.117280
0.019350
0.030568
-0.012787
-0.009181
0.007249
-0.043677
-0.113833
-0.001068
-0.044441
-0.066007
-0.011571
-0.018950
0.031017
-0.148916
0.016622
0.032708
0.079246
-0.091593
0.011477
0.005667
-0.119118
-0.010109
-0.048335
0.021596
-0.063047
0.021755
-0.139659
0.017376
-0.030901
-0.132942
0.090125
-0.048249
-0.036575
-0.053894
-0.005008
-0.250238
0.140257
0.036345
-0.199419
-0.111294
0.111523
-0.040713
-0.017874
0.159578
-0.017993
-0.033171
-0.033024
-0.039283
0.074280
0.161410
0.204736
-0.182778
-0.188821
-0.068244
0.070155
0.025840
-0.104996
0.085589
0.002581
0.030882
0.034099
-0.142288
-0.092425
-0.112693
0.052017
-0.015825
-0.049683
-0.012350
-0.027105
-0.000754
-0.220272
0.086421
-0.020626
-0.154723
-0.132258
-0.006548
-0.105093
-0.026762
-0.015463
-0.088012
0.099434
0.042566
0.184252
-0.122425
-0.192207
-0.099484
-0.167281
0.044822
0.047853
0.115474
-0.030027
-0.036686
0.217186
0.044366
0.076843
-0.079465
0.012954
-0.011635
-0.020875
-0.196812
0.118807
-0.097193
-0.169360
0.020864
-0.069510
-0.009372
0.086027
-0.036707
-0.047985
-0.183123
-0.022905
0.017412
-0.113832
0.093363
0.096999
-0.047952
-0.214123
-0.037723
-0.063347
0.217821
-0.091903
0.138892
0.138359
-0.180468
-0.024074
-0.081009
0.005958
-0.055039
0.067014
0.012269
0.028252
-0.031612
-0.028738
0.248852
0.116945
-0.029873
0.006730
-0.101502
0.050867
-0.001717
0.170619
-0.046814
-0.091144
0.031691
-0.011946
-0.063372
-0.119142
0.086302
-0.120952
0.116012
-0.018392
0.015177
-0.088019
-0.114174
-0.089132
0.064693
-0.224772
-0.185425
0.038896
0.017440
0.004056
0.158554
0.189231
-0.072316
0.124943
-0.005731
-0.105832
0.081118
0.078766
-0.011657
0.106279
-0.171730
0.110541
0.125198
0.047489
-0.039430
-0.079554
0.091351
0.072102
0.066527
0.018187
0.000184
-0.029584
-0.190147
-0.167142
-0.038489
-0.032737
0.089199
-0.059483
0.108184
-0.019799
-0.078056
0.066444
-0.004747
-0.011535
-0.017953
-0.041796
-0.066614
-0.052613
-0.144786
0.002839
0.037909
0.080980
-0.001708
-0.092460
-0.146678
-0.046532
0.033458
0.048432
-0.025119
0.021067
0.015270
-0.030322
-0.057491
-0.006909
-0.064062
0.015080
0.131617
-0.007516
-0.050171
0.047209
0.117719
-0.116386
0.090375
0.029290
-0.159862
0.075371
-0.034628
-0.034428
0.101483
-0.133196
-0.181562
0.083489
0.001262
-0.105196
0.115305
-0.058208
-0.118531
0.031594
0.014942
0.197339
-0.077466
0.093067
-0.019958
0.144378
0.006927
-0.125329
0.036672
0.001209
-0.228604
-0.026675
0.068575
-0.004439
0.101783
-0.201040
0.016546
0.116491
0.021799
-0.031621
-0.099359
0.026473
-0.013620
-0.102155
0.018483
0.043756
0.039496
-0.040347
0.013190
0.015220
0.039852
-0.007981
-0.114550
-0.123009
-0.004922
0.006270
0.089280
-0.081390
0.011440
-0.033287
-0.121377
-0.038089
-0.045311
0.106658
-0.098164
0.014653
0.159760
-0.057874
0.121547
-0.014720
-0.106960
-0.048944
-0.062205
-0.024589
-0.047704
-0.001101
-0.054980
-0.030071
-0.035148
0.133748
-0.128429
0.079016
-0.010780
-0.052156
0.025100
0.004454
-0.086652
-0.093242
0.008659
-0.014376
0.069836
0.098451
0.128072
0.095596
0.091445
0.131131
-0.201405
0.029380
-0.046418
0.060790
0.105765
-0.068186
0.008652
0.027408
0.130837
-0.005344
0.110145
-0.124907
0.054778
0.054847
-0.087986
-0.037354
-0.007621
-0.051327
-0.088441
0.080975
0.045876
-0.060595
-0.080628
0.112364
0.061932
0.027770
-0.006882
-0.024051
0.016526
0.029358
-0.025174
-0.058361
-0.002128
0.067225
-0.060195
0.046025
0.170865
0.033698
0.138342
0.068146
-0.095152
0.097399
-0.025059
-0.069421
-0.026475
0.000954
-0.031227
-0.073749
0.070779
0.074441
0.004453
0.069391
0.002504
-0.013652
0.130260
-0.127272
0.018239
0.001656
-0.000228
0.000102
0.096481
0.010860
0.035703
0.033410
-0.020678
-0.045439
-0.137276
-0.163373
-0.039654
-0.061007
-0.017484
-0.022443
0.006023
0.010702
0.010486
0.005863
0.002724
0.032547
0.014412
-0.011366
0.024274
0.024010
0.011870
0.000188
0.031053
-0.018394
0.026085
0.019410
0.007391
-0.011604
-0.033491
0.014347
-0.011827
-0.025584
0.018913
-0.020697
0.032344
-0.051594
0.030534
-0.046527
-0.042675
-0.040110
0.004548
0.007283
-0.021913
-0.019675
-0.028109
0.011242
0.015532
-0.046862
-0.004191
-0.025728
-0.053907
-0.006775
-0.025802
-0.007446
0.014895
0.046067
-0.011702
-0.002369
0.053287
0.028319
-0.080624
-0.052663
0.032370
-0.000643
-0.017326
0.005779
0.012983
-0.004740
0.017890
-0.041597
-0.010060
0.011568
-0.020461
-0.046746
-0.007526
0.019419
0.032237
-0.112146
0.024597
0.019003
0.050840
-0.033872
-0.059714
0.049895
-0.024618
0.003661
0.055144
-0.051889
-0.119119
0.062885
-0.134432
0.017348
-0.038589
0.005706
-0.024961
-0.050136
-0.019842
0.129674
0.097953
-0.185782
-0.018358
-0.068920
-0.095791
0.027015
-0.220024
-0.042307
-0.170338
0.016745
0.125490
-0.098663
-0.044662
0.102204
-0.000429
-0.051040
0.096764
0.091313
-0.003903
-0.174012
0.019244
0.176758
-0.097116
0.049339
-0.033680
0.013156
-0.034150
-0.023670
0.106201
0.029357
0.044749
-0.075094
0.089334
-0.037807
0.088788
0.063125
0.057751
0.020848
0.031149
-0.038967
-0.033712
0.034979
0.114238
-0.043986
-0.071583
0.005610
0.006745
-0.149329
-0.063880
0.148653
-0.014913
0.018476
0.024883
-0.050991
-0.125233
0.138663
-0.219297
-0.064342
-0.055468
0.053897
-0.189812
-0.112439
-0.031794
0.065384
0.037608
-0.246972
0.007218
-0.027753
-0.089797
-0.032688
0.007619
0.007868
-0.208895
-0.017940
0.095007
-0.088424
-0.054530
0.124925
-0.038423
-0.040522
0.026737
0.053693
-0.061125
-0.198607
-0.021915
0.039629
0.035966
0.080177
-0.085935
-0.056896
-0.030805
-0.088084
0.087456
0.038978
0.063701
-0.069884
-0.046667
0.022129
0.088572
-0.001654
0.130493
0.041116
-0.034307
0.006377
-0.089609
-0.056858
0.070885
-0.090899
-0.058583
0.020326
0.040603
-0.127073
-0.052693
0.018485
-0.075426
0.042531
-0.008071
-0.010256
-0.068241
0.134504
-0.141670
-0.144680
-0.055760
0.047260
-0.074410
0.064335
0.126758
-0.017978
-0.031614
0.049814
0.030727
-0.038015
-0.119110
-0.022823
-0.122147
-0.076180
-0.028832
0.124666
-0.058408
-0.145450
-0.053306
-0.051370
-0.001225
-0.142341
0.014822
-0.010522
-0.217712
-0.070406
-0.029600
0.059204
-0.103356
-0.014396
-0.047710
-0.044530
-0.052473
-0.023708
0.182305
0.095512
0.105651
-0.048243
-0.033688
0.002738
0.191656
0.004152
-0.002140
-0.106870
-0.013905
-0.000387
0.085550
0.019775
0.179427
-0.094164
0.065173
-0.018301
-0.068527
0.042856
-0.007994
0.050699
-0.114246
-0.032723
-0.029494
0.125316
-0.023270
-0.088778
0.012495
-0.166843
-0.020125
-0.173688
0.061365
0.134257
-0.017259
-0.120015
0.008056
-0.208757
-0.061468
0.042613
-0.078426
0.004197
0.059180
0.091115
-0.035975
0.074883
-0.060768
-0.073659
0.063733
0.080534
0.032288
0.161022
-0.079061
0.104189
0.094093
0.085776
0.016793
-0.080529
0.087359
0.104463
0.061044
-0.017387
-0.047636
0.013857
-0.082136
0.108103
0.062541
0.020199
-0.008550
-0.051703
0.059045
0.064989
-0.067724
0.034978
0.027524
0.027172
-0.125040
-0.012128
-0.052513
-0.064831
0.022067
0.027210
0.121543
-0.045514
-0.027258
-0.054132
-0.079595
-0.005604
0.102647
-0.045713
0.006244
0.014268
-0.071645
-0.032231
-0.073400
0.010595
-0.076713
-0.035965
-0.137248
-0.030050
-0.080206
0.067987
0.126395
-0.131406
-0.049693
-0.014797
