0.043000
0.150959
-0.070438
-0.141171
-0.131401
0.081034
-0.124614
0.036127
0.006681
0.040641
-0.097916
0.113204
-0.028251
-0.050771
-0.106221
0.109114
0.068518
0.097776
-0.028123
0.044370
0.101362
0.130747
-0.040691
-0.238926
-0.006289
-0.161573
-0.119623
0.091071
-0.179950
-0.004757
-0.159048
-0.093555
-0.136850
-0.069274
0.055509
0.038881
-0.169815
-0.006892
0.100151
0.084513
0.037957
0.058121
-0.141457
-0.123384
0.009961
-0.030152
-0.039876
0.052701
0.042545
0.007157
0.091806
0.032176
-0.027869
0.045620
0.069936
-0.077412
0.067958
-0.227467
0.104772
0.074567
0.100726
-0.231788
0.038599
-0.006508
-0.001202
0.048644
-0.002158
0.082647
-0.125464
0.092938
-0.153804
-0.114694
0.034930
0.095733
-0.022345
-0.097537
-0.041221
0.028595
-0.047908
0.028173
-0.075930
-0.057299
-0.009351
0.070703
-0.048484
-0.036038
0.012309
-0.125307
-0.088245
-0.035013
-0.101534
0.066752
-0.035473
-0.095867
-0.063827
-0.019848
-0.009751
0.052883
-0.110739
0.040849
0.019144
0.077234
-0.119506
-0.152844
-0.125209
0.091665
-0.028098
0.020401
-0.153381
0.070779
0.143469
-0.103048
-0.049281
-0.234432
-0.010727
0.061660
0.099357
0.039938
-0.005966
0.046940
0.038926
-0.049150
0.045378
0.021833
-0.040381
0.072937
-0.000356
-0.014263
0.017166
-0.071924
0.027425
0.154951
-0.108141
-0.007347
-0.247263
-0.145677
-0.064589
0.097393
0.055522
-0.071858
-0.052125
0.007064
-0.067273
-0.044235
0.044750
0.059403
0.006568
0.000656
0.052039
-0.065201
-0.015492
-0.063324
0.008732
-0.063581
-0.008988
0.002784
0.006474
-0.015069
-0.023637
0.156277
-0.068619
-0.031145
-0.034022
0.016333
-0.075770
-0.013880
-0.064253
0.009572
-0.043661
0.007633
0.068961
0.175326
-0.115388
-0.165023
-0.038514
-0.173204
-0.000729
-0.059374
-0.036498
0.018371
0.037341
-0.084658
-0.082537
-0.075678
0.059964
0.053762
-0.031528
0.074448
-0.083526
0.065286
0.082462
0.123209
-0.115786
0.137267
-0.008919
0.028891
-0.109975
-0.168956
-0.068047
-0.052565
-0.182774
0.112687
-0.018860
0.183543
-0.091189
-0.051695
0.094335
0.076236
-0.137814
-0.248404
-0.134105
-0.100781
0.143289
-0.136513
0.136174
0.100514
0.070630
-0.235851
0.084121
0.057517
-0.027240
-0.041285
-0.177140
0.012157
0.099744
-0.143642
0.033928
0.115866
-0.088325
0.149355
0.217961
0.189375
-0.160793
-0.288657
-0.176485
0.094345
0.018167
-0.025390
0.045279
-0.003222
0.070882
-0.025730
-0.010819
-0.029811
0.057550
-0.069414
-0.023764
-0.064883
0.071991
0.055515
-0.161560
-0.034924
-0.100794
0.098244
-0.121953
0.117568
-0.087883
-0.172471
0.030125
-0.004942
-0.231855
0.004781
0.087292
0.082119
0.070587
0.088981
-0.170204
0.029344
-0.140323
0.091850
-0.074734
0.050272
-0.004455
-0.050213
0.164166
-0.041483
-0.066122
-0.210101
0.156457
-0.150170
-0.092710
0.023668
-0.023218
0.044643
-0.056580
0.011905
-0.007241
0.003638
-0.038240
0.022347
-0.131191
0.037190
0.027048
-0.078757
-0.010918
-0.023889
-0.034174
-0.018238
-0.066006
0.059657
-0.039325
-0.027062
-0.011460
-0.029831
-0.060474
-0.050378
0.014536
-0.045664
-0.080178
0.015173
-0.051561
0.063122
-0.182844
0.116857
0.077666
-0.042032
-0.233461
0.109054
-0.089491
0.120943
0.073753
-0.066129
0.145692
0.042133
-0.108701
-0.131085
-0.231581
0.054939
0.104985
0.046832
0.051965
0.072911
-0.118351
-0.040394
-0.012798
-0.108396
-0.025045
0.243070
-0.135673
-0.170764
-0.044582
0.051575
-0.131956
-0.150418
0.089725
0.121416
0.087057
-0.140559
0.099102
0.047727
0.054251
0.105134
0.126087
-0.165451
0.030859
-0.147698
-0.013878
-0.004724
-0.080321
-0.080240
-0.313844
0.066644
-0.076630
0.042099
-0.134464
0.092457
0.009016
0.002636
0.034791
0.017135
-0.105609
-0.011966
-0.153684
0.129629
-0.192846
0.047481
0.045869
0.082881
0.114147
-0.243469
-0.268022
0.151334
0.243827
0.017538
-0.157136
-0.112485
-0.119643
0.031886
-0.164254
-0.095609
0.087527
-0.042209
-0.006128
-0.036669
-0.013131
-0.115615
0.140827
-0.414015
-0.074429
-0.190092
-0.220676
0.095310
0.098997
0.011153
0.074933
-0.272945
-0.063128
0.127407
-0.076316
-0.005250
-0.156044
0.037859
-0.124840
-0.277163
-0.024418
0.019430
0.184419
-0.229247
0.132421
-0.219263
-0.093735
0.037054
0.043294
-0.070139
0.020371
-0.059767
0.015826
0.073054
-0.009089
-0.034001
-0.159357
0.113483
-0.027982
-0.125602
0.168466
0.142801
0.072661
-0.251792
-0.013464
-0.124730
-0.015149
0.136870
-0.076328
0.024160
-0.086638
-0.022252
-0.037347
-0.064567
-0.049698
0.039540
0.089458
0.026638
0.025978
0.023779
0.007173
-0.046223
-0.005842
-0.054790
-0.022293
0.055852
-0.102543
0.057362
-0.254785
0.072927
0.134642
-0.065289
-0.065920
0.099207
0.049649
0.159320
-0.259594
0.107136
-0.017195
-0.106880
-0.067468
-0.096706
-0.076579
0.129789
0.134592
0.064698
-0.203775
0.079893
0.120750
0.057855
-0.000528
-0.254178
-0.068339
0.003085
0.038224
0.131531
0.004379
-0.257595
0.018522
-0.080943
-0.033221
0.170042
-0.114861
0.107204
-0.087908
0.025374
0.088519
0.025403
0.130802
-0.038424
-0.177236
-0.022843
0.002391
-0.058954
0.074871
-0.033207
-0.132831
0.045016
-0.108981
0.012966
-0.022448
0.049488
0.098112
0.180054
-0.069158
-0.143233
-0.030775
0.122176
-0.125958
0.022114
0.055431
0.113572
0.024120
-0.064372
-0.164712
0.063546
-0.040986
0.053868
0.032050
0.066342
0.048990
0.110927
-0.090784
-0.007730
-0.014571
-0.208592
-0.178062
0.083505
0.096519
-0.050281
-0.113248
0.073506
-0.057253
0.051866
0.010308
-0.078082
0.026222
-0.063382
0.082973
0.107992
0.005345
-0.010122
-0.190351
0.080716
0.003732
-0.075047
0.084951
-0.233099
-0.156367
-0.028578
0.074053
0.164112
-0.095430
0.086500
-0.156120
0.012919
0.126464
-0.077066
-0.009152
0.040782
0.113297
-0.003704
0.093999
-0.125519
-0.158486
0.139800
-0.059238
0.107924
0.085904
-0.020910
0.122403
0.021519
-0.271442
0.089337
-0.080678
0.048014
0.113565
0.106248
-0.226354
0.114691
-0.297753
0.002466
0.068006
0.038546
-0.032437
0.087389
-0.160906
0.047316
0.002497
-0.187802
0.151221
-0.134541
0.061647
0.119340
0.097706
-0.059331
-0.013396
-0.165777
0.002190
0.081428
-0.161217
0.066608
0.099524
-0.144786
0.029793
0.044012
-0.034819
-0.125627
0.109606
0.101564
-0.097105
0.066588
0.012911
-0.123972
0.101615
-0.056073
0.040270
0.095133
0.092120
-0.257044
0.174792
0.029806
-0.014869
0.144102
-0.142058
0.003812
0.017995
-0.062079
0.053870
0.068979
0.022744
-0.083010
-0.089153
-0.058317
0.024902
0.023950
0.101897
-0.251260
-0.051316
-0.040087
0.106766
-0.085694
0.069046
-0.078276
-0.106254
0.132840
0.075384
-0.036005
-0.006630
0.039109
0.040950
0.089778
0.031475
0.009131
-0.059479
0.025311
0.056124
-0.129310
-0.190662
-0.132378
0.044159
0.012384
0.032274
-0.100895
0.124727
-0.103948
0.035640
-0.020793
-0.090764
0.124020
-0.174249
0.072650
0.050502
-0.057150
0.035359
-0.084582
-0.133975
0.097073
-0.181337
0.053486
-0.067752
0.004399
-0.179456
-0.007652
0.088130
0.105683
-0.029737
0.101456
0.016412
0.060894
-0.008448
-0.155005
-0.041462
-0.015279
-0.059767
0.032088
0.023431
-0.010935
0.063983
0.050389
-0.029991
-0.045378
0.065688
-0.029072
-0.069474
0.005245
-0.064733
-0.026675
-0.020679
-0.088323
-0.001179
0.008108
0.093393
-0.071119
0.121148
-0.046645
-0.065887
0.013109
0.036435
-0.065639
0.070745
-0.020491
-0.007584
-0.051658
-0.002239
-0.015237
0.021364
0.003682
0.021610
-0.000328
0.069924
0.045328
-0.087270
0.068343
0.016444
0.027963
0.128819
0.029787
-0.059780
-0.117212
-0.046425
-0.027854
-0.001371
-0.068249
-0.046579
0.015886
-0.198559
-0.057072
-0.003923
0.146518
0.074657
-0.171094
0.002699
0.063559
-0.062675
0.105491
0.040825
-0.028924
0.028266
-0.028581
-0.051835
-0.058770
-0.048650
-0.036812
-0.056736
0.041749
-0.227848
-0.213095
-0.166127
-0.181371
0.130332
0.114494
-0.071655
0.120331
-0.125340
0.090008
-0.044427
-0.003305
0.016154
0.060606
0.016982
-0.063640
-0.072987
-0.048182
-0.018005
-0.046155
-0.034304
-0.000676
-0.026639
-0.032022
-0.038260
-0.067429
0.043421
-0.001214
0.026142
-0.065276
0.019585
-0.009499
-0.037906
0.018217
-0.018277
-0.006126
-0.013723
0.050032
0.040712
-0.032247
-0.029919
-0.016587
0.018244
-0.228398
-0.017400
-0.118138
-0.296440
0.080269
-0.101175
0.119788
0.105898
-0.193301
-0.033010
-0.043956
-0.155989
-0.111260
-0.063575
-0.015577
0.015340
0.095344
0.071786
-0.047762
-0.030505
0.059772
-0.070102
0.057383
0.049382
0.001873
-0.071799
0.038456
-0.173594
0.146951
-0.204633
0.017955
-0.138887
-0.104333
-0.149667
0.056095
0.051176
-0.049361
0.149512
-0.111705
0.080849
0.046485
0.037574
-0.072594
0.083684
-0.045527
-0.097855
0.072228
-0.052627
0.015779
0.022702
0.084411
0.020348
-0.046120
-0.051262
0.036363
0.020736
-0.036666
-0.057639
-0.106220
-0.015500
0.127254
0.038250
0.008502
-0.088912
-0.058325
0.104527
-0.110039
-0.086422
-0.047767
0.056298
0.006936
0.055007
-0.005012
-0.109042
0.045434
0.005059
-0.039328
-0.022896
0.032900
-0.007730
-0.071234
0.018254
0.007845
-0.072200
0.028784
-0.048971
0.047705
-0.015843
-0.091032
-0.005422
0.021942
-0.195766
-0.144455
0.115633
-0.186221
0.075713
-0.059163
-0.017397
-0.007617
0.016009
0.062145
0.014674
0.040908
0.062499
0.033668
-0.058927
0.035757
0.000038
0.010381
0.054932
-0.032237
-0.031780
-0.037754
0.020842
0.041041
-0.014056
-0.007969
-0.091841
-0.053629
-0.083176
-0.053187
0.048091
0.075044
-0.044303
-0.025575
-0.048308
0.038738
0.009360
-0.158793
0.077304
-0.168613
0.086732
-0.141835
-0.012904
0.059534
0.055139
0.109586
-0.106769
-0.085784
0.160717
-0.126766
0.080996
-0.103165
0.182632
-0.227023
-0.279968
-0.065602
-0.220071
0.007309
0.092236
0.131094
0.066866
0.007168
0.018285
-0.077886
-0.150668
-0.067610
0.072509
-0.043705
-0.021253
-0.078301
-0.088888
0.043095
-0.015340
-0.076249
-0.092490
-0.052042
0.011821
-0.033711
-0.002354
0.022199
0.009585
0.086875
-0.059851
-0.084707
-0.028024
-0.091825
0.122350
0.183787
-0.136161
-0.107472
-0.226201
0.120697
-0.064957
-0.086251
0.002582
-0.031640
-0.200854
-0.121562
-0.155403
-0.039336
-0.133583
0.122299
-0.205045
-0.160065
-0.066331
0.157235
-0.136307
-0.048240
-0.116470
0.002583
0.094882
-0.181740
-0.232910
0.035644
0.138010
0.092519
-0.035466
-0.006729
-0.017414
-0.004800
0.021861
-0.051545
-0.005997
-0.001550
-0.013740
0.045020
0.083935
0.057895
-0.027781
-0.211657
0.197653
-0.187971
-0.020212
-0.164607
-0.109258
0.120046
0.109473
-0.080362
0.132526
0.044228
-0.130735
-0.055410
0.037869
-0.015991
0.097905
-0.216832
-0.121725
-0.023613
-0.217512
-0.146097
0.132007
0.082759
0.104488
-0.234327
-0.089805
0.063285
-0.159862
-0.065955
0.157945
-0.052117
-0.250260
0.013302
0.136094
0.034517
0.019385
-0.163148
-0.017621
-0.044123
-0.049417
0.035666
0.067971
0.018963
0.075028
0.063871
0.038217
0.017785
0.035638
-0.055628
0.072365
0.008132
-0.194855
-0.072306
-0.229179
0.054112
0.132182
-0.066868
-0.232825
-0.108717
-0.184089
0.096134
0.079307
-0.243310
0.070760
0.185357
-0.216669
-0.012956
-0.020756
-0.070167
-0.078409
0.013001
0.025110
-0.036250
-0.002420
-0.008764
0.007576
0.043026
0.006450
-0.105399
-0.142753
-0.112056
-0.108279
0.112195
0.051875
-0.104895
0.077128
0.062904
-0.091107
-0.019999
-0.121599
0.046770
-0.033154
-0.088411
0.047639
-0.177648
-0.054629
0.186847
0.109787
0.148905
0.121428
0.056285
-0.089369
-0.142604
-0.158021
0.094746
-0.197403
-0.132273
0.074338
-0.021906
0.084798
-0.076193
0.079777
0.031322
0.038744
0.058867
0.063511
0.049004
-0.189883
0.109845
-0.186599
0.068517
0.060162
0.112388
-0.228400
0.075586
-0.171210
0.150777
-0.041244
0.033749
0.044572
0.062876
0.054606
0.036644
-0.025754
-0.040171
-0.061688
0.018515
0.115935
-0.072861
-0.122551
-0.059976
-0.096548
0.037173
0.110654
-0.095299
-0.072878
-0.205441
-0.068398
-0.097707
-0.169386
-0.081750
0.022780
0.009744
-0.120498
0.075836
0.020356
-0.007564
0.078699
0.041641
-0.038200
-0.077041
-0.089590
-0.085706
0.039345
-0.068157
-0.079825
0.036424
-0.063245
0.014790
0.055594
-0.082990
-0.012784
-0.026733
0.049910
-0.054182
-0.010062
-0.015259
0.001527
-0.124672
0.031013
-0.013155
0.044088
-0.092525
-0.113511
-0.105593
0.097124
0.073571
0.131380
-0.317254
-0.175145
0.041561
-0.176060
0.096265
0.016572
0.018400
-0.039377
0.022021
0.085114
0.044435
-0.003423
0.069040
-0.036470
-0.003249
-0.065438
-0.002330
-0.047477
0.053117
0.036259
-0.061334
0.013333
0.067546
-0.069496
0.035288
0.049751
-0.031768
-0.009580
-0.082365
0.118103
-0.031318
0.029485
-0.033311
0.003314
-0.005052
0.043408
0.064868
0.035574
-0.078526
-0.144685
0.113050
0.102385
-0.093239
-0.046588
0.067773
-0.116488
0.049666
-0.069932
-0.174075
