0.029106
0.023464
0.026192
0.003720
-0.008308
-0.001183
-0.049611
-0.040311
-0.013926
-0.094129
-0.002115
-0.047684
-0.008963
0.083635
-0.051429
-0.111533
-0.067028
0.038615
-0.044879
0.028961
0.125890
-0.034247
-0.034565
0.039074
0.024453
0.008036
-0.001964
0.101459
-0.014589
-0.012881
-0.022219
0.015457
-0.015308
0.113204
0.015901
-0.011064
0.085744
0.112391
0.004798
-0.086792
0.067593
0.062200
-0.068572
0.030082
-0.051939
-0.077009
0.050818
0.025233
0.014603
0.000583
-0.061835
0.030433
0.036574
0.095837
0.063647
0.038469
0.022968
-0.080600
0.040608
0.038808
0.024470
-0.014559
-0.043063
0.042164
0.005474
-0.097345
-0.007042
-0.017102
0.017816
0.103201
-0.010608
0.007535
-0.032143
0.012100
0.002386
-0.048807
0.049313
0.014945
0.038087
-0.082015
-0.004459
0.009405
-0.012994
-0.036425
-0.020554
0.073492
-0.112015
-0.074049
0.014341
-0.040051
-0.033324
-0.004602
0.029633
-0.043436
-0.016434
-0.086894
-0.078872
-0.015553
-0.042107
-0.009652
0.022400
0.024919
0.020087
-0.032891
0.045988
-0.056149
-0.015989
-0.043576
-0.004913
0.008547
0.078960
-0.087875
-0.039118
-0.058383
0.051834
-0.019850
0.030225
0.023549
-0.060459
-0.050424
-0.026773
-0.057932
-0.031593
-0.001952
-0.045396
-0.030984
-0.012905
0.061931
